encog,BasicNetwork,java,3.2.0,1,1447310976030
[BASIC]
[BASIC:PARAMS]
[BASIC:NETWORK]
beginTraining=0
connectionLimit=0
contextTargetOffset=0,0,0,0
contextTargetSize=0,0,0,0
endTraining=3
hasContext=f
inputCount=57
layerCounts=1,229,229,58
layerFeedCounts=1,228,228,57
layerContextCount=0,0,0,0
layerIndex=0,1,230,459
output=0,0,0,0,0,0,0,0,0,0,0,0,0,0,0,0,0,0,0,0,0,0,0,0,0,0,0,0,0,0,0,0,0,0,0,0,0,0,0,0,0,0,0,0,0,0,0,0,0,0,0,0,0,0,0,0,0,0,0,0,0,0,0,0,0,0,0,0,0,0,0,0,0,0,0,0,0,0,0,0,0,0,0,0,0,0,0,0,0,0,0,0,0,0,0,0,0,0,0,0,0,0,0,0,0,0,0,0,0,0,0,0,0,0,0,0,0,0,0,0,0,0,0,0,0,0,0,0,0,0,0,0,0,0,0,0,0,0,0,0,0,0,0,0,0,0,0,0,0,0,0,0,0,0,0,0,0,0,0,0,0,0,0,0,0,0,0,0,0,0,0,0,0,0,0,0,0,0,0,0,0,0,0,0,0,0,0,0,0,0,0,0,0,0,0,0,0,0,0,0,0,0,0,0,0,0,0,0,0,0,0,0,0,0,0,0,0,0,0,0,0,0,0,0,0,0,0,0,0,1,0,0,0,0,0,0,0,0,0,0,0,0,0,0,0,0,0,0,0,0,0,0,0,0,0,0,0,0,0,0,0,0,0,0,0,0,0,0,0,0,0,0,0,0,0,0,0,0,0,0,0,0,0,0,0,0,0,0,0,0,0,0,0,0,0,0,0,0,0,0,0,0,0,0,0,0,0,0,0,0,0,0,0,0,0,0,0,0,0,0,0,0,0,0,0,0,0,0,0,0,0,0,0,0,0,0,0,0,0,0,0,0,0,0,0,0,0,0,0,0,0,0,0,0,0,0,0,0,0,0,0,0,0,0,0,0,0,0,0,0,0,0,0,0,0,0,0,0,0,0,0,0,0,0,0,0,0,0,0,0,0,0,0,0,0,0,0,0,0,0,0,0,0,0,0,0,0,0,0,0,0,0,0,0,0,0,0,0,0,0,0,0,0,0,0,0,0,0,0,0,0,0,0,0,0,0,0,0,0,0,0,0,0,0,0,0,0,0,0,0,0,0,0,0,0,0,0,0,1,0,0,0,0,0,0,0,0,0,0,0,0,0,0,0,0,0,0,0,0,0,0,0,0,0,0,0,0,0,0,0,0,0,0,0,0,0,0,0,0,0,0,0,0,0,0,0,0,0,0,0,0,0,0,0,0,0,1
outputCount=1
weightIndex=0,229,52441,65665
weights=##0
##double#65665
   -0.7150769037,-0.2519617408,0.8998295426,0.6914495315,-0.6145339561,-0.7760402856,-2.2288996504,0.9623397314,0.6751592502,-0.4351670695,0.3429311536,2.9604924985,0.2308578971,-0.2960433837,0.7506657554,-0.1091679613,-0.1406644165,-0.7895884253,-0.8269097394,-0.380997493,0.0175474053,-0.327634508,-0.3589531142,-0.2723722982,0.5574343427,-0.555292916,0.9522797872,-0.9750677365,-0.5134812768,-0.6058598517,-1.3709213253,0.2734375584,0.9948556958,0.7634659407,-0.9710330361,0.8335212382,0.4456504081,-0.3290354261,0.8800816449,-0.702586628,1.0915882976,-0.9844443235,-0.5401402315,0.6077080208,0.3120112814,-0.2106071478,-0.6366639461,-0.3143048899,0.9014424254,-0.6022288296,0.3488604547,-0.3886854927,-0.9714145415,-0.9001437244,-0.9923986046,-0.4450693826,-0.3686902055,0.7936067507,-0.5662803578,-0.7141680852,-0.3327773417,-0.2113862954,-0.2643992099,-0.0596535574,-0.0386814932,0.5303753984,0.0650540829,-0.427173599,0.248029003,0.9159230923,0.3932243286,-0.4818380599,0.0654911152,-0.5354538215,-0.8965542479,-0.8013478129,-0.7461701456,-0.3327978281,11.2306759168,-0.2574480293,-0.5450922076,-0.5472625233,0.0355933347,0.532218691,0.313854398,-0.6097066957,0.1824641556,-0.5735823237,2.8999099762,-0.7660152667,-0.7457898357,0.2226928669,0.0659343277,-0.1920250095,0.9497630546,0.0772208928,-0.1647152729,1.022207467,-0.6764041385,-0.4226244443,-0.1166505111,0.0771772794,0.2228012637,-0.2545649922,0.5487782173,-0.7760598542,1.9417219911,0.0193815436,-0.571949958,-0.6653968721,-0.5190498358,-0.6911590429,0.5678772958,-0.7258063287,0.4949901459,0.4726145423,0.1444342288,0.9141123668,0.9566771509,0.7974996303,-0.9040965071,0.9121499087,0.0905751761,-0.5486099337,0.6019898958,0.2732234991,0.6180943928,0.2704986788,0.27158737,0.2970283697,0.222056368,-0.7737389913,-0.8434263547,-0.2990617954,-1.0768855903,-0.3692676312,0.8592617464,-0.5695394311,-0.6598705117,0.8683950815,-0.2778025777,-0.1252539026,0.9648177539,-0.105135143,-0.9773120794,0.2429670982,-0.3789496748,0.8738693582,-0.6065962175,0.4498509782,0.4286613956,-0.1761309977,1.403037156,0.5703998807,0.3298565723,0.3049134717,0.6253644091,0.1928004611,0.6995919392,-1.375010015,-0.5840720552,0.2003113424,-0.3601951261,-0.674162147,-0.7212081722,0.0982390249,-0.3514460753,-0.1260335484,0.8020120572,-0.2648972198,0.7986036284,-0.8999271636,-0.2564981863,0.5267028517,-0.2688847316,0.2953829881,0.5718200467,-0.4833448091,1.0002619302,0.4016489442,-0.5967975445,0.2875246109,0.6017281674,-0.4046889649,-0.5173899569,-0.4572572832,-0.9449313796,-0.3672039315,0.9730193538,0.6370672596,0.168108915,0.1418290903,-0.4396690699,0.809592039,0.2453259344,-0.2417159312,0.2704393734,-0.2746620454,0.7209093506,0.4684743991,1.6965723052,-0.9691747917,-0.5726915379,0.4181996372,0.5564013699,0.9350068849,-0.6924889124,0.8865500672,0.1602536751,-0.2949831213,0.2900824176,-0.7428833336,-83.656815017,-0.201808321,-0.7017493931,-1.0291390089,-0.4952847383,-0.2426827342,0.1790570725,0.9880051226,2.2869819422,-0.1265390414,-0.5011227382,-0.0041781216,0.7392593069,-0.2081186732,0.4103505038,-0.6480752383,0.5689542169,0.2828431682,0.6771820312,-0.7226053704,0.1482485681,0.834378378,-0.1698007909,-0.0957851012,0.0746315988,0.3453209041,-0.495887246,-0.9335507814,-0.936987696,-0.6150388043,-0.2777034792,0.8443762292,0.7563519261,-0.4963203941,0.9530041577,-1.0894907625,0.3475859511,-0.4393138919,-0.2109930275,0.6934687593,0.0492149068,0.6855616044,-0.8831659956,0.160882353,-0.796425656,-0.7733078965,-0.4668867994,0.9652439158,0.04132802,0.1829407398,-1.47385803,-0.7047653277,-0.3616812417,0.9053220485,-0.835221269,0.3293658168,-0.4968699185,-0.8411046638,0.4885475651,-0.8121680028,0.680206717,-0.7898398629,-0.2245766154,-0.65190451,-0.8232363225,-0.7869308607,-0.0570381396,0.3469015857,0.2987460632,-0.3373281045,-0.8656081823,-0.2335978061,-0.7115140269,0.5738391778,-0.5468572112,0.9324324262,-0.5495435562,-8.2813660045,0.8100774572,0.8555992951,0.0266057421,-0.47163512,0.7677755035,0.3480517725,0.060964152,0.4738645985,0.4100790284,-0.8062405615,0.2953382784,-0.7383281899,0.2585783663,-0.399924265,-0.9599677157,-0.176717909,-0.6452627812,-0.3922845635,-0.0378255002,-0.8642212087,-0.8662931433,-0.7922338416,0.1722106073,-1.9341783339,-0.8464504979,-0.8465298275,-0.1076575249,-0.9272789983,-0.7245416895,-0.9412012736,0.3368391936,0.423666588,-0.7533933845,-0.7796143993,-0.1112675145,-0.4425006199,0.631530539,0.5545502365,-0.6093955949,-0.5488868941,-0.9472178703,0.4328160191,0.6787167099,-0.6149122675,-0.706518216,0.5515500236,0.0099329668,0.3881767211,-0.0473841216,0.8649874833,0.0429531212,-0.0919780719,0.9062057997,-0.6129943765,-0.0515426754,0.0477860738,-0.7018277378,0.1082023612,0.8134058881,0.9856972548,-0.2705697458,0.8863395765,-0.0561048491,0.2136969352,0.4125682114,-0.8095496054,0.5239979948,0.7964346713,0.5161346551,0.2383151396,-0.5048828728,-0.5425609328,0.5749815645,0.6196579356,-0.1427332102,0.2339882429,0.0485625953,0.2295019998,-0.351915687,0.3727566138,-0.94718621,0.386250668,0.552563006,0.2693072967,-0.1359061584,-0.8610897984,-0.373203891,-1.2748564487,-0.9311468268,-0.7513481576,-1.0216582424,0.8438214829,-0.5195660698,0.5431136825,0.1377283698,-1.0865824287,-0.1934145496,-0.009557806,-0.9318323613,0.143292572,0.6912025928,-0.3445074323,0.7002638729,0.3600119575,0.4611635737,-0.8010403711,1.0961114862,0.5518368927,-0.876118409,0.9714509288,-0.0605319538,-0.2064969221,0.1399506949,-0.7006106326,0.3271125251,-0.7914190468,0.3684507098,-0.3265803162,-0.8013674684,-0.0141124835,-0.0528974117,-0.3942243545,-0.3681900728,-0.1915685614,0.0617369165,0.3413240815,0.9569683732,0.9313440493,0.8678567317,0.8839192926,2.6051129565,0.2399223799,-0.3142645069,0.3277315885,0.7067107982,-0.2230224685,0.201396089,-0.548232005,0.7840579224,-0.9270910391,0.8562269357,0.9216308075,0.7843737439,0.9146992924,0.71325395,0.9623628652,0.3845481704,-0.6975736421,-0.9838184146,0.3303428626,0.5716251572,-0.9571023979,-0.5767108751,0.408938919,-0.4981014592,0.2014739101,-0.3900184385,0.500097479,0.4202435048,-0.6397929024,-0.7045583893,-0.8826113348,-0.5886777215,-0.1654336523,0.0971152221,0.3270943162,-0.487457275,-0.518687493,-1.5611071413,-0.9550411487,0.3602866711,-0.6922879972,0.5749329517,0.509080782,0.9470539849,0.1001270383,-0.2915755852,0.9142793716,0.6361006714,-0.3882781928,-0.8258096558,-0.7431893959,0.8143776638,0.7871074238,-0.1553535683,0.2091932178,-0.4004215266,0.5889193975,0.1743956924,0.3839966341,-0.9165172355,0.034652439,-0.5016085997,0.9421235428,-0.3187469927,0.8744552879,-0.3622432724,-0.0609854941,0.5534749725,-0.2432637848,0.5974262678,-0.1650702324,0.9662412902,0.7007587007,0.9401059038,-0.1449781899,0.106057505,-0.6711033683,0.4474343984,0.2545987753,-0.5764269378,-0.1390146799,0.3018890552,-0.2317899978,0.8128375751,0.2330078431,-0.8829273633,-0.0589420876,-0.5698754037,-0.2576774748,-0.721255239,-0.8426004593,-0.3256072067,0.7758582784,-0.6894809511,-4.447790618,-0.2505780288,-0.6686521962,0.3617039659,0.2794915321,-0.2058337931,-0.6255391501,0.4479520081,-0.3102438529,-0.9679099847,-0.7816396715,-0.9009737361,0.0048396802,0.7531091107,-0.0823678753,0.3317698818,0.5086021196,0.102050393,-0.4228123111,0.3001557729,-0.221605661,-0.3718048159,-0.1570950423,0.0273618333,0.0859740891,-0.0753398219,0.1972472885,-0.2428671564,-0.36589823,-0.046055277,0.2580940822,-0.7509170173,-0.8023111734,-0.5217885731,0.3774870554,0.378553477,0.2204332305,-0.6732453366,-0.1615061024,-0.9396213774,-0.6540623078,-0.1255140695,-0.8606807839,0.1600404234,0.7651684005,-0.5492334767,0.7401417587,-0.5811452272,0.552781532,0.3002396474,-0.9745776255,0.1663272509,-0.9084392938,-0.1840071322,0.8718860118,-0.5284135758,-0.5800281109,0.0500144098,0.1656897875,0.6309881156,-0.3783929412,0.5192891493,-0.2326841387,-0.5158740224,-0.7082019397,0.5075354922,0.3114077839,0.8422057675,-0.6374325305,-0.5939424404,0.3337806346,0.5366336745,-0.3804965686,-0.8656007651,0.7158934609,-0.8936427539,-0.0811384959,0.5010165481,-0.7332041588,-0.2660290498,-0.8456393437,-0.4550363851,0.544808925,0.951452154,-0.4947307365,-0.0538377541,0.7489001169,0.1107778999,0.8507154464,-0.6874854698,0.0204452949,0.9329398309,0.9020766877,-0.010339588,0.6147590777,-0.1290522219,0.1124595012,0.361122324,-0.5548904495,0.7256528542,-0.5069193014,0.663302322,0.2703687152,-0.5247838634,-0.7021778447,0.360294567,0.4172604117,-0.9664629355,-0.7241199725,0.7145762941,0.644101039,-0.6600880871,-0.8423341445,-1.5011358928,0.3669969906,-0.2428047528,0.8142752904,0.4904638037,0.6397185943,-0.9685185388,0.9737882054,-0.6335000195,0.0578834044,-0.3175039844,-0.7274459973,0.581815297,0.0939755809,0.6340478091,0.8071887176,0.5206892645,0.0207797861,-0.9026916574,0.3927310672,-0.396651664,3.0868181155,-0.7151528808,-0.8652982634,-0.940975961,0.3783556021,0.9661898466,0.6289453734,0.5764495581,0.5468714246,0.2732077095,-0.7236963902,-0.7003960711,0.7729132693,-0.4593521891,0.822912834,0.0126039064,-0.1344084808,0.0324769022,0.7652382926,-0.3256243218,0.496345506,0.1011351451,0.5752350706,-1.080523421,-0.4971069966,-0.1856794664,0.0605477363,0.6179858549,0.4314295552,-0.8911283259,-0.0697032354,0.9410210966,-0.3869915584,0.1824355756,0.0827174776,-0.2985061098,0.9534768666,-0.0116898922,-0.4280962609,0.6930809425,0.2973482096,-0.8552700969,-0.3205846853,0.4227534854,0.2520204965,-0.9399909397,0.7260982684,-0.1923770303,0.9633087924,-0.3584174569,-0.0074415166,1.0050318962,0.9537228484,-0.6495457085,-0.7712273899,0.2685410233,-4.1368989816,-0.9207038679,0.8710213568,-0.9015320134,-0.2216839355,-0.643105278,0.0725612589,0.6711002295,-0.7368992701,0.9512536018,0.1888118696,-0.779882903,-2.5928732372,-0.032616971,0.4562471832,0.1630476345,0.7327084916,0.5515783185,-2.5645459282,0.0646870862,-0.2987816693,-0.0532403685,0.4004748742,0.6159237311,0.016115446,0.8559733889,0.8989012885,-0.236205974,0.0942520596,-0.677343867,-0.8496413316,-0.0584726102,0.5265015494,0.5878327378,-0.1105991949,0.7955064769,-0.3308385107,0.476995985,-0.9044371161,177.7293037574,0.0386155134,0.1716553756,0.6038131505,0.3149532656,-0.336907572,-0.9125199132,0.1767441243,0.3571911099,0.2457752521,-0.2504444032,0.1821636314,0.2774183168,-0.4690780679,0.6528154692,-0.9359878541,0.662128864,-0.2588062553,-0.8086026584,0.3874057653,-0.6243597636,0.9136075192,0.4309357858,0.1079916556,0.4225380014,0.3569211922,0.0563256076,-0.7758934752,0.9886362695,-0.0732264341,-0.6713972179,1.0256615794,-0.0193302784,0.845865411,-0.2827103822,1.6338750142,-0.76402357,0.6450771637,-0.0101886414,-0.7254256943,0.2071901379,-0.0371424047,-0.8770313988,-0.0194772926,0.9153560169,-0.651717096,0.889396938,-0.2029571569,0.8039292229,0.7221031604,-1.1576166351,0.5362120708,-0.4024922022,-0.9805561192,0.1475552458,-0.7481557605,0.1939694835,0.3212177979,-0.0715022521,1.0001361135,-0.4635376557,0.0964650135,0.3416084124,-0.1355146303,-1.7616461353,0.1716850247,-0.0736188859,-0.2884260588,-0.4555870466,-0.254064011,0.1422742031,-0.8613836631,0.5401978362,0.0019755014,-0.9180268433,0.2420997621,-0.1592189391,-0.7732632602,-0.162138608,-0.245929037,-0.0911616028,-0.3697907615,0.7183680214,-0.4153368923,0.3179461181,-0.0047613055,-0.5457810999,-0.8252956034,0.8236536656,-0.9093698829,0.4699171312,-6.3608512265,0.2969094252,-0.0974296488,-0.3471162619,-0.0910434626,-0.6137641506,0.7435138076,-0.7765312151,-0.9148764137,-0.3606974961,0.5716720761,0.7771388282,0.7910157581,0.2252443386,-0.7996586736,-0.1905938344,-0.8072794833,0.9045762048,0.3362540134,1.0737148759,0.0154228188,0.7856059414,0.9653055174,0.5512909111,-0.7154241213,-0.6002593345,-0.5573340988,0.1301367504,-14.8091005562,-0.7170474394,-1.0445102297,0.0553211545,0.4768888951,-0.8719769595,0.7166950682,-0.1885632003,-0.3160963708,0.5314705441,-0.91743771,-0.0824967965,0.4656197261,0.878391842,0.6781585829,-2.7900409598,-0.7083199943,0.137834238,-3.9067818626,-0.1625230578,0.840330212,-0.0320261124,0.404073112,-0.4504544489,-0.2987768078,0.3888974485,-0.5699749033,-0.7876932161,0.1452706957,0.6900993238,-0.7592933458,-0.6418809902,0.4526859376,0.3547330547,-0.6548601682,-0.8747459042,0.1715200166,-0.1222264148,-5.8017471232,-0.8680531216,0.4946033806,-0.238415147,-0.17066151,0.3235808795,-0.230899052,-0.7888075568,-0.2872214564,-1.2199954254,-0.1250185161,-0.9285697053,-0.9190392839,-0.5221303995,-0.7232172439,-0.6824751299,0.2806606767,0.7015079155,-0.3925873187,-0.4817537526,0.031714612,0.065154558,0.8112608218,0.6257800048,0.8972730151,0.910327655,-0.4085875738,-0.3431226018,0.4271850027,-0.2387193742,0.5646739023,0.0082754389,-0.4637305628,-0.056895575,-0.560442758,0.1854333808,0.2282092068,-0.1856377073,0.6418067305,-0.8045004822,0.5996020698,-0.6410078395,0.5058589438,0.6359939961,0.5287991438,-0.2241929052,0.6834274084,0.5074481771,0.8104896174,-0.1357988962,-0.545552525,0.9605805173,0.6260814248,0.6914697668,-0.511531991,-0.9266475732,-0.8874272262,0.3278794873,0.3051273663,0.4782123681,0.3848213851,-0.078231639,-1.0036267851,0.7057991069,-0.9366910702,-0.1843327542,0.4661783069,0.8165292404,-0.1994789762,0.3487043538,-0.8262123562,0.3216162492,-123.9221450631,-0.8172534999,0.6456474243,1.8318380604,-0.474631781,0.8189121755,0.7096509082,-0.4479157275,-0.7658336577,-0.3228612456,0.9095189113,0.1957388342,-0.1572951753,-0.055741316,-0.131319105,0.8896927295,-0.0605308336,0.3885514831,0.6698909972,-0.7874882155,0.3415524462,0.2734926832,0.2323868633,-0.353341409,-0.6161502836,0.2709324212,0.6580750457,0.381801249,0.3250912214,0.7938983685,0.7223186001,0.2316150169,0.6809654379,0.0348338133,-0.967348057,0.1906640471,-0.3870342325,-0.2325694818,-0.4165046561,-0.8068682647,-0.6921320781,0.3205458021,-0.8539780324,-0.887208184,0.3446617954,-0.8440375796,0.5120280973,0.8287297125,-0.9150657849,-0.4009379627,-0.1234123124,3.3661680262,-0.9796610531,0.206948103,0.549291236,-0.2025422963,0.1797944065,0.1648908238,-0.7187394974,-0.8452245455,0.4767534339,0.6408909296,-0.4935984974,-0.5550617846,-0.8318152645,0.1456268844,0.8221032416,0.2315646426,-0.4200738986,0.0252638948,-0.4584923727,0.412067746,0.7152260176,-0.3107620877,-0.4897434673,-0.3809383095,0.8153828891,-0.2498682997,-0.561832121,-0.1816050668,0.362957059,0.2830653322,-0.9404691326,0.3973507138,-0.9156182515,-0.8780434402,-0.4015560831,-0.5124330892,-0.9041123761,-0.0608320984,-0.566315914,0.6683672584,0.9248667826,-0.71627833,-0.3370642189,-0.701259028,-0.6489852645,0.0108432384,-0.7777532646,-0.8127295659,1.0033053058,-0.966854076,0.6714283994,0.071327108,-0.8894565553,-0.0642683211,0.7649652525,-0.3016478953,-0.0933019928,-0.7601010461,1.2755917572,0.7569779865,0.9856871218,0.9475709678,-0.5469990836,0.6909986905,-0.8052584281,0.5083655888,0.0781967305,12.5760785085,-0.1005024169,-0.1226074668,0.2665956769,-0.2036337018,0.3469949536,-0.6169329024,-0.6487432691,0.559180514,-0.9131872934,0.0576819749,-0.5696694115,0.8259633409,-0.6589741018,0.8899463666,-0.5762221509,-0.868208763,0.2384013685,-0.1268187398,0.4275347608,-0.8283381607,0.3123936092,0.8762705771,0.9034332519,0.5764047082,-0.9327422557,-0.072588377,0.2304940886,0.7100995465,0.0149388815,-0.1599567804,0.048534275,-0.232166008,0.1322426679,0.7456235162,-0.915223776,0.0917387212,-0.6212256706,-12.8888213907,0.7712072097,0.1876476123,-0.016388579,0.6249118894,0.470992642,-0.9372803103,-0.2609542761,5.5615960895,1.0140472659,0.556013503,-0.4671321851,-0.3738838464,-0.4454183036,0.033112954,-0.4536394425,-0.8016656265,-0.761416526,-0.6695283809,0.9271668102,-0.6554126101,-0.3943559116,0.6022603592,1.2560524258,-0.6630133938,0.6902902376,-0.4889038384,0.4879757804,0.5315412193,0.9032434018,-0.4565964114,0.6789516763,0.4272009022,10.2410217707,-0.4944438915,0.5827050014,0.9797954306,0.0086098417,0.3145940455,-0.9644256011,0.9703256235,0.7155099997,-0.235923985,0.789954909,-0.8880549533,0.1876987586,-0.0434012953,0.1531896124,0.1370206517,0.3138740289,-0.7630290224,0.9929749999,0.5724837949,3.15163028,-0.3650448386,0.0817219904,0.5606940877,0.6641307884,-0.8104744339,0.2552943479,-0.095855709,-0.5325213744,0.8709953356,0.9415482282,0.4278830144,0.6755320199,-0.5859005723,0.6607337004,0.8014877149,-0.1442315579,0.7047229402,0.81697671,-30.5135793636,0.3355813295,0.1690790658,-1.484126769,0.0036455017,0.8819845684,0.6319952052,-0.3034272436,0.7723468732,0.417130154,0.1907664442,0.5412844589,-0.1901958628,0.5524561928,0.1341326383,-0.4029146096,-0.8378318382,0.7891745875,0.6776131167,0.9248263695,-0.1644861574,-0.4163318251,-0.9221516493,0.4514242097,-0.1490898287,0.4226404823,-0.6870490719,0.2414925567,-0.7265762516,-0.2055578574,-0.065440084,0.2276300921,-0.2678177921,-0.9945056913,0.1684149595,-0.0264976027,0.7166219898,0.0016371978,-0.3960565932,0.8085822945,0.1972161416,-0.6711749783,-0.0515702307,-0.3611105894,0.2999480549,-0.0406614039,-0.729482004,0.0441335277,-0.6467669731,-0.8876462746,-0.3762320283,-0.2000566446,-0.4215077174,0.3198623641,0.7810264975,-0.2382080578,-0.9447598014,-0.9263465338,0.8054817148,0.9024388572,-0.4135807735,0.8376658901,0.7105905332,-0.1889009882,0.6311526924,0.9049693892,-0.3416753557,-0.4297243272,0.844742178,0.1513460122,-0.5422927927,-0.1318227386,0.5917050571,-0.8307612046,0.1134592428,-0.8508473374,-0.7307060125,-0.1156501555,0.3603250726,-0.1459118138,-0.633731078,-0.4303913691,-0.2010789745,0.9182626186,0.3607438296,0.6636520176,-0.8737771801,-0.3929912392,0.8991065575,0.5737908063,-0.293457599,0.277444021,-0.9905553668,-0.057142521,-0.2334379644,-0.0189651852,-0.6799385718,-0.0896119638,-0.0882403702,-0.1870187925,-0.4161106938,0.36970183,-0.9164332605,-0.4812311894,0.2584943288,-0.1046076138,0.6577657664,-0.9225969827,-0.0452117891,-0.6060138801,0.1044343838,-0.4745771746,-0.5460047772,0.1184374715,0.8838058244,-0.774676897,-0.5789582522,-0.499148965,0.3381098087,-0.6252419915,0.436723371,-0.9733414289,-0.241281058,-1.274692275,0.767275666,0.1067803228,-0.1383410376,-0.7332310129,0.2614692757,0.0055000809,-0.9126657977,0.0236924839,0.1866404096,-0.4722454564,-581.9860407856,0.5620829644,-0.6062135474,-0.5136273029,-0.8576021196,0.7368705908,-0.405735044,-0.5454601121,-0.7936657078,-0.4603441989,-0.1913885029,0.7922926466,0.5872261323,0.376848357,0.0406395547,-0.0915036874,-0.5828207498,-0.8855789339,0.9134870565,0.3027413109,0.5959154264,-0.2331188189,0.1157624974,-1.7179620676,-0.3431231204,0.1360104437,-0.3881755265,-0.7616089592,0.8705366649,-0.135021583,0.0347595406,2.0979609737,0.4218815558,0.1624629639,0.290021622,-0.1166182004,-0.6579117785,-0.4015808655,0.0019420414,1.0478062583,-0.3097113296,-0.214965448,0.1239442538,0.6120378939,0.1278971955,0.8689082948,-0.1930674927,0.6846842005,-0.6787317922,0.8050381422,0.7950295368,0.6132978547,0.7241780527,0.4279544327,-0.4179099819,0.3873526131,4.3230712043,0.9366195763,-0.4177379991,0.9086586673,-0.1311380322,-0.7685531673,0.6670517492,0.7778127322,0.7619494866,-0.6446466387,0.848440475,0.3026612974,-0.9591981949,0.2979591947,-0.0606921382,0.3453045503,0.569294387,0.5145282335,-0.1265123793,0.0503884112,0.1470715797,0.1912861223,-0.7392234172,-0.3144530677,0.4245299392,-0.1756687371,0.0864307232,0.9331323752,-0.9311832871,0.3950595281,-0.6937606605,-0.5607841381,-0.6713320825,-0.2042184993,-0.0888175608,0.2987246061,0.671456297,-0.6300141667,0.9854972536,-125.6398466319,-0.1398026942,0.0897486149,2.8760260989,-0.7566245376,-0.1831117575,0.89877402,-0.0194954996,0.5766790547,0.2345946425,-0.6494521392,0.35949033,-0.481181228,1.0405074093,-0.2824268332,0.5457628883,-0.0122049646,0.040617059,-0.5411271108,0.315307446,0.2174180435,-0.6130655757,-0.3405814049,-0.5384607187,-0.4735961928,0.8573884714,-0.6690197605,0.9193021514,-0.9708363669,0.9524541077,-0.2547341118,-0.0321616814,-0.6802559115,-0.4343249024,0.8943432053,-0.6608049248,-0.4226555591,0.2531470628,-0.0492856747,-0.9458306266,-0.4490949727,0.7256677819,-0.7081517344,0.34908422,-0.374024596,12.4942381246,-0.6160471905,0.2707067875,-0.8170754087,0.4656841994,0.689828099,-0.0407712784,-0.9939785337,0.988930604,0.2782373813,-0.8288502933,-0.3931128241,0.5385144727,0.2257620295,0.4011334385,-0.3483601144,0.9058788698,-0.5453705566,-0.3839765736,0.741639371,0.2936736594,1.0572188897,0.2671983095,4.7547325505,-0.5088182112,-0.5887052104,-0.037578037,0.80698524,0.4034097765,-0.5119364041,0.6597082912,0.905946799,1.0049402319,-0.6024531789,-0.7582246254,0.8118959828,0.0124123335,0.748833668,0.8705947425,-0.1464661921,-0.7894799993,0.722912403,-0.8865820229,0.167415769,0.5987511203,0.3515151568,0.0401014726,0.7199975093,0.2890977867,-0.8861470052,-0.5098830416,0.461649109,0.2425563637,-0.8723678966,0.3533383438,-0.0987732741,0.9513888377,-0.5400099402,-0.5246766781,-0.1020174001,0.0394366826,0.8128166308,0.1609986106,-0.1006426384,0.1426015017,-0.4323518293,0.2852327742,0.4250232796,0.9437216378,0.4782585022,0.7491221297,-0.7010548596,-0.7510270498,0.5138909834,-12.4079519759,0.1630561362,-0.5548364288,0.0076070229,-0.2690218039,0.7753126435,0.0531699707,0.2488656892,0.8900097007,-0.6319724414,-0.2851062082,0.5802189055,-0.1966465932,-0.9460143215,-0.0603821198,9.4806123395,0.4197680688,0.3261470021,3.8453567425,0.4675496068,-0.3823669475,-0.8448345847,-0.0596784801,0.1916988834,0.1745694543,-0.4361643412,-0.4108950501,0.9339394256,1.0942646904,-0.0965299518,0.4912941789,-0.0834831841,0.6033270956,-0.5725988529,-0.6216536184,0.3994578628,-0.4732392563,0.3915937965,-1.4569265262,-0.2070220599,0.4991519064,0.5787334173,-0.9260263277,0.4569706924,0.3491592301,-0.2720635685,-0.2777749083,-0.6614703912,-0.4590665114,-0.2273638804,0.7120511685,-0.7553055814,0.8148214606,-0.8725726537,0.060161624,0.362367045,-0.3006310192,0.2123999816,-1.0155740988,-0.5656036385,0.6587900399,-0.2938547676,-0.8380701381,-0.8515634711,0.3409494967,-0.761413799,-0.4786179719,0.0327366578,-0.4544375305,0.0955714038,0.3877953713,0.3816873508,0.254583649,-0.4992370681,0.1037006723,-1.0233114412,-0.1116139309,0.4197032043,0.5530738659,-0.2457610748,0.553390811,-0.1631696183,-0.7607229142,-1.0842949141,-0.2478815407,-0.1879592898,-0.951837117,-0.1854654648,-0.6503606572,0.3619980547,0.1260951858,0.2811012133,0.0323873105,-0.9842614215,-0.5728437208,0.0042008823,0.0724603117,-0.6877656431,-0.5024555149,-0.9528679186,0.3949591388,-0.3960960014,-0.7756923124,0.8452853076,-0.699267123,0.0799680533,0.757317258,-0.9544360532,-0.6055414732,-0.3989213987,0.3898669741,0.4991975722,-1.1313653737,0.6597230392,-0.6824144991,-0.2798291799,0.3615877592,-0.1478744097,-1.0089402548,0.7223108747,-0.16925986,-0.5433347894,-0.7989273503,0.4146616708,-0.5416472817,-0.2375920904,-0.5006907081,-0.9117149534,0.4570590446,0.1179795341,0.0505465361,0.032881965,0.0348715979,-0.2585020835,0.4060339959,-0.9508683408,0.2070176007,0.6690019551,0.1438750937,-0.8582358912,0.717928349,0.5407921662,0.3450510005,-0.4748709513,-0.1665519446,0.0425401592,-0.1398818072,0.2515593483,-0.6269206494,0.226205193,0.4927007798,-0.6985400049,-0.7789701228,-0.509570376,-0.1969399799,-0.6253416408,-1.1609278138,-1.1464296558,-0.002678106,0.7913964328,-0.4734351244,-0.4581475586,0.7928374751,0.3485360648,-0.6477359053,-0.3873981896,0.2949538752,0.1981318015,-0.9256249684,-0.9126810758,-0.1262893377,0.7204717065,-1.0432305451,0.4625424221,0.041200729,-0.5284264944,-0.4429258276,-0.1247757637,0.3086293335,-0.257751666,-0.2866140176,-0.1633872295,0.0834794932,0.0458793146,-0.7318879476,0.2579064781,-0.4440227885,0.3908629528,-0.2683209359,-0.9146629615,-0.4707463009,-0.5933176132,-0.5213303654,-0.5651567239,-0.6656515622,-0.5865729049,0.1281380142,0.375386266,-0.247790129,0.5212268392,0.0896846919,-0.8424140799,-0.4470433158,-0.5505359597,-0.7539015486,-0.1436198718,-0.9359162339,0.4237655674,0.120880026,0.1716653981,0.3268381651,-0.4404629381,0.6319122154,-0.467932842,0.4185997166,-0.7181953212,-0.7926101273,-0.3757955724,0.055765183,-1.1360784753,-1.104484934,-0.6345418679,0.7382309614,-0.6003292424,0.291196519,-0.3285714298,-0.7166574887,0.4064175676,0.7953868924,0.0501172627,-0.8836387455,0.7495964816,-0.6760196346,0.5031752812,0.7990281464,-0.4972557081,0.6676176493,-0.2648956729,-0.9567739268,-1.0690732976,-0.3241069078,0.6841475306,-0.5289807905,-0.8864822765,5.1363239184,0.1297463368,0.0277563882,-0.5368563922,0.0202803023,-0.5074536924,-1.0592847631,0.1603228256,0.3664079521,0.5225794929,0.1417218864,-0.9544945368,0.0430629577,0.0022952233,0.2524236311,-1.131892327,0.6845958391,0.619014114,-0.7927769232,-1.082381724,0.7343217819,-0.1104516461,-0.8047420223,-0.6996097436,0.3738622575,-1.1202401435,-0.4188000601,-0.7061306226,0.3962367851,-0.5962994731,-0.3164094581,-0.1601391125,0.7344005752,0.5087103624,-0.2459006833,0.5920961499,0.1730780985,-0.3294453661,-0.3455809274,0.2873997275,-0.2167035418,-0.5272396613,-0.909818247,-0.3971892939,-0.9486804938,0.2519229442,0.6371079035,-0.4556311667,0.3212885846,-0.5598687449,-0.5303098356,0.3293022938,-0.7253914126,-0.9545688806,1.083252082,0.3782021535,-4.0344626467,-0.0276359893,0.2328533825,0.0703750075,-0.1717148034,-0.429564821,-0.608351954,0.684807522,-0.0320275661,-0.5282279683,0.8757839894,0.1516948489,-0.5056808752,-0.9757862358,0.919672565,-0.7273083432,-0.1814569625,0.1212711641,-0.9964350154,-0.4075002281,0.7263183805,-0.5362148927,-0.9515975811,0.1962606443,0.4195348362,0.7255315291,0.8656626944,-0.5262429194,0.8096874298,-0.7641353782,-0.4791693639,-4.9823915378,0.5252781749,-0.2843059365,0.7719902636,0.5928071363,0.7308587607,0.4883725698,0.3907771008,1919.8060118243,0.1489050343,0.6661631242,-0.5389055182,-0.3975768622,0.859090031,-0.4507411495,0.0698562352,-0.1616564813,0.7289181983,-0.0083691423,0.2776251314,0.9077410691,0.4020313934,-0.2416505215,-0.4340083657,-0.9105645988,-0.0106280381,0.9602688546,0.4775168069,-0.8495967388,0.6409059056,-0.6704208333,-0.2292682289,0.4452150282,-0.8801378679,-0.3377920407,-0.0913141735,0.238238111,-0.2611029812,-0.7353584984,0.3107389703,0.6043919852,0.4394444105,-0.8892115313,0.6431608915,0.3137545848,-0.7175381444,-0.6006421302,-2.1683758432,-0.0977655837,-0.2285550741,-0.9664808757,-0.6444975571,-0.7653937745,0.076332186,0.585693967,-0.2282798745,0.7077656325,-0.740810517,0.0037393389,0.3835566225,0.7534916194,0.931744842,0.2487693374,-0.5632565133,-0.8503679385,0.3676668071,-0.2160639927,0.3263688245,0.4238414263,0.979811125,0.85128118,0.7352914955,-0.910654185,-0.1195284515,0.188214486,-0.8460516743,-0.84248521,-0.6295189131,-0.3754443658,0.8818493384,0.7549647088,0.0495156998,-0.7941288868,-0.701153035,-0.2691682504,0.4248277861,0.6381549243,-0.6095001541,-0.5541000153,0.2917391337,0.0201409674,0.9746550781,-0.2790907102,-1.1784649168,0.916542958,0.3885455683,0.4434677761,-0.5720882866,-0.0663067902,1.5177767599,0.5798527532,-3.9507079839,0.1600150225,-0.5392306534,0.1668268409,-0.2669029699,0.498387305,-0.4938872049,-0.8980206208,-0.8140527838,-0.9756939083,-0.2384169077,0.5910228029,0.6870623431,0.3249457477,0.4315117489,-0.0948021956,-0.8510700211,1.063133269,0.0753713366,-0.3158572188,-0.662373152,0.647602051,-0.8086242206,-0.5289623098,-0.3980146011,0.2522744001,-0.0816891035,-0.1796816897,-0.436843667,0.0136952929,-0.1157538177,0.1222475343,0.9408559492,0.1239771422,0.0000227418,-0.1372315457,-0.8050728412,-0.7169927877,0.4349647327,0.053673065,0.7732110177,-2.3835129794,-0.9651169047,0.4458063564,-3.3615010587,0.3792819991,-0.4688754846,-0.823860385,0.5410451677,0.3158873483,-0.4952205278,-0.0840643342,-0.5845617789,0.1022936977,0.339918495,-0.5979105798,0.3201380976,-0.8186999676,-0.6641356358,0.6752800948,-0.1710892903,0.0058806316,0.0630124068,0.4792858632,-0.1423639798,-0.3519626847
   0.3002874838,0.7391598867,-0.6576002261,0.55433271,0.3958914569,-0.1077518204,0.5682187837,-1.89642262,0.9429200697,0.1008923789,0.1405006478,-0.7659962681,-0.7297166202,0.7186935358,0.1586136776,-0.6987149038,0.0607027672,0.1194904407,0.3723618177,-0.0607444906,0.6194448053,-0.1585220442,0.6010842771,0.6414482846,-0.8065344365,-0.1529193251,-0.3918592985,1.081167829,-0.6699135852,0.9187727644,0.8676962472,-3.3842118099,-0.7105995526,0.4547976434,0.8042912674,0.2652662845,0.1514912684,0.3857637851,0.0945981663,0.2679487317,-0.2579276489,0.5420900683,0.0698457259,2.2865512005,-0.4365816619,0.9053843527,0.5817146698,0.9602874636,0.2448548047,-0.2324194792,0.2119874337,0.6857816008,-0.3095602759,0.7170854627,0.0134062129,-0.1826989192,0.3439984976,-0.4763139449,-0.6989227474,0.3263936131,0.2191083725,-0.6850218315,-0.4183061636,-0.2073210573,-0.3994828698,0.4039616504,0.2036749875,-0.6629245247,-0.4705867546,-0.7975765753,-41.4113593836,-0.4732723291,-0.4831541266,0.147927995,0.7798344703,-0.1495223909,-0.5220947009,-1.0288320119,0.5691568951,0.0543116704,-0.4337974154,0.2568619905,-0.0927448591,0.5537851771,0.0083197884,-0.446668172,0.5941815588,-0.8381768759,-0.8027003716,0.0508298782,-0.6372564062,0.8042311753,-0.8461968002,-0.766391856,-0.2954609492,0.8851205615,-0.2078815301,1.1404215118,-0.0589070791,-0.7800379322,0.6959789268,-0.8453895118,0.7570068869,-0.1257489349,0.8130017911,0.5747206164,-0.5898079952,-0.8828168669,-0.8684823031,-0.4161180245,-0.6093667351,-0.8017609289,-0.4734833828,0.7722720246,0.4384190855,0.303303469,0.5371786967,0.4954507698,0.3333187397,0.3978712449,-0.2310328889,0.6228174942,0.7610186084,-0.9188831636,0.5211572346,-0.8568685231,-0.7388350183,-0.5098035488,-0.5319323542,0.7780612156,-0.9841714638,0.1771173841,0.1280376886,0.159858098,-0.3503767455,0.932744049,-1.1589270301,0.9264097422,0.5808512763,0.814116635,-0.6123217778,-0.1435380044,0.5994875015,-0.2504323377,-0.3111004244,0.6161522571,0.8175652507,0.6637982205,-0.3593891817,-0.1698716367,-0.7889928124,-0.6703227156,0.1313531078,0.7549462733,0.482058722,-0.1363883668,0.6642877591,-0.5224421959,0.0141885375,-0.5735484985,-0.123449631,-0.3363715902,0.4117082673,2.0318270757,0.3439724621,0.8055609633,-0.0071153507,0.5474055086,-0.1210051235,-0.6659116263,0.1498746941,-0.5487892631,0.0511563365,0.5049372887,0.0659691888,-0.5303965032,-0.665469336,0.9774238051,-0.0311049587,0.9084821449,-0.5384944739,-0.2204372189,-0.8377365781,-0.3809547468,-0.8938585232,-0.6581803526,-0.4856224131,-0.0338827791,0.1890331594,1.7410706133,0.4282250365,0.2066829101,0.6503310645,2.9256198609,-0.8980789138,0.7566657964,-0.3194608796,-0.6824304545,0.3172835296,0.3704749217,0.6481925499,1.034169337,0.1396162209,-0.3214371115,-3.1818272766,-0.6480978182,0.1408294027,0.038903718,0.117046846,-0.8773023603,0.9492439942,0.1347534496,0.9203606478,0.5794323745,0.2798605051,0.838643522,0.0424229389,-0.2099686278,0.8229239106,1.4259404768,-0.4343766316,-0.9572614003,0.0428320378,0.1200441542,-0.6656280579,-3.9589834787,0.0865144034,0.0154449682,0.7699519354,-0.5475274428,-0.3100456671,0.0880586452,0.830779552,-0.9792756244,-0.0207548226,0.272786089,-0.1182820573,-0.5373997669,0.3855973065,-0.561531372,-0.5075762996,0.1832372497,0.6555000986,-0.4535732313,0.5713996355,-0.2523849462,0.04680058,0.7171089787,-1.7151980206,0.4827182171,1.3453639012,-0.8767269553,0.2824291792,0.9066667915,0.0364748357,0.1916561684,-0.5231530629,0.4960602159,0.7818500224,0.6253946615,1.7328736129,0.4257695703,0.5201063928,0.4139671503,0.8353527542,-0.3859069234,0.7338851651,0.0472810374,0.8656710596,-0.6027538425,0.0504050397,0.2788364063,0.5029583177,-0.3314573328,0.3140216774,0.8885840126,-0.4869220032,-0.4660513495,0.1164671821,0.6338808515,0.0752483305,-1.0441820605,0.2551580439,0.0752257196,-0.5985544926,-0.9357608257,-0.4166063117,-0.3340076618,0.0414083032,-0.7027712909,-0.6200856933,0.2979437678,0.1752350012,0.837419527,-0.135638381,-0.6971411041,0.1133774139,-0.5141041899,0.4756102104,13.8244536992,0.6038441643,0.3175282638,3.8534481881,-1.3689084091,-0.9793267046,0.0756356654,0.4425938667,-0.3501465967,0.2990371974,-0.457091147,0.380883591,-0.2147689976,0.6583757419,-0.0943084067,0.2924705996,0.1110963809,0.3350841489,-0.8538224259,-0.3792797667,0.3947498823,0.0102242489,0.4079994558,-0.8408885823,-0.232139754,0.7910175396,0.3616332838,-0.2531411129,-0.9532207433,-0.9456477281,-0.2759367945,0.1534255418,-0.8080013343,0.5966507243,-0.980113647,2.0933683432,-0.4026783725,0.9789629238,0.1742373363,0.7260232395,0.5344388688,0.0048334235,-0.4752525701,-0.6014129468,-0.5162958205,0.0068057521,-0.7962797344,0.1156222958,-0.4697277581,0.2876464054,0.9282705068,0.7840659273,-0.2600947938,-0.5412365265,0.5577050783,-0.1863820313,-0.4831249096,-0.1737470969,0.7624221498,0.5405556712,0.9986440388,-0.2395469119,0.798661401,-0.5209241129,-0.5318006907,0.1125101441,-0.6385725227,0.8045951293,-0.4716160682,0.4355444075,0.690685107,0.6671631306,-0.2447726901,-0.3652037157,-0.7890264062,-0.2687847423,-0.9909130375,0.0949644984,-0.2070520475,-0.7843825259,0.6256718587,0.1091853472,0.2142613894,-0.4656323458,0.9902170545,0.4530761468,0.7680998445,-4.2123036565,-0.2160521869,0.2726626535,-0.112149759,35.7622175136,0.4301750103,0.3371504823,-0.1646471571,-0.196363703,0.4759735136,0.0548896144,-0.9624836825,0.2124458087,-0.0845767005,-0.5783436753,0.5722302592,-0.1342121098,-0.3493579192,0.2667028176,0.7428436043,-0.0956096608,-0.339906767,0.9816714672,-1.1052270622,-0.7881275458,-0.2735933157,0.9644076182,0.7941436155,0.7421911183,-0.5571184356,0.9856802661,-0.3863655783,-0.3091860345,0.8109315154,-0.6638310335,-0.4572430013,-0.2506587456,0.6315615157,0.5518779807,-0.3251876525,0.822695252,0.6605657616,-0.4593377345,-0.0720175857,-0.8883335409,0.1357945821,-0.1453810998,50.1280141762,-0.1865434067,0.42500242,1.0819463054,-0.4614523143,0.4879944641,0.7512816334,0.7293981959,-0.9027830976,-0.407853146,-0.9194248475,-0.1264336718,0.459586411,0.6606313921,0.4007353382,-1.4226435063,-0.0409837275,0.7484422076,-1.0024566279,-0.0932337343,-0.5425507652,0.7850015219,0.9038478262,1.3278506662,0.7255592845,-0.0233075794,0.274912878,-0.3888396558,-0.1486095547,0.1207010691,-0.3411708507,-0.0779525569,-0.4938701289,0.071888895,0.5372998834,0.5244041159,-0.4603967433,0.0175359527,-0.2302685133,1.0855848656,0.0476396977,0.7709226304,0.5261776944,-0.1548425681,-0.0878343147,0.9704488356,0.0647706235,0.0902866406,0.8113672528,0.1428701053,-0.6272457952,0.1112276136,-0.7063940801,0.5838859352,0.3043669561,0.5627660342,-0.5878898697,-0.9782074257,0.3357978972,-0.8366288888,0.108142654,-0.2454352474,0.9268029936,-0.6604749553,0.3227994527,-0.7765330083,0.4380971782,-0.597720984,-0.2389583443,-0.8278557464,0.0148804517,-0.9353999682,-0.8005358836,-0.7887030858,0.5531724265,0.7437401303,0.6904995375,0.6098310631,-0.8579687339,0.1322230512,0.7195948988,0.2283226034,0.1341186396,-0.8602701668,0.6929941657,0.7263438577,0.1082764993,0.6909297099,-0.9533722973,0.2421415814,0.6122651279,0.0022398911,0.6350078046,-0.1530044354,-0.9181160741,173.9228838208,-0.3046387443,-0.0864923519,-0.3901786,0.5917495414,0.7877626943,0.9796144607,0.3976977786,-0.236679345,-0.8447283817,0.632746446,-0.543238405,-0.1306159821,0.7253097549,0.3729336367,0.6104927255,-0.9933488013,0.6210163555,0.4868918946,-0.100713986,0.4526970362,0.1578530232,0.9992109265,0.5157618172,-0.4513256365,-0.8159395852,0.3429337526,-0.4973034778,0.7396422571,-0.1275195185,0.5350299325,-0.6890750188,0.1809603802,0.4084545792,-0.2516423631,0.8394604356,0.8399547962,0.449729388,-0.6360338349,-0.5739171497,-0.687355576,-0.4411729438,0.9166431861,0.6831289602,0.5643270436,0.2975099581,0.7111224533,-0.8566812023,-0.9308000455,-0.9957831501,0.8598106581,0.2341626715,-0.5565552168,0.7980390993,0.3593291806,-0.0551165814,-0.5735655972,0.3210295529,-0.6878902364,0.6586773159,0.7408687175,0.6829334901,0.686821411,-0.6780303789,-0.0798746376,0.2893820435,0.5695716989,-2.5442422343,-0.6096662554,-0.1548335007,-0.7590301685,-0.2497422476,0.0375524139,1.045006412,0.03768151,0.0949932138,0.20223308,-0.5915125705,-0.1253751858,-0.6194980834,0.6818583691,-0.366263901,-0.8915242769,0.7925614242,-0.529246938,-0.2992877197,0.5586491114,-5.9654127687,0.6480801224,0.6140148159,0.8218612528,-0.3587612153,-0.6416614509,0.4460589952,-0.8521868717,0.6446477382,0.4874471297,-0.3903654559,-0.1384577973,0.8570374216,-0.273426195,0.1256035045,-0.6033642784,-0.0506452526,0.3575004521,-0.4110054996,-0.5101819939,-0.8848555,0.1404826341,0.9104101992,0.9543780599,-0.0955486682,0.1887056412,0.6488883684,-0.8323125549,-0.841478176,-0.1167085676,-0.0253130258,-0.8124252564,-4.8009307436,-0.3481233436,0.0626026053,0.847538842,0.1381512039,-0.0452216389,-0.0424030515,0.7698213226,-0.4726941694,0.0907688188,0.4107471978,0.6809909622,0.992671291,-0.8503894814,0.3379056108,11.911631018,0.6614220357,0.8992599603,-0.5238456314,-0.520066387,-0.6092935298,-0.2647578783,-0.1138155742,0.3504808917,-0.6613189341,-0.026116073,0.2148215411,0.9152884503,0.9579381602,0.0354704368,0.8840265873,0.5755928779,-0.1622058857,0.7431424209,0.8296779689,-0.7069752465,-0.444787629,-0.1063267676,-0.2962849545,0.4246046363,0.6930187768,-0.8627589641,-0.4609193696,-0.3749759779,-0.6743588493,0.8845715636,-0.1206858556,-0.1685163137,0.4951360559,-0.9301569819,0.7616928406,-0.7017849265,0.5472373384,0.5155687939,-0.7665766034,-0.850823615,-0.4957806332,0.0231483137,-0.565051269,0.7788997193,-0.3336391711,0.2092864691,-0.5177557846,0.7526019033,-0.1259967889,0.6106690675,-0.4267975606,-0.4171386832,-0.6668645323,-0.5581073654,0.6016775367,0.878186693,-0.0780780897,0.7718800046,-0.6497275507,-1.0730741178,-0.9020690064,0.5431572211,0.4168582497,-0.7500775789,-0.4617082942,-0.5855891981,-1.1361669514,0.7844436562,0.3771193848,0.3186922409,0.4213386817,-0.9578745843,0.724765319,-0.1722968315,0.0029916657,0.0892697026,-1.455342542,0.2501686815,-0.4998253211,-0.0156493113,-0.022186796,0.5653930397,-0.6820036088,0.3575276609,-1.1260166567,-0.2191921646,-0.5014722057,-0.4318210358,0.0374356892,0.4317781979,-0.8354336183,0.1468260688,0.6434370014,-0.0741270696,1.0004953864,0.2786668515,0.0257082488,-0.4286106351,-0.9693758964,0.8466093346,-0.9655661135,-0.2933400527,-0.5856713078,-0.7336816574,-0.5899626235,-0.6882061644,0.1191543208,0.5124847588,-0.8105465475,-0.391751153,0.2590381056,0.6582846497,0.0048564559,-1.1194557169,0.4034186934,0.2667900876,0.5609193978,0.5704315535,-0.1877565762,-0.4555348861,-0.0674251254,0.6750691,-0.3918211936,-0.0417427199,-0.9996394749,-1.1662403794,0.7262706759,-0.3988389253,-0.2637606278,0.506299254,0.6875812339,0.3727764458,0.7239362011,-1.0832974364,-0.6967462302,-0.4749216375,0.2167877062,0.041809232,-0.0645912365,-1.0225874996,0.0635883095,0.8084541411,-1.0575903715,0.7520423033,0.5630881976,-1.0092395212,-1.0047493283,0.2298043037,-0.3021138658,0.4782713098,0.4768231875,-0.3644022884,0.284481868,0.7205831476,-1.1436243816,-0.6424471506,-0.1663978812,-0.1063841905,1.0623606763,-0.5978437289,-0.691991823,0.4767299956,-0.1761303606,0.4583632776,-1.0466204327,0.617457669,-0.8087338649,-0.1156827128,-0.5624866111,-0.6281900042,-0.3548193236,0.4688344233,-0.7098339316,0.1980668982,0.7234818796,0.1223360028,0.410648001,0.325011694,-0.7345585386,-0.7690428913,-0.9453360898,0.3736570767,0.8840565037,-0.3822175662,-0.1858307016,0.0659968837,-0.9275995729,-0.4238900988,0.8322828027,-0.6650139572,-0.9263135496,-0.6667051662,-0.5526369264,-0.5317991256,0.7536380717,-0.0593551338,-0.4737579016,-0.8995446736,0.3077683381,0.248716912,-1.0973065434,0.7261515419,-0.5979955586,-0.1237489244,0.116983592,0.2714458726,0.7936117605,0.7343853987,0.0839563071,0.3680279546,-0.6101001723,0.0103549881,-0.7989232098,0.4801166792,0.0087636234,-0.163937037,-0.8158885786,0.0808814882,0.4396172041,0.3880311807,-0.36167676,-0.3672625146,-1.0542196409,-0.4936735004,0.8223201254,0.7449372826,-0.5219507065,-0.192759097,6.1829659225,0.7785509226,-0.249898002,0.5411723724,0.0979688223,-0.4350676397,-0.5900291044,0.1202089904,-0.6593621838,-0.6031114079,0.2476990776,0.4494753623,0.2442759951,0.3416375444,-0.4757700364,-0.3248235644,0.1778968462,-0.4614056974,-0.8446759145,-0.1653997669,-1.1121394992,0.680266746,-0.9000496181,-0.2896252768,-0.021704387,-0.807405608,0.8337337329,-0.2184736489,0.1113342033,-0.1166288707,0.6098064861,-1.0129523475,0.4128188423,0.1033211836,-1.1223572165,0.6133945208,0.1058789746,-0.7395341698,-0.4769681301,0.8552925624,-0.1722651938,-0.6488685289,0.7865464861,0.0390971462,0.7248340045,-0.9960452561,0.1705175761,-0.4166694182,0.6447754451,-0.8534743783,0.2618120433,0.0331562141,0.4894548255,-0.1493120404,0.0954070706,0.2336270375,0.5466121911,-0.791895317,0.847409801,-0.6899013889,0.4160143547,-0.3535766563,0.7461283969,0.213766736,-0.915448232,-0.6066990119,-0.3843774803,-0.0242966556,0.5703707266,0.5230097014,-0.5565046794,-0.7712975415,-0.1365738834,0.8965852748,0.3437842471,0.4444119608,0.9859634621,0.0591595412,0.0699918625,-0.4640899677,0.4973123131,0.5039790656,0.0808108097,-0.1807898375,-0.2911232439,0.862731637,-0.5615672589,-0.1018481687,0.3960173314,0.4473627395,0.6245328067,-0.4690050109,0.7190431539,-0.2032905007,-0.5669160727,0.1197176796,-0.955633734,0.4146500866,0.8100770164,-0.481867654,0.0346701584,0.6488196274,0.8798056981,0.0389765735,-0.0618188614,-0.4368000957,0.5272893526,0.1708331903,-0.5611538301,0.8143963172,-0.4036780699,-0.4089997693,0.500019636,0.524424567,0.4999306156,0.3639882341,0.9482009391,-0.8401297418,0.3068500725,0.7840076575,0.0418752929,-0.6234834566,0.475582358,-0.5617507907,0.4264460799,0.011744546,0.8718643906,0.7593194307,-0.0429510051,-0.2558738753,-0.8327678032,-0.7954028235,-0.3353659481,-0.85925816,-0.3036017794,0.981820203,-0.4491004672,0.6026928395,0.2667004907,-0.0613747829,0.4932201775,-0.077878211,0.7487200756,-0.5227113661,0.1275134755,0.4723400968,0.4684415734,0.3866202032,0.690627709,1.0650062242,0.5773484165,0.7391910474,0.9365638519,-0.6539377631,-0.6015743133,-0.2385894333,-0.0147786161,0.55807503,0.7552811485,-0.3498583594,-0.8202407415,0.6021642079,-0.4314330963,-0.2737005717,0.0902137455,0.3429652168,-0.0877015662,-0.1879767725,0.1311258983,-0.5294236905,0.6327115641,0.4985995695,0.6854796226,-0.5492722587,-0.4492470747,0.9308527688,0.8685590748,-0.451208447,-1.0070682259,0.6315723492,-0.6096999552,0.5283622861,0.1384815418,-0.613585023,0.6091109972,-0.5229303824,0.3999198446,-0.7616935821,-0.2271419943,-0.3463646683,-0.6276740858,0.0946107042,0.2893341961,0.2161949266,-0.9437771931,-0.1159201308,-0.2389146704,0.3797965948,-0.5271511466,0.2573853957,-0.8126941065,0.7114766152,0.5282351188,0.5795877999,0.4791819019,-0.2275009568,-0.0446654803,-0.3272175909,0.2283620781,-0.9862083466,-0.8300151999,-0.1697663667,-0.3743443928,0.077746694,-0.7258347946,0.5731552744,0.4168429511,-0.9464135773,0.5365068285,0.6011820532,0.6932344449,-0.4530251947,0.5691416243,-0.3542710555,0.7708819928,-0.0842812189,0.5920853465,0.3816919943,-0.8101468058,-2.6057370529,0.3740275678,0.0953551023,0.0491427378,0.2420761096,0.9564454213,0.9093153794,0.3543170988,0.7928858655,-0.0329183665,-0.5387211686,-0.3524334841,0.1935119048,-0.1633879538,0.7109493081,-0.2100228378,-0.1557675614,-0.44984819,-0.0500816046,-0.0488187854,-0.6456529995,0.4871996405,0.5677234716,0.8552616587,0.4568621365,0.3903624335,0.0939896043,0.0418268331,0.765792189,-0.8817142917,-0.1648453003,0.7138010194,-0.0553494767,0.6659583115,0.9199759904,0.6774957843,-1.0391443253,0.9087192059,-0.8304156907,-0.1744259482,0.0215247532,0.2972009574,0.9053786444,-0.5634047302,-0.6367718414,-0.4537629898,0.2155090103,-0.3475208183,0.4740470474,0.6178132015,0.8022367529,-0.000366028,-0.6430966451,0.49802435,0.1792548267,-0.6080273372,0.5581589172,-0.839795273,0.7846325871,0.5024043119,-0.8394832449,-0.6865076018,-0.8949789699,0.3569781311,-0.4853140135,-0.8358568405,-0.548575384,0.4076999763,-0.7757976935,0.6314973145,-0.3677195703,-0.8494956788,-0.2546179155,-0.2251477375,-0.7707942978,0.3567868076,0.8177655559,-0.8376218803,0.3667319569,-0.5569657509,-0.0064330593,0.265817335,-0.118843506,-0.0400245785,-0.9894236253,-0.2398380688,-0.3790204873,-0.0991188635,0.0680418189,-0.0131727478,0.9499061296,0.0065714959,0.6356993627,-0.6954055501,-0.9145629832,2613.3682137676,-0.6775651383,0.4220001005,-0.6829958899,0.3850506619,-5.9221517516,0.8217379599,0.1500631634,-0.3849068722,0.9591877551,-0.8893500768,0.1049890382,-0.0438805325,-0.5320949371,-0.5922823377,-0.2802120367,-0.1591870202,-0.0584170335,-0.293583537,-0.9090306496,0.8577001994,0.1767641802,0.2530645757,0.4123911738,0.0451585972,0.2736749104,-0.026490589,0.3509357142,0.2050442373,-0.9679213425,0.6725787135,0.2750258958,0.4111914688,0.2877636293,-0.3211924176,-0.824917944,0.2411165979,-0.7385505553,0.0524514397,-0.7002866007,0.2401406215,-1.0015291566,0.8335718018,0.8771590982,0.2765330797,4.9776358537,-0.2167934432,0.5431196129,-0.1016650835,0.0167147875,1.916885247,-0.2541962481,0.7405262295,-0.3369572532,-0.5392164788,-0.9961856874,0.8715546755,-0.4632081892,-0.466625395,0.2596063159,-0.8348818379,-0.7753436183,0.9559073288,-0.7215186366,0.3482510007,0.3808327493,-0.2523178325,0.5565627721,0.2069594085,0.9567171655,-0.9068306552,-0.6075883346,0.0602922919,-0.1629248631,-0.5897973801,0.7489078032,-0.6310749728,-0.9583124789,-0.1243491022,-0.8940915842,0.6789542655,0.0290794393,0.0038524763,-0.8340848538,-0.3323097191,0.2804809774,-0.826634504,-0.3787292949,-0.4163867453,-0.5677992232,-0.5778489066,1.2399554549,0.9157000635,0.5347734299,-0.291930763,0.0628507966,-0.7618846733,-0.7051153076,0.5417925386,0.2498174854,0.0809947963,0.1383158366,-0.3624695138,0.7306938416,0.1315044877,-0.7399693325,-0.357906442,-0.9031429179,-0.7116600771,-0.6391928623,-0.8009951483,-0.2663122752,-0.7656641318,-0.2220869565,0.0275192849,0.5925771039,-0.3333521318,0.7503464488,0.6735351718,5.3977670378,0.7693086582,-0.1409832657,0.0506658411,0.8497414861,-0.4931706996,0.0648625147,0.4836130226,-0.9049870027,0.0558241056,0.8090013848,0.9149978552,0.1425272688,0.151169923,-0.4154348363,2.5176208863,-0.3837893642,-0.5378935637,-0.9901173323,-0.1506993288,-0.7917244105,0.0699598381,0.4661277758,-0.6926498991,0.7040115847,0.5869414922,-0.9206029755,-0.254789687,0.3406890822,0.8076356273,-0.0440087989,-0.3947098602,0.5090059669,-0.0738272152,0.4029112668,-0.060378664,0.0471587304,0.9863227766,0.2384252558,0.8287133821,0.5687318195,-0.7900621773,0.8134541737,-0.2185303153,0.2048793743,0.3291258,-0.1803339495,-0.0937936323,0.2653381112,-0.7988078735,0.885589055,0.6205482835,0.3635727646,-0.8699787134,-0.6000225621,0.7572593634,0.3549833944,0.8887583537,0.223275127,0.1493494601,0.9462966261,0.5447251784,0.0814515192,-0.8881134113,0.1148269589,0.0367211418,0.9874930086,0.1640363009,-0.9345457708,-0.4712608833,-0.6396462439,-40.4113201956,-0.6069247248,0.0731891893,0.5802428197,0.6372491246,-0.0714742696,-0.7702200536,0.4602944268,-0.0078540813,0.4093012964,-0.9055744274,-0.444699805,0.9890239105,-0.6879392181,-0.4607016008,0.1815272042,0.1225298345,-0.7181809171,0.6886191428,-0.489342634,2.1766602544,-0.7317381972,0.2062455239,0.2426406344,0.8056110346,0.5749148863,0.8806836839,-0.5121984627,0.2697868556,-0.6012084788,0.9958797782,-1.3605220973,0.2288493048,0.027707005,0.3906582283,-0.358848656,-0.4362565294,0.5568443399,-0.4709579792,-1894.0626982622,0.0377515077,-0.4120262327,-1.6247429336,-0.6588076218,-0.5716981871,-0.8813281893,-1.098456364,-0.6909599987,0.2304908459,-0.5860970498,-0.6314340655,-0.9049636161,0.7391781486,-0.1579538572,0.7614679332,-0.4484358282,-0.3270838366,-0.1106949701,-0.1223894483,0.8570541364,-0.7662988194,-0.2028310975,-0.1567833258,-0.4024162109,-0.0987730295,-0.3596176416,-0.0463936365,-0.4316887178,-0.6693939465,0.118205967,0.9690961222,0.6064054889,-0.8103789624,-0.5435101924,-0.6471835975,-0.4869259184,0.1133101467,0.2036126874,0.5682908081,0.9431738491,0.5045652439,0.3920843964,-0.1931398835,0.1601084769,-0.5524007313,-0.1251424893,0.5853708449,0.1137972555,-0.4316969553,-0.3808833235,0.3652221701,0.1700054326,-0.1025432197,0.833536191,0.0392535178,0.99899977,0.7832558835,0.8921505844,0.0988110284,-0.5180453389,0.7347592406,-0.749242037,-0.2225620707,-1.0250922642,-0.7261397329,-0.3169827885,-0.3464265678,-0.7969083839,-0.0472897344,0.8512407521,0.8769209292,-0.8848868398,0.9665584313,-0.1133545761,-0.4739544062,-0.2715524977,0.2703026038,-0.281562248,0.0581931541,0.0422377222,0.36926834,-0.3655940223,-0.2430540881,0.5461775704,-0.8957499784,-0.908774213,-0.3538957324,-0.0016973998,0.7715848296,-0.5965132788,0.2521134199,0.4863491823,0.9377956623,0.4613847843,0.6086896348,-0.0154917379,0.2339027188,-0.4868160823,0.3809009239,-0.4536913811,-0.1839426264,0.9796472279,-0.2099519983,-0.0357150913,-0.5445532059,-0.679836943,-0.1052005262,0.9365913246,0.0529166735,-0.7836929614,-0.4872300309,-0.5874463373,-0.0861678081,-0.7674666648,-0.6300001296,-0.8948340746,-0.2157451516,-0.7732769229,3.1025044694,0.8157336464,-0.0157422662,0.7770472878,-0.2319789572,-0.311679112,0.0117855077,0.4659063889,-0.6906242296,-0.0940244853,-0.1420159544,-0.7041166668,-0.725363464,-0.3714142582,0.5221477887,-99.823499563,-0.7645588019,0.0703140209,-0.2387781059,0.4819042305,0.249227944,0.9009590693,-0.3204053255,-0.6390882646,-0.6695284452,0.4131034289,0.0642455856,0.2275868751,0.555897046,0.9234022829,0.7968118066,-0.1653154204,-0.1793507158,-0.5441956956,-0.4708618579,0.6338474168,-0.236682813,0.208910385,-0.8776051469,-0.1908842207,0.7312508974,-0.5378581628,0.0016497139,0.0151065292,-0.7666183197,0.4836697513,0.8802650973,0.2566308092,-0.4417649123,0.3582180378,0.0051520814,0.9268707324,-0.0472572585,-1.0254432955,-1.984924674,-0.3111324827,-0.188580392,0.339118659,0.9765703326,-0.9542720492,0.9270035841,-0.2681801431,-0.7231085649,0.2455670003,0.9869280069,-0.8558215856,-0.7659552438,0.0203809526,0.1446188996,0.5089720525,0.3105476275,-0.3596904801,-0.0319973909,0.2845918297,-0.2466953833,-0.5380367578,0.4549932012,-0.9365350437,0.3264496205,-0.1283714836,-0.7045223956,-0.7840936708,-0.8128741736,-0.8296559202,-0.7325707362,0.0155497345,0.138748088,-0.5376182961,-0.8145053671,1.4594098057,-0.3675996863,-0.8521216193,-0.2069783716,-0.6498579813,-0.6360647342,-0.1849894358,0.9226450132,-0.3804258362,-0.846480925,-0.0737951741,-0.8252543346,0.5678526905,2.0763673169,0.0528349654,-0.5400010492,0.8688444731,-0.76460828,0.2943599967,0.2852891894,0.397911773,-796.1429478705,-0.3388562753,-0.8499500612,-0.2315805602,0.0804600796,-0.69663259,-0.0824205695,0.9682214073,-0.4351245814,0.4001865774,0.1929603502,0.2149545194,0.6727231481,0.6166409978,0.6905027946,-0.4023031462,0.884271528,0.426465016,0.6139842961,-0.0709730026,0.9330198334,-0.1077834874,-0.9521217184,-0.7943006143,0.1245992067,0.2743541702,0.3271606034,0.1740502964,-0.4356634842,-0.6706646991,-0.6893615588,-0.1693825984,-0.1542528223,0.7616576013,0.9876876738,1.1478806503,0.1229141828,-0.517166835,-0.3287278128,-0.950337504,-0.3632405277,-0.9179135468,0.2324472698,0.0448605473,-0.9816637326,-0.830463609,-0.0334554304,-0.4255526562,-0.2376013329,0.7445162484,-0.5475149375,0.3952746699,-0.5015050727,-0.4074002983,0.1152260415,-0.4278409218,-0.5784127345,-0.3716620832,-0.1240403243,0.282205174,-0.3430965441,0.2984046958,-0.0495076056,0.6322843521,0.8006806687,-0.0304683928,0.6889446218,-0.5249808683,0.4333815644,-0.8251640639,0.7977466491,-0.4949519085,0.2219543074,0.2515692431,0.6068147648,1.0359954971,-0.4086126482,0.4513065046,0.0840360949,0.4292442524,-0.0814863901,-0.5651237449,0.896109938,0.992941599,-0.2277786313,0.7207350063,-0.9837916892,1.0867147106,0.2980288076,0.7439547597,-0.3164252765,1.4745975968,0.4386469443,0.7479988924,0.6449806099,-0.1314205834,0.6428695427,-0.1592260162,-0.3274398311,-0.79173852,-0.1059508106,0.091625796,-0.1357951552,-0.5074233304,-0.6899879305,0.5580780798,-0.8676020224,0.8602365973,-0.6893571318,0.1389375008,-0.553956466,-0.6492526895,-0.7173803923,-0.8067354934,0.3129594142,0.028322916,0.6763795814,0.8992355208,-0.0504001426,4.3812833517,0.5374801678,0.4041363542,-0.9151975179,0.1485233793,0.8327613974,0.5953764093,-0.1971529245,0.7657842193,-0.1777483334,-0.8716219842,-0.6482264688,0.5073625118,-0.6144345543,-0.0570435742,124.9878776702,0.1876301268,0.7183035003,-4.4430675525,0.8541921177,0.0998557568,-0.8934533207,-0.0877528941,0.4945383983,-0.4994616757,-0.2500039589,0.6913620706,-0.9070474721,-0.4079121385,-0.8654796562,-0.1993193785,-0.6570529977,-0.9385632595,0.1654885343,-0.7929813459,-0.5453873986,-0.5599828233,-0.2475218191,-0.8533772704,-0.0990636666,0.4174822285,0.0922440937,0.4852292567,-0.7798839843,-0.5429233347,0.0347572598,4.508862885,-0.57334744,0.6871340482,0.5307450908,-0.7456979435,-0.7541613736,0.784129455,-0.372807781,0.8526857179,-0.3935191522,0.3286285581,-0.6966113638,-0.7780552217,0.5417954361,-0.0203848979,-0.7122942907,-0.8323149966,0.6940441879,-0.6388385178,-0.3702576425,0.2336964199,0.5816107486,0.4546026822,-0.346213215,0.8231664783,1.7403551085,-0.3451665914,0.7078628034,-0.0746761355,-0.4595938244,-0.9609234109,-0.3914398048,-0.690092569,-0.9524386373,-0.9595822803,-0.9712717341,-0.9079965836,0.9184414661,-0.3839463901,-0.7686387837,0.2220133734,0.3213889288,0.5710901889,-0.3182287318,0.2563923615,-1.1274095212,-0.9869226387,-0.7756418165,-0.8532365644,0.8765052887,0.0779890936,-0.0202340491,-0.6723994087,0.4759417765,-0.5808503652,0.8204930385,-0.5492115838,0.3204505044,0.3917464259,-0.0316942966,0.2865939253,0.9961995823,-0.7141012627,-0.1196118386,507.1265014213,-0.5169078257,-0.6709770889,0.041391758,-1.024185432,0.5626494099,0.5496665346,0.2666284942,0.0211016516,0.0452739634,-0.3305993511,-0.9964465944,-0.4427330472,0.4962845681,-0.0189735641,0.7270987663,-0.861914703,0.0797164679,-0.838435102,0.4092466796,-0.3526124903,0.7042727697,-0.7202932973,0.3090264743,-0.7328995266,0.4391041347,0.5247967257,2.1545046484,-0.8423193734,-0.9120782303,-0.8129692066,0.5160163725,-0.3336095614,-0.7829514962,-0.5480607747,-0.4884677197,-0.1077484678,0.9540409123,-0.6105480277,-0.1477496188,-0.2905981018,-0.0905583127,0.5808534289,0.0894745461,-0.3755908659,-0.9335298706,0.4194082121,-0.4904598831,0.630532257,0.4703659268,-0.4209860243,-0.7631542415,0.0999664396,-0.4930227269,-0.2031873806,-0.3707453738,-0.3513019601,0.3547153326,0.9637771576,0.3358273222,-0.9731549148,0.0773004349,0.7068089545,-0.649207751,-0.4698856521,0.4879924363,0.4198765188,-0.3429361474,0.097987017,-0.1173446563,0.0404886076,0.4016706033,0.7429377619,-0.8217295481,0.2744613117,-0.3601865398,0.9219461772,-0.4676056086,0.426548715,-0.7865533309,-0.8907586509,0.3364070244,0.3063247364,-1.4960055207,-0.8434271996,-0.858711693,-0.3405806733,-0.5819090799,0.2353833368,-0.7547405656,0.7610138445,9.7493415727,0.3754777807,0.1782195523,-0.1381757003,-0.0051537236,0.9946966998,0.7873454273,-1.7149413059,-0.1741356982,0.1246155091,-0.3248143581,0.584566206,0.956247657,0.6244865793,-0.9125888654,-0.1149706069,0.3895722262,-0.0615996326,0.2550036284,3.4926013043,-0.2273015674,0.0617122031,-0.0815959206,0.3347107775,0.0240102802,-0.6933093733,-0.231367836,0.1393321917,-6.7347561172,0.2776567476,0.4611283407,0.8569487494,-6.9458301728,-0.3178845372,-0.3813435967,0.6264592489,0.2847529128,0.235577754,-0.5746053023,0.6945818324,0.1048848587,0.465539206,0.682305447,-20.6812971139,0.7711527013,0.8111721592,1.2345004635,0.2211592988,-0.9566929227,-0.8323408011,-4.9676968302,-0.4553490034,0.7412718881,0.9658294666,0.4406327966
   0.6355397282,-0.5959199585,-0.9544347425,-0.4224519424,-0.5469530433,0.7474526958,-0.5341869592,-0.8194801539,0.1754364161,0.5137797272,-0.5728219069,0.6020407004,0.9835758401,-0.2436642222,-0.8218073624,-0.3667746767,0.0349958452,0.0108562753,-0.3377560795,-0.8556401101,-0.7523768684,-0.4044085965,0.8485333565,-0.2594179069,0.3164036738,0.4612287608,-0.7131291049,-0.9349091971,0.5610556488,0.4653190387,-0.182637911,-0.8868426727,-0.4071415395,-0.672275174,0.119446922,-0.8555747799,-0.9353009032,-0.4809131486,0.1025572762,-0.3796457939,0.7419387498,-0.9021064753,0.1608284675,0.0478062607,0.4550503585,-0.4109682638,-0.5686729502,-0.7722971497,0.4022849625,-0.0917016265,-0.9157179172,-0.0633295967,0.5156473374,-0.9458309704,0.2250506567,0.7432465495,-0.3084896398,0.3094701953,-0.1207136501,0.0536898442,0.582369929,-0.2385706658,0.4722827818,0.5555002749,0.8179440443,0.2392417181,-0.6262102163,0.9504605071,0.5787299565,-0.7984732866,0.6253820699,0.184882416,0.5633731662,0.2700957423,-0.5455872791,-0.2990773259,0.3724158198,0.4193919623,0.665056383,0.7085386471,0.7332950277,0.9366731392,-0.9891024656,52.4040659717,-0.4739994435,0.0859587232,-0.308134563,-0.5355926591,-0.1011034673,-0.5192329801,0.0299482267,0.0344640428,-0.3667973804,0.4568556113,-0.6914338124,0.7655959991,-0.3689092752,0.4538215212,-0.3872044601,-0.9443919158,0.2130681334,-0.6214980433,-0.9177226235,0.9607546533,-0.9912350937,-0.0064172189,-0.0426441651,-0.4376187541,-0.1289433722,0.286296437,-0.9061346965,-0.6530365628,-0.6958242232,-0.1521766589,0.1883485285,0.5950543745,-0.2269060034,0.2304928543,0.8188502322,-0.2600686749,0.1366024834,-0.6217947896,-0.8705877896,-0.2498639941,0.2027445232,-0.1713552116,0.4189233522,0.5427559231,-0.9688204629,-0.5861595903,-0.1938549108,-0.7401718054,-0.7359848533,-0.6893390844,-0.2986575797,0.749143305,-0.3709762297,0.0793658988,0.5964456556,-0.1154079641,-0.8215012421,0.4898591507,0.7926439597,-0.0472158973,-0.2700546857,0.8813076659,0.1368160688,-0.8623285879,0.2690352448,0.8224001864,-0.0121010456,0.3631443974,-0.8260810998,0.1915224254,0.1851227401,0.6576821245,0.860632123,-1.0486716068,-0.2545695052,0.6747194146,-0.0909153534,-0.2828443265,0.9603425435,-0.6844961778,-0.5008407126,0.3045703495,0.0093345417,0.3472452599,-0.005535064,0.3195982523,2.9915338729,0.3303847,0.8088877307,0.3265954817,-0.0903925058,-0.6844661387,-0.5750085451,0.4645488892,-0.6927442176,-0.7528590205,-0.5543229958,-0.9448457693,-0.7517586396,0.1269057798,0.6686559899,0.3996740614,0.2638814111,0.5555215333,0.1241398003,-0.1796546204,-0.5697889083,-0.0358975018,-0.0731059646,-0.4600701752,0.147303372,-0.8393996362,-1.3425239948,-0.3116587712,0.6264910427,0.5527535132,-0.392652133,-0.4920910337,-16.4820900601,0.6165899559,-0.6220429638,-0.9122070377,1.0106794957,0.2345053877,0.1547860739,0.8596968007,-0.7355744164,-0.9372962609,-0.0643282387,0.2904553309,0.588405784,-0.2676051549,0.2044245943,2.1609906,0.4112279493,-0.8346758945,0.7461513853,-0.9655739838,-0.4922808923,-0.788505429,0.6257571901,-0.5100291971,0.4023862027,0.4453130818,0.6468998625,0.6445006259,-0.5733279507,0.179560008,-0.0174000264,0.4355380502,0.9085433764,0.6204288947,-0.612551793,0.0633079338,0.0075519279,-0.4998157301,-1.0656852536,0.3886129423,0.6810305709,0.270919073,0.2597776532,-0.1064896177,0.2484059977,0.5508888445,-0.6049943613,-0.1491535694,-0.3409806779,0.452351136,0.6942537993,0.099161002,0.0046794987,-0.4973128077,0.2243825062,0.8614547624,-0.2786877762,0.5430662948,-0.8944856506,-0.4523530118,-0.9582558465,0.4664509129,0.8887863612,0.4411414746,1.660496403,-0.9014299415,-0.3010365573,-0.7697022918,0.7092194356,0.2434660905,-0.1350410936,-3.0218998388,1.5435953386,-0.95657482,0.4127666199,-0.1030715555,-0.6946921777,-0.2136229296,0.3816176235,0.3431734488,0.3546342371,0.0076211346,-0.8352010935,-0.4911471399,0.9596288851,0.6504269583,0.3774668861,-0.3674171654,0.5552368508,-0.9720821737,-0.7555381328,0.148720982,-0.3694697806,-0.0862778688,0.6749286635,0.2907513846,-0.009624118,0.17796929,-0.2771017954,0.149448091,0.6235125067,-0.1360112298,0.5092739053,3.2137931816,-0.3831149765,0.8940440441,0.9897554954,0.0849365708,-0.5501595471,0.034296267,959.7605237567,0.8965145263,0.0933297938,0.1996371745,0.0241074205,0.652049986,-0.7556400374,-0.6931247707,0.0243782042,-0.7077181337,-0.1535344676,1.2253790053,0.4788299897,-0.9116234652,0.5604144762,0.9778898526,0.1113994144,1.0330497381,0.8755274303,0.3494428889,0.805040861,0.2413383297,-0.1295293915,0.7561067908,0.5685759027,-0.8979200679,-0.8953669974,-0.2365594457,0.1081361635,-0.2035864024,-0.5925027938,-1.033464536,0.2152716417,0.4682229331,-0.0182238647,0.4213005161,0.1898477208,-0.6437116416,-0.8965979295,-0.9148346701,0.8046238198,-0.2610631389,0.8292967591,0.3627107946,-0.3240713692,0.7703194887,0.4093070897,-0.1366710865,-0.948297488,0.3746378128,0.5944405723,0.7585344132,-0.1946112517,0.1238129059,0.8110136346,-0.6504171497,-0.2570151709,0.0840895991,-0.0068220447,-0.2922401227,0.586896361,-0.2742179948,-0.6599441658,0.8175435569,1.1988708468,0.8063186776,-0.4872800617,-0.4212058869,0.7676876257,0.1079455322,0.740081242,0.6766636572,0.9571002616,0.5841610981,0.837529273,-0.5816399418,-0.318841033,0.0300003663,-0.4876452542,0.6265520982,-0.6531492883,-0.0416212205,0.567946257,0.5903787068,-0.4165566039,0.4239600801,-0.1395631816,-0.1516108489,0.0709838884,1.2331949546,-0.3091953139,0.8907200042,-0.6790545281,0.4472345311,-0.3119411037,-0.4326775692,-0.2218571775,-0.5809840341,-0.2859652844,-0.552463318,0.4659213509,1.376161854,0.6739410442,0.0000124691,0.0055489091,-0.5838829239,-0.4568248572,0.9143515889,-0.6465248252,-0.6459246864,1.2404309689,-0.604068787,0.8820180047,0.4834616647,0.1542719109,0.8082953593,-0.9907113795,-0.3185796799,-0.7063970437,-0.4001592372,-0.7170761784,0.1976035313,-0.4214041389,-0.2577822181,-0.8520796632,0.5625146253,0.7906234901,-0.5926203818,0.8510157332,-0.0699203117,0.2479591126,0.4628503361,0.2341545605,0.2993403736,2.6292692051,-0.8244782491,-0.1317302034,-0.1607557922,0.0266885944,-0.0741563932,-0.4396026493,-0.5916504035,0.814290244,0.2724943454,-0.5393463255,-0.1385500439,0.4762634261,0.5896426151,0.9163127861,0.5593939416,-0.4793166774,-0.6131872352,-0.6909610154,0.440742593,0.9226800848,-1.9012026566,0.9476721653,0.6374092795,-0.9212635511,0.3402158999,-0.068807085,0.0026490576,0.457952623,-0.1696531658,-1.0531527988,0.9914225033,0.7317788302,0.2693411357,0.543931731,2.2816592972,0.139475671,-0.3699161671,-0.9677851318,-0.8726446895,0.0371135668,0.7403753021,-0.5267215111,-0.7536785164,0.1962994619,-0.3158405833,0.7269616018,0.8418250847,0.6244223035,0.9271815702,-0.434735117,-1.2313683682,0.3387529631,-0.3183434744,-0.3389538406,-0.1491709492,1.1536235439,0.010028979,0.5276278238,-0.3683249832,0.9596214388,-0.4817634985,-0.2368877965,0.7528362348,-0.5164805453,-0.9273226456,-0.1907958894,0.6893039058,-0.5305428462,-0.7492300788,-0.3860965504,0.3932732642,0.4020568923,-0.3831444249,0.0999673447,-0.4904770965,-0.9664969179,0.1417215733,-0.0919452397,-0.1252974653,-0.8064070471,-0.8254867729,0.5358966449,0.8515068227,0.6284186594,-0.6067286796,-0.0397937625,0.6718344546,0.0258561636,0.6583284127,-0.4411823922,-0.1342663204,0.8883472546,0.649609587,-0.0944378547,8.481806563,-0.3064398082,0.3604917767,4.966127218,-0.099778682,-2.2313668045,-0.4938438064,0.6417311602,-0.3209305867,-0.1424257245,-0.1197871066,-0.18901833,-0.9939948506,-0.1770989456,0.7525939397,-0.0111425061,0.6141493766,0.3432698583,0.1817330793,-0.3074882486,-0.6839193209,-0.636343257,0.4807771056,0.5980454096,0.1418571225,-0.8912813505,-0.4287147194,-1.8220576536,-0.8028835498,-0.8978301322,0.3427751729,-0.1729969303,-0.6043299509,-0.3637571647,-0.3664072631,0.6831528445,-0.5644567847,-0.9090193563,0.7565035638,0.3193383328,-0.0286442792,-0.6482370815,-0.5754343926,-0.4021359673,-0.3595146339,-0.8414498392,0.1710744592,0.9255248334,-0.2710871306,-0.5054652751,-0.7299242682,-0.3821207547,0.9422571798,0.9701092811,-0.516661923,-0.2388994987,0.8638877166,-0.8273170385,0.6034059884,0.2423402273,-0.6279047734,0.0589962368,-0.6670001013,-0.2506744964,0.2918162806,-0.6433023029,-0.9015969819,0.9469561687,-0.8486859057,-0.2074304929,0.077190137,0.4664968881,-0.116970056,0.7485290437,0.330060077,0.7303352658,0.6435253767,-0.6214591712,-0.1593384361,0.6150294023,-0.1040855279,0.0601925248,0.6534759785,-0.199337439,-0.6077377825,-0.0473942061,-0.1971920305,-1.3062397956,-0.3749352546,-0.3451391147,0.6361500573,-35.828270963,0.0114427912,-0.0741545823,-0.7428985276,-0.7506851577,0.8990560773,-0.2577307295,1.880731699,-0.3959105276,0.4734866142,0.9826854484,9.6342591523,-0.8421345336,0.1111228983,-0.5943990321,-0.8696197393,0.875659756,0.2920177447,0.5432805994,0.6747585374,0.9953933765,-0.2042914157,-0.5124149083,0.4956615655,0.7303833258,0.3303267495,0.482530933,-0.2495440362,-17.5896336309,0.9389766994,-0.8814109168,-0.7761149956,0.528963104,0.8599234873,-0.1752895292,-0.8810802477,0.3881438491,0.8926813093,-0.4617277591,-0.7812550395,-0.5836773112,0.9068533169,-0.9963150283,-505.0667455151,0.1785454469,-0.7373518447,0.7137731301,-0.3826201184,0.2451309151,-0.0762601572,0.6175865771,0.3322745059,-0.0276309198,0.0730109868,-0.8066176508,0.8094875406,-0.6074294287,-0.5555401406,-0.8318657568,-0.0026331242,-0.0054526806,-0.3711041816,0.2770928336,0.6468262356,-0.1218315762,-0.4772052716,-1.8838333613,0.0784823922,-0.794492058,0.6445563064,0.9184332834,0.2751084191,-0.3682791991,0.4675903399,0.6003562126,0.7614612277,-0.5042522716,0.1533430707,0.0902366204,0.1279455407,-0.5986543539,-0.3143701333,0.8706930315,-0.5630595535,0.4664591235,0.2354164608,-0.2517612946,-0.7270175644,-0.7892800158,-0.6905762613,-0.1506814062,0.2160678052,1.0211315931,-0.4025029396,-0.1867718844,0.7325320353,0.9920337387,0.4160273235,-0.0174648661,2.4275033534,0.1377716288,0.6482293887,0.1707442864,0.3302882196,0.8487156159,0.8927011467,-0.0532028462,-0.3083285416,0.9845847831,-0.8265178908,-0.0989257091,0.9810980376,-0.4245792785,-0.2097478449,-0.0046343832,-0.7613100183,0.9197655915,-0.6838924205,-0.6008203462,0.5210733749,0.0932566287,-0.1863456194,-0.0375467408,0.561731726,-0.0819749484,0.926403929,0.5848077064,-0.1886821563,0.7300581336,-0.8865506313,0.8311430927,-0.2558461595,0.3668400781,0.0751417459,0.868607231,0.6334924606,0.9826711477,0.464158928,278.9285389692,-0.5141189944,-0.8612272489,0.3371995466,-0.9543967342,4.5625153713,-0.3299297636,0.1086632159,-0.5424814091,-0.5018007922,-0.4284548384,0.3430118835,-0.3511263239,0.8982684776,-0.1331751131,-0.6239509435,0.8779236718,0.4849601501,-0.5197775436,-0.9794993431,0.260615852,0.7903610879,-0.8867986,-0.3529601261,0.5850444426,0.2278607966,-0.8447699467,0.601926562,0.240967008,-0.9238310566,-0.574692807,0.0619234853,-0.9118838044,-0.6860779333,-0.7191928947,0.9077316584,0.320746278,0.4233858372,-0.694499824,-7.7976667693,0.3750827685,-0.6288109242,-0.9191206756,-33.4795960206,0.7041975918,0.1621552198,-0.3785956725,0.9655947416,-0.1651156544,-0.9831395256,0.3906065867,0.3461151976,-0.9331151016,-0.3413431954,-0.1747337527,-0.3299661777,0.4324353963,-0.2060797376,-0.8253091112,0.8783433723,0.5555935055,-0.3285914803,-0.0991362028,-0.5188259973,0.8627123669,0.2607882313,0.1458817252,0.7943189912,-0.2051541279,0.9809165633,0.1080909991,-0.4809529111,-0.0337525181,-0.1807374774,0.2273817943,-0.2318318667,0.8232208897,-0.9289827089,-0.6312781139,0.8780000388,0.0486661479,-0.936135348,-0.5877914088,-0.317669061,-0.7587275556,0.4179457081,0.7735735462,0.690291806,-0.3819646197,-0.6430771185,-0.7409335715,2.3453450986,0.0456109999,0.3075044643,0.2294264425,-0.0974196929,0.8602588619,-0.7592526017,0.461605228,0.6680802915,-0.293731632,-0.6069385493,-0.0713576397,-0.4383588441,-0.4811637688,-0.1355352941,-0.0382618394,-0.7011917213,0.2383086953,0.8457402875,0.5606767598,0.6674641937,0.8079111281,-0.3079321794,-0.7397778852,0.647850552,-0.9871268238,0.9938175046,-0.5087672858,-3.7073983053,-0.6432146647,0.0765036659,0.1063591308,0.2013324591,0.9428577859,-0.8305333417,0.0483921373,0.9031918922,-0.738203802,-0.7835708211,0.9645477823,0.9454362058,0.3380155102,-0.2667855519,7.1868139909,-0.1803321366,0.2563594072,0.4049197698,0.6947533057,0.6624911364,-0.8168091395,-0.3442160567,-0.5766860106,-0.2320640924,-0.7213589977,-0.1442817779,0.5723790804,0.5930807319,0.6201827958,-0.5530651094,-0.1918724716,-0.447450075,0.9126433168,0.7565315344,0.3896245579,0.0177900116,-0.5199137582,-4.2740950986,-1.3656006053,-0.0299890727,-0.8630262892,-0.761167198,0.4203479687,0.1618316143,0.0172553384,-0.3359667337,-0.4655975787,-0.2578679318,-0.5921105205,0.4709822223,-0.7254279194,0.3353349581,-0.7785983097,-0.2715766609,0.4902874772,-0.6002985915,-0.8950217042,0.5688591032,0.8491609238,-0.516286563,-0.9602106817,0.9829305049,0.9720632292,-0.8910201664,-1.0992331773,-0.4815796926,0.9906952668,-0.8585567384,-0.4410352119,0.8887338337,2.4755506851,-0.0164563055,0.369251903,-0.0590139422,0.0400385592,-0.5905542347,0.0117972795,0.7627686245,0.9152155566,-0.3825316121,0.1236555033,0.5899008145,-0.1486545338,-0.9928797481,-0.4244173967,0.0351422833,-0.271109657,0.8930936835,1.0102359427,0.218228942,-0.7602131648,-0.2599170767,0.3143068999,0.2192754004,0.4595339475,-0.36333044,-0.8731600774,0.2761876685,0.5105918267,0.5445107798,0.9547894927,0.8027902603,0.3531627106,0.7869986127,0.2714456208,-0.9145581138,1.0731420586,-0.6242887202,0.6962177176,44.053458609,-0.7391636318,0.3972049019,-0.1291398042,0.3835657822,-0.7900589441,-0.6389821684,-0.6427872866,-0.1355959568,0.8981811414,-0.389135272,-0.0953472281,-0.2553811907,-0.5659120802,0.6729089493,-0.6564944336,-0.0382787571,0.5835824115,0.6539061282,-0.5549629569,0.0233401131,-0.833582559,0.5947151389,-0.2911117467,-0.3540830579,-0.1144593084,0.8607045502,-0.1650265,0.8781617072,-0.0907940325,-0.484679729,-0.0343499514,0.8723319731,-0.8470622132,0.6627306572,-1.2078982409,-0.1352743779,0.5704432752,0.912008739,0.7550257061,-0.1693756722,0.6358204206,-0.4364121199,-0.698807904,0.6953381501,-0.3454956745,-0.7309164052,-0.0602511786,0.74725046,0.1435247817,0.1327991957,0.8179779537,-0.9260013832,-0.7474639314,0.1171002757,-0.3086967851,-0.1198655405,-0.9092276936,0.1946091298,0.651815371,0.8745972082,-0.8977487451,0.8566092332,-0.1879133862,1.1487666528,0.5028761976,0.490959016,-0.8028062014,0.3954634309,0.4935517742,0.2504049192,0.797154139,0.5340587951,0.3384618347,0.7534961791,-0.1185505255,0.6109852565,0.3205715383,0.6448856951,-0.1372435593,-0.8861089324,0.5503764009,0.2681204473,0.4805480605,0.7294700558,-0.8964031574,1.099976845,0.7795198688,0.2267697571,-0.760338445,0.884029407,-0.0836560205,0.608445898,0.8568061168,0.4506244014,-0.1817418687,0.2884863282,0.3216473612,-0.1426864969,-0.3496813274,0.5754030837,-0.7182653403,-0.3251109217,0.0444584008,0.4909685588,0.7666921492,-0.5900524367,0.0516172474,-0.950149789,-0.3110528854,-0.2708436457,0.9424241773,-0.301189893,-0.835635033,1.0830680295,0.8553574838,0.5373207112,0.9196252533,-0.8249021947,0.2054320031,0.8954280383,-0.3212760081,0.9503648837,0.3553082299,-0.360885679,-0.5822599762,-0.6596491324,-0.0846488642,-0.6408619996,-0.0066226534,0.8582511987,0.3948471083,-0.986191314,-0.83843687,-6.3145448909,0.067124189,0.2230263386,2.7583837585,-0.5915277512,-0.9965292979,-0.4470520422,0.0652620649,-0.2610117244,0.954802373,0.9184929179,-0.7616842253,0.3020545241,0.7783145072,0.0625593314,-0.9271932126,0.3320180616,-0.7594062961,0.7940912601,-0.3620058352,0.3648172093,-0.7874819211,-0.4904198568,-2.8358666092,0.6786187586,-0.1795554127,-0.5959837554,0.8253990236,-0.4218048077,-0.2232935176,0.970766858,0.6999698351,3.583392333,0.5545361393,0.3807809786,0.475876847,0.8279003673,-0.5699145788,-0.3564013422,0.3395083996,0.9420805479,-0.6946017835,0.3165954058,-0.0281163162,-0.488123345,-0.5911938668,0.7323712559,0.8751017693,0.1804363041,-0.7817766759,0.3819928968,0.9436363584,-0.6446661264,-0.5556579328,0.4173846918,-0.616614324,0.1251986823,0.5417573599,0.9735849013,-0.6122691795,-0.9744024304,0.1736597705,-0.9049154195,-0.7043536708,-0.9565657347,-0.8037729948,0.7814565087,-0.7096092586,0.3616433078,0.2132621635,-0.8411316435,0.4161099994,-0.6053285377,0.3907434034,-0.5542725138,-0.8298119957,-0.9823995409,-0.1341603879,-0.2452081188,0.6848265228,-0.3019682173,-0.8452406959,-0.8718392389,-0.5428995031,0.2264931425,0.9476488776,-0.1626795985,0.2463146125,0.6326892362,0.0744836992,0.856947026,0.9552046826,-1.0040341488,-0.1718726078,-0.5534349089,-1856.5350172526,0.5796096548,0.9619914019,1.4488366507,6.8214426791,0.1786665033,0.5487851103,0.3670069432,-0.9838493569,-0.3826175909,0.8575807063,-0.1487738538,-0.2085636075,0.0383640533,0.2745195333,0.8860646772,-0.3210302507,-0.4576097803,0.0110388761,0.63085751,-0.2178861591,-0.9676780207,-0.7208297691,-0.0258218776,0.5938309686,-0.0415754087,-0.0892138703,-4.4773645013,0.2746944666,0.8127783048,-0.7621298203,-0.6827499409,0.6869403675,0.0819778041,-0.8180586839,0.1163507454,-0.8659227429,-0.9154333462,1.0243194975,-0.6261531745,-0.3101999415,0.8951482618,-0.1971869459,0.4436372774,0.4570249684,-0.8185490204,0.3183187545,-0.7591005771,-0.5281615764,-0.9146149858,0.87657339,-0.2403919459,0.5464002547,0.1353983648,0.6062204314,0.7817219213,-0.341637161,-0.9311779459,0.7308936992,0.748090407,-0.0710108699,0.7370020375,0.5004602965,0.6086054623,1.0037155711,0.9992745641,0.9711952438,0.828605907,-0.651377238,-0.5277958789,-0.5900779648,-0.0365836077,0.2987395674,0.6498815435,0.2076405336,0.0481129976,-0.238158923,0.6353615123,0.3412382524,0.9072354495,-0.3265625409,-0.3443041317,0.878672247,-0.5949045808,0.3577228198,-0.0796504683,-0.6318704648,0.3113428364,-0.5668579801,-0.7167243178,-0.2653101777,303.8320475437,0.5351899599,-0.7012563237,-0.2643930857,-0.8622318647,0.4942017984,0.5961247194,-0.5756173932,-0.5054001436,-0.1005003333,-0.3299269293,0.1877525159,0.0461773467,17.3253032653,0.2430043359,-0.4290197257,-0.4565345339,0.3216583393,0.5967075823,0.993619391,-0.2330272456,-0.1016684863,0.6548943267,-0.8630762263,0.4107474133,-0.1736399008,0.6674023985,-0.7695595746,4.5731203077,-0.6857989709,-2.0686020258,0.0112056961,0.0836522994,0.7012225332,0.4203995545,-0.9373329424,0.782742925,0.3256518106,0.3030719184,-0.3402703506,0.9465900586,-0.6117591844,0.0647210395,3.3762395397,-0.5278085007,-0.9899175035,3.2716439992,0.6172004609,-0.5503102402,0.743922072,-0.3594271479,0.4819225732,-0.3375939756,-0.3172786531,-0.5725377647,0.6033943112,-0.4031636485,-0.4267904401,0.814996433,0.3267779717,-1.6257065215,-0.9909559501,0.7125777246,0.630009742,-0.3328868165,-0.9666323111,0.796074622,0.5816126945,-0.6136156199,-0.4093285715,-0.5161556093,0.8193352748,0.0924933248,0.5282221738,-0.9152815806,0.847270119,0.0289216603,0.6234298407,0.2745460477,0.5911511218,-0.3437270793,-0.7486063368,-0.3631144502,0.623911345,0.5572455641,-0.3029806806,0.0650995853,0.5093307911,0.2674615802,0.7656947299,-0.6408243574,0.4773865719,-0.1883897806,0.4224206681,-0.5066363767,0.2659711007,0.9510477946,-0.0993608884,-0.8402610847,0.8556645626,-0.8584330668,-0.2464019948,-0.9134143175,-0.6286330581,0.402697347,-0.0637373216,-0.4073962366,-0.6634553178,-0.9020162327,-0.4545691136,5.6840101665,-0.599096886,-0.9483067896,-0.3061615292,-0.7741836435,0.8186253595,-0.9641067634,0.8845360443,0.8101554401,0.5780962098,-0.0215972545,0.6384476483,0.4967871526,-0.5475172103,-0.8561622493,0.7834115587,0.7004772891,-0.4162286638,-0.1802035461,0.6897819655,-0.4401298913,-0.6393934218,0.4253729181,0.7999575516,0.4567203481,-0.3825386586,-1.0037861961,-0.0504875876,-92.5926948999,-0.484489892,0.7664969784,1.8979233498,-0.4764624214,-0.5644508252,-0.5056802183,0.9259840488,0.7095250406,1.0666509886,0.8860941046,0.7579045938,-0.7365211115,-0.7162678911,-0.0613576324,0.419550733,0.5663875094,-0.1572943332,0.335740127,-0.6422872292,-0.5687799602,0.5741498702,-0.1845192514,-0.3348391469,-0.5582963024,-0.055726393,-0.4430738156,-0.5615658366,0.085007086,0.072957213,-0.5336816268,-0.0870531441,0.5844279126,0.2068345509,-0.281034434,0.1496082639,0.9602230922,-0.002053465,0.0774619866,-0.1680966794,-0.5941187889,0.9668226873,0.9883049771,-0.9384711673,-0.1802227846,1.10088368,-0.4596585376,0.760162566,0.9938922618,-0.1123182076,0.2781384872,0.1630003234,0.1570245636,0.4111265612,0.8512858516,-0.3792396509,0.2504164503,-0.0093362948,-0.639455449,-0.6813035988,-0.6586152755,-0.0611688304,-0.3235023183,-0.7197792942,0.1787742989,-0.331563279,0.8943964358,-0.5245290241,0.6305280937,-0.0510749032,0.5488014704,0.9513651046,0.8053378304,0.5177786954,0.2243831818,-0.5070016014,0.9264380014,-0.6824912029,0.9105268614,0.3052299206,-0.79590737,-0.2674494663,-0.0838161294,0.4205517639,-0.7204408983,0.293702159,0.881114546,-0.7409571551,-0.467090841,-0.3670243701,0.8502512711,-1.5823033289,0.379257701,0.4946731052,-0.3797149834,-0.0732398224,-0.1339898325,-0.0328270321,-0.8236738374,0.3728225055,0.805914753,0.4802109754,-1.0301387464,-0.864067998,0.293919775,-0.1930048771,-0.3200600604,-0.4694367966,-1.0034769242,0.9496041841,-0.1814767215,-0.2476646473,0.6492945816,-0.511881776,0.187715619,0.2537713635,-0.7804059241,-0.6973144709,-0.2106476497,-7.4006183066,0.5685217896,-0.8483455986,0.9325883457,-0.675596936,-0.4106748729,0.4972050679,-0.8246217917,0.8514498022,-0.3309096164,-0.6458214219,-0.4894285327,0.4883431572,0.030274878,0.8158835098,-10.3980056879,0.9586366881,-0.7322485432,3.2538652479,0.1275933993,-0.937379683,0.4545791601,-0.0978899472,0.4834729013,-0.2440313366,0.6616312126,-0.4315548313,-0.1974208918,-0.8574372205,0.4201936603,0.7019055907,-0.5152530145,0.1848443186,0.8718502878,0.4533527807,0.4543751783,-0.9890700154,-0.6031903853,-0.4738157658,0.2891476157,0.6111435696,0.8127607271,-0.0134001928,0.965042506,-0.4266955736,0.759554978,0.6848850807,-0.5171777065,-0.9509626901,-0.7480803864,0.0723983226,0.5182414304,-0.3159272524,0.7494123392,-0.780443753,0.7284914921,-0.2509287334,-0.6824240595,0.5399803203,-0.6236253664,-0.2471338606,-0.4480429332,-0.7469400732,-0.2563528546,-0.5333226674,-0.2865183261,0.1330475868,0.5396093506,0.4106913485,-0.6189887605,-0.6306724975,-2.1343381469,0.4344827654,-0.7228943999,0.9118816081,0.9037431785,0.2488919091,-0.0326664775,-0.1612695938,0.3585365474,0.6439455013,0.5696565899,0.7570538761,-0.2983479647,0.8022273946,-0.6810274268,-0.6000058346,-0.6426695305,0.0002537496,-0.6685092584,0.4519058974,0.5682450703,-0.4519503348,0.5931514192,-0.2327202964,-0.7923943137,0.4490342866,-0.7404848621,-0.1680372016,-0.3332311924,-0.2542599191,0.3364684052,-0.143940956,0.757240584,-0.0961438367,0.9477315267,-0.3478152521,-0.4167268364,0.9357362587,0.6097877114,-82.5459938411,-0.6488100547,0.2267816145,1.3400610231,-0.2460788444,-0.4521053407,0.4110039378,-0.4933167712,-0.9021831296,0.8110092426,-0.749357928,0.6570009458,0.5141302582,0.6694961678,-0.5034096853,0.7015483832,0.6215016502,-0.5224809002,0.7668940681,-0.2280070749,-0.0686735826,-0.6142497988,-0.5158191276,0.0109894308,0.6053044127,-0.0325367647,0.5741203671,0.8371204413,0.4558788711,0.0410636122,-0.4528705768,1.1409074175,0.7955973938,-0.4297392526,0.4341463329,0.1622579622,-0.0601291278,-0.4313850485,-0.8828257222,-0.9385678304,-0.3200203145,-0.052753722,0.0211154795,-0.7313366268,0.7139925662,-0.8261414485,-0.7551554654,-0.8556544821,0.7970410377,-0.7338467737,0.9845806631,-0.5465536146,0.4120103214,-0.5823439096,-0.8906901606,-0.382182179,0.7458247177,0.1389075583,-0.9497553021,-0.7362730758,-0.4534060195,-0.0177967262,-0.1952693887,0.3233312992,-1.0098677165,-0.368446605,-3.6768296185,0.7720260014,-0.4116353629,-0.090258397,0.4907829557,0.5876012622,0.0330064177,-0.6144067508,0.7602775034,-0.5178499782,-0.9667233144,0.4901410835,0.2168347009,-0.8120131341,-0.7198794,-0.6720788711,-0.4862985226,0.6243235452,-0.7411197847,-0.5217608413,-0.0144961152,0.3603130621,-0.8875113224,0.0248412468,-0.315680379,-0.2874585223,0.6699519815,-1.0317157249,0.9569723183,-0.1310533612,-0.9966892766,0.361018789,0.1404845733,0.882554942,0.6329382728,0.1730351185,-0.0633816818,0.8686397577,-0.8048636912,-0.0916150758,-0.0454766513,-0.3535872673,-0.5399373626,-0.306287289,-0.3692163304,0.0482073095,-0.963355099,0.4213523593,0.8688820199,-0.6315701228,0.4553326542,-0.6318346571,-0.1764280127,-21.8048308697,0.8306126468,0.3889101341,-0.9785100229,0.7060732502,-0.1110316784,-0.6883585959,0.5501268155,0.8380524142,-0.2089041822,0.4879545686,-0.3455422788,0.9180563325,1.0164838717,0.0872967337,0.1867739992,-0.877731018,0.1687715803,0.1773788239,0.080857089,0.8493997176,-0.0303195068,0.6972507042,-0.2049848859,0.9337489385,-0.904828248,-0.7804884015,-0.3515541094,0.1500548526,-0.0249627843,0.7595730102,-0.070745804,0.2319576923,0.7857396845,-0.2104000962,-0.3968283241,-0.1563104582,-0.8317288152,0.3996053056,0.1052209315,0.4922505336,0.3416518836,0.6418560192,-0.8210410802,0.8490804263,0.7031933979,-0.3805904983,-1.0369273515,-1.758663257,-0.1722551464,-0.8911222412,-0.333973759,0.3346906496,-0.3147704828,-0.4234617031,-0.5785323538,-0.7057506812,0.1281060524,0.842932525,-0.7118415312,0.9033595033,-0.2360713836,-0.4725610623,-0.8103854333,0.7941973562,0.9158696102,-0.484158074,-1.1822520357,0.7770266617,0.7376970022,-0.6364948206,-1.5294468763,-0.2803382181,0.0269144812,0.6334130855,0.8013017233,-0.3274523583,0.4426220946,0.5153257741,0.8141093594,0.3820810759,0.2509554093,-0.0781759059,-0.90009965,-0.3775075025,-0.0106156775,0.1212891444,-0.7358594116,-0.4073573612,0.7578938193,0.8567966334,1.1394044588,-0.8835344321,0.9986155334,0.8686810801,-0.3248196287,0.8008421979,0.5258201667,0.2844738217,-0.1277608176,-0.1476465589,-0.8906470548,0.9576056024,2.1168561407,0.0166594905,0.8061054487,0.7975263402,-0.7552275567,-0.8279644676,0.1743615995,10.3095417943,-0.2127907056,-0.129533551,1.01698155,0.4840956562,0.4254583377,-0.3263009329,-0.0639060629,0.1745447426,0.8708020111,-0.4230567909,0.1353798832,-0.747814191,0.9756319914,0.3543666823,0.3255316016,-0.1846833399,0.632811736,0.9546026601,0.0097207902,0.2659638079,-0.9621092693,0.8161296124,-0.5564137466,0.9682777912,-0.40432565,0.3960092219,7.694225903,0.499958294,0.0502487479,-0.010922358,-1.5208212132,0.2341574904,-0.7649707779,0.8487462292,0.3614528575,0.490120231,0.7872878739,1.1004156696,0.2191947578,-0.9544876832,0.1798106541,-0.0064788906,-0.1550267445,0.3389217246,0.7674653081,-0.1032790527,0.4163639263,-0.3357465835,0.1107495369,-0.0016412944,0.9674468663,-0.2471879881,0.6700849372,-0.5577142359,0.246649687,-0.9646721721,-0.1621611127,-0.4369186243,-0.4242645774,0.0440139999,0.4673912512,-0.2307944159,0.4426175995,-0.1111050017,-0.7256240263,0.2041167787,-0.2889352185,0.0983493933,-0.9491974852,-0.0748684299,-0.669564031,0.0760199053,-0.7573227255,-0.3884975695,-0.6343103197,0.4032597843,0.5661488132,-0.202146203,-0.285601984,-0.2840989831,0.146149912,0.7808426225,0.9095969677,-0.9511064904,-0.1566617485,-0.3469146381,-0.0248022719,0.1048228335,0.8998648776,0.4572008003,0.5887520446,-0.2947951985,-0.5926942271,0.4499170044,0.0407201977,0.1756596762,-0.1252909813,0.5874183007,1.1838844203,-0.5087398252,0.2924634966,-0.2459737104,-0.1289207477,0.5179980236,0.341804697,-0.5526319959,0.3061843754,-0.2585001389,-0.7575183438,0.0476894818,0.8082008397,-0.708996687,0.8250126714,0.5700553231,-0.5850841254,0.4415782754,-0.4750063134,-0.8992618544,-201.1365517491,0.2056157708,0.89965557,-0.1834891918,0.8218186523,-0.204950365,-0.2154520616,-1.0837182223,0.7612632246,0.7171999495,-0.9181077815,0.8997109532,-0.5831353636,-0.5868904105
