encog,BasicNetwork,java,3.3.0,1,1446105311227
[BASIC]
[BASIC:PARAMS]
[BASIC:NETWORK]
beginTraining=0
connectionLimit=0
contextTargetOffset=0,0,0,0
contextTargetSize=0,0,0,0
endTraining=3
hasContext=f
inputCount=15
layerCounts=1,61,151,16
layerFeedCounts=1,60,150,15
layerContextCount=0,0,0,0
layerIndex=0,1,62,213
output=0.833160587,1,1,1,1,0,1,1,1,1,1,0,1,0,0,0,0,0,0,1,0,1,0,0,1,0,0,0,0,1,0,1,1,0,0,1,0,0,0,1,1,1,1,1,0,1,1,1,1,1,1,1,1,1,1,0,0,1,0,1,0,1,0,1,0,0,0,1,0.7787287869,0.7290411293,0,0.0000000002,0.000032983,0.0000001278,0.9903740848,0,0.0045986705,0.0000001835,1,0,0.9995526052,0.059293606,0.0000083226,0.9999999973,1,0.9980920663,0,0.1570293022,0,0,0.0058347141,0,1,0.0000286801,0.9996560765,0,1,1,0.9999936773,0,1,0.0000000049,1,1,1,0.0000000352,1,0.0001542023,0,1,0.1940599394,0.0001958592,0,0.9961361332,0,0.0000000024,0.0005949114,0.0000318609,0,0,0.061444494,1,0,0.9999999982,0,0,0.6367726736,0.9999999624,0,1,0,1,0,0,0,1,0,0,0,1,0.0093107263,1,0.0000000001,0.0001025382,0,1,0.9999999686,0.0613619985,1,0.9999999532,0.9920549594,0.0000000015,0.6862188509,0,0.0000000232,0.9999988505,0,0.576235269,0.887272204,0.9999892684,0,0,1,1,0.0015372026,0.0002290082,1,0,0,0.5941506321,0.0000000218,0.0112960082,0,0.0026794918,0,0.032685813,0.0001857413,1,1,1,0,0,1,0,0.0000011412,0.1039937825,0.0000236247,0,0.0000152717,0,0,0,0.0000012771,0,0,1,0.4539818392,0.0402489489,0,0,1,1,0.0000001754,0,0.0000000196,0,1,0.99976449,1,0.0023754019,0,1,1,5,0,1,1,2,14,0,0,0,0,1,2,2,0,0,1
outputCount=1
weightIndex=0,61,9121,11521
weights=##0
##double#11521
   0.914825398,-0.1255564199,0.612596467,-0.8693586565,0.1467493656,0.0201398274,0.3995868264,-0.0160064556,0.6492753629,-0.3051097539,-0.1911976712,0.474068707,0.2684578137,-1.3290065113,-0.2648890463,-0.072581,-0.207385199,-1.0142161534,-0.3184470629,0.3294832074,0.1252218405,-0.0550848455,0.1327860477,-0.0332922494,-0.0144643019,-0.8752226218,0.262194006,0.1388491355,0.1545756249,-0.1142999537,0.9632843189,0.2123480084,0.0366174127,-0.4013670246,0.4385409804,-0.2862511387,-0.2010065139,-0.5671027424,-0.5792119675,0.3565380634,-0.4080601725,0.2077211725,-0.7278244847,0.1451972209,-0.9207566436,0.2739585563,0.4549727037,-0.5000282214,-0.4065093126,-0.2603322597,-0.3012372902,0.2715697016,0.02577523,0.1459116473,0.3804228358,-0.4453657191,0.6522874219,-0.1961129003,0.861994074,-0.4501341253,-0.835266328,196.3290495212,-49.6089279295,-37.1072446485,-42.5578194793,-13216.8756016163,0.8389360477,3.8412965531,-38.9106261782,367.805121551,-139.9429099771,137.5309107125,-72410.8249626647,-155.1173475323,17.237805758,-3.0028963149,592.8023064976,4483.7470631451,99.5348121659,6.2609900305,1261.8977911845,91.548780437,0.0714845529,-0.2353224333,-0.2416975279,4.7672647495,-6002.3846493323,30146.0922008216,346.6075143216,-16794.9891741102,1082.5345121808,-0.7849193236,-573.0179728687,183.5459797274,7946.6446782314,-349.8902948434,-0.2193440185,0.0077299669,-19608.7328216476,0.7156244528,-7661.4616560496,-0.6528811269,-24.7883273438,0.2851069043,43.5053540428,-193.008318926,80.3110088404,5.2305127014,-0.7075739126,-8169.3672908026,-7148.8419682464,4621.5039669393,2.1473521732,-45.2071025868,-66083.0575040811,50.9112976188,121.8270056817,15874.3134473287,2175.9253240128,421.8398786867,36.6017670395,-52.1097396798,75.5779725187,-73.5286391042,-142911.5151563655,572.6871302836,51.2414884834,-12843.7964708188,-0.1958253289,-2.8022550663,0.832963035,0.6052391934,-224.1715468031,-175.0517412098,0.7791856515,33.7582305468,-91.6765833267,2910.5300184491,0.1363844175,0.268396843,1.0143644437,-223.163769213,-721.763550876,-79418.085497967,-0.4126759141,-0.1855473206,-32.9112277646,3.4928215225,-0.5429441192,0.3556392162,-12451.9558917229,-891.6913476573,-5.4695685794,0.667393181,0.8204185818,-88.2483641932,281.4326509916,82.6478891454,38.0671594587,33965.4102714741,-2.0345086112,-0.9218514074,7.9984298442,-11390.8399478235,-76948.2637385826,0.9148764045,120.2541723783,-1615.087140592,98.2994984009,-121.8139702238,11.6441363189,464.3466620597,-8876.9750377021,-1019.0482846093,-1698.9608741551,-282.4323503613,-0.2333382752,1.0648887689,-0.7023752559,-3314.6118145363,5611.3194455349,-6.1457676314,0.0652076804,4812.0591828453,-15.8310467331,-114.3722736426,7418.7635591358,-227.1324789446,-747.5268101051,571.5098669822,-1621.1081149691,373.457413984,0.330046843,1652.8079713179,125.1563756436,206.3258129006,-0.9571924421,120.350763501,-3.7210163438,44.7439852457,134.3036601318,-126988.1033874971,37.6863172643,-173.2295665514,0.3067602967,0.9386293483,-0.0134431156,0.2034177558,-30.9686136225,409.1683067647,0.849638824,0.7127662375,-606.4614768341,0.3625097294,18.4492639417,2288.3970496963,13780.9203448857,-0.3673468214,-150.7342589878,64.6921174445,-75.0740535058,0.3727853221,-115.8908949596,39768.4208025956,9.2870307849,-9.330883224,0.6264705547,-1392.93008282,-166.3029666605,-19.8419745249,-69.3527639175,-11.2588502976,-0.9887704253,-0.0388604637,-0.4500111458,-0.1422105115,-1.4610551542,3051.2629430384,-29837.0702808166,-1198.2200396055,7698.4053686064,-173.9471000333,0.7844782526,628.3838314751,-20.686359912,-11020.0831778196,125.9831404448,-0.7924569947,0.549750316,15847.3248455539,-0.6084752415,-19475.4224958628,0.4735541579,216.2310197416,-0.8031742349,-661.9440829481,0.8540739655,-371.8239671257,-52.9101038016,-0.5831670775,11002.6983736231,4177.0708167877,-2050.8135873996,-2.5951221212,-1445.4672074174,31251.3017442774,-4.787104836,-426.6569161306,6167.0811248188,-2524.0498807651,-68.7011740912,-2.7628296803,65.9450500347,-18.3742613962,-46.6271368731,97438.1306629273,-49.5775376072,-1667.0706318927,9609.0216526869,-0.281138549,0.9003559823,-0.2410874888,-0.6946911065,50.3387626292,374.4033405415,-0.5177642737,-6.3082836361,13.4513452124,-5103.6633712083,-0.979614952,-0.8939279288,0.195060785,29.5939944302,138.3820452333,67255.1053084963,0.3819907618,0.4878498398,19.4374442467,-91.1784595577,-0.8698595361,-0.7334427458,7599.4478245895,987.970467955,-1166.0487497896,-0.0117800653,-0.2152097572,86.1130921484,-252.9657123851,-28.3184081535,-8.9088875382,-14894.3775763723,2.4919189219,1.1777442593,-8.5662443463,4658.2793757114,54913.8340717378,-0.9284468432,-2607.2011099382,-824.5743443661,-42.190033856,-219.4636515282,0.8129395752,-225.4217611942,7391.4132547358,1019.0812451535,904.6607428484,2926.1982999929,0.9942017522,0.0112732783,-0.458769073,-4324.0519670237,-296.84301751,5.8989655206,-0.9255232773,-4957.7940688699,595.3862471541,25.2708571617,-8091.2657362059,719.4495116954,-2124.2632318055,-11.9010802643,2829.1112691336,-346.0942378431,0.3667752178,0.1079397794,-590.6963801266,-3.7614057258,1.510811346,-15.733920194,-660.6139925051,-82.0123543102,-131.2802475872,82812.6893343894,-18.3407740042,-1370.1647443367,0.2655944974,0.0884236611,-0.6912686595,-0.5972027823,38.8659053669,-43.6542657866,-0.5210861146,-0.2068486388,11.088117142,0.3352271576,-15.9530908672,-687.730250346,-12567.5861725239,0.8345260125,-9.9691944799,-100.00892331,52.1594059412,-332.4475509044,244.489061894,-71767.5595657624,-267.1353500972,17.849142231,0.6157235502,1183.3719576484,1005.1783207241,275.6355015478,17.2273655666,623.5764264604,15.8512915196,-0.2470803137,-0.4783206479,0.6541006691,3.3919679226,-1733.7493388323,29938.3185686177,110.5378597101,-15801.1849301599,921.2795716106,-0.9801589328,-32.3628516847,46.0539928825,11152.3698840897,-406.9464976898,-0.1752861565,-0.8766855445,-18561.0613432141,-0.7521104675,-11168.6036539139,-0.3031143008,-44.8261718727,-0.9320418534,34.830895041,22.7337279961,345.2564096107,26.9131726859,-0.0850524101,-3486.7331732028,-9986.4314463623,4090.9743693623,37.2272545236,166.849700128,-70357.0010703991,38.9632018812,659.7207474104,17673.3299633561,1971.8743349051,145.95310731,1.3847749437,-17.0251612558,38.9580483594,-2.3881947923,-143652.2555545309,144.4439354699,346.5138147872,-18187.5902263473,-0.2600926603,0.2689276618,0.9474431981,0.5511827433,-62.0531815302,-1170.1999023474,0.6323496882,27.2270198771,-10.013710572,7383.3098062968,-0.2726393801,0.0643182075,-0.291803868,-168.7303235377,-1687.7108230441,-78930.2854632783,0.1051206916,0.0579338358,-1644.1112125301,7.1417817083,0.9549836585,-0.7904407012,-13305.2437012486,-233.0840383583,1407.3899242421,-0.865146922,-0.6347154997,-56.3615951096,597.107060967,21.7576344915,47.5982983358,31597.252169466,-1.8276965205,-0.9565061,5.2823965779,-8971.2750539867,-77184.0426727921,0.0880235112,8566.6871599611,165.5839605966,29.7557476118,-80.899167921,4.1199544291,386.3368520655,-8374.2390227086,-1430.3599561804,-1684.1446186848,-679.0256509785,-0.5698013317,0.264483416,0.1237933169,-2370.0553051135,6474.7349483516,-5.8053850176,-1.2100930734,-800.0081604626,-128.7585446879,-88.0011368143,8487.4493712349,-2236.6316846784,1221.9412507031,1563.9704789515,-332.7105351782,1119.6580721015,-0.7876704479,82.5748265294,321.8635564581,4.3469115274,-0.2035122614,17.6378012288,481.6742770273,28.5390383839,21.706617017,-125025.372252132,0.8501606644,321.9535651511,-0.9881276983,0.438410098,1.5952252964,-0.4562191474,-35.8956393716,-25.7642054017,-0.5328844634,0.4960947671,-26.2114459223,3.7718762309,290.5600286408,56.5475782434,14321.9542361936,0.4261921637,-5.1743652714,61.3890452394,-169.5965363672,78.5971607055,-122.993316708,66278.9700853584,380.2463893896,-90.8348335403,0.9461996679,-475.0081022181,-264.1891691087,-428.3982418442,-6.9948519206,-287.9898581011,-7.1512667978,-0.145460701,-0.861936632,0.0333019014,-11.5789762677,386.2456372843,-29009.487386262,-55.1699556078,15966.4998405376,1406.1675775114,-0.5138432287,993.646366923,-1.6989388505,-11785.3947735944,116.0744232007,0.9081278056,0.3216255387,16492.2535143642,0.3381280016,-683.5445438162,0.6007942322,87.9472859017,0.2908163907,-277.2201589853,101.5275230175,-1648.3037523588,-188.1573739377,0.5147558775,3122.179565244,10675.7785326617,-2408.8992256162,-6.6601114176,-1660.6315196458,60830.5294973729,-3.7665051325,-583.7552842279,15331.2128822222,-839.5529993513,-565.7194428405,-4.5285027173,4.8677068375,-604.1111578904,135.3714125571,119295.7176306967,-487.2621591574,-82.4688610257,13089.1724539513,-0.0416864683,-0.2610833924,0.2356229145,-1.1265762921,228.5888217512,187.7305430622,-0.9327511938,-909.3858866668,3.8759706417,-6252.7500682315,0.5613533663,-0.1586255678,-0.0611007772,804.9434803239,577.386987746,78889.248925276,0.3809376412,-0.0072375355,234.7429858311,-7.0171069091,0.8196729516,-0.743709894,12230.5173414584,1209.3966408728,-9.6002829108,-0.4098142707,-0.3077635154,301.2740171226,-241.302733597,-82.6770248789,-90.5178372731,-3810.5569943156,100.6302031999,-7.1507545666,-62.7706903167,8788.3695629322,78613.9174100243,0.6524290918,-277.3908115919,143.9838475612,-79.1549090275,-23.6793114428,-21.1569512269,-183.6126910848,9069.9744532291,792.7066395703,18.0372533252,1347.8719337025,-0.8617952797,0.048307861,-0.5944032718,-23299.411984216,-291.9341347282,10.6521802612,0.9434334722,-3428.5248044046,10.6732188269,864.177917766,-8196.1717573865,32.1558411329,-21.7195702713,-2063.1989957588,-898.1124978728,-765.9157466841,0.4830742142,-2880.7196721077,-119.0708169148,-4.3516035467,1.0488399282,-28.7551594766,-202.3345765528,-1.7365854779,-64.0364923531,105329.1724468731,-423.7402958492,73.8769643448,-0.6464508582,1.0368242758,-1.7366487188,0.20601459,-6.8044374401,66.4023565849,0.477182462,-0.1830713094,-1547.6136711869,-41.8295214345,-131.8801780593,-42.7559285582,-11693.365759308,-0.2525437769,-10.9871193584,-15.6038761262,24.1819350938,-2.4771707185,49.7153226011,-41751.894373034,-1236.4929127858,13.3869395641,-0.4929128927,124.1855458513,1534.8223716197,184.4728465627,6.7050308651,190.5414786776,93.128980356,-0.3853173671,0.877758496,-0.5370593207,-1.6190505278,-324.5636020954,9928.6695149449,408.0723802444,-13921.5942340668,-1121.856859841,0.4069794193,-494.5703554176,38.3971536158,3830.3548472509,-493.2760034946,0.5267015024,-0.8574732602,-22598.8190844119,0.6961614361,13617.1623465729,0.0341140385,-46.2231295821,-0.8172341741,35.7071343946,-987.2154439285,146.2650632892,2.015171298,-0.4406285884,-310.5679833476,-5680.4341194703,23168.8901094136,17.5659122099,-486.2752111543,-58701.2814583493,29.0443852726,212.6664918683,30300.6719292578,3972.1572738052,7.4960553148,2.7023739261,23.9638051809,2.7552629884,-3.8707988763,-112950.7211214779,127.4312328758,50.173091348,-18612.9851553474,0.7939625667,-0.3751500647,-0.3583823862,0.4760058939,-58.6311885654,-80.5370993128,-0.833217242,20.271105172,33.6654277711,5329.0131283625,0.023770665,0.0882795812,0.2446199592,-119.3228089509,-443.9508612553,-48267.8008373927,0.4906685418,0.2626753977,-37.1635542907,2.1886346463,-0.9376723731,-0.7156378426,-9012.6119158661,-1447.782801178,-477.0631135374,0.5357067374,-0.8166085778,-124.1688707042,1277.6410124606,80.2716828182,1352.1064208666,49501.0583404593,176.7709294225,-5.3236728114,-185.4813883739,-19143.9741093279,-55869.5866185632,0.2624450606,4937.3125129828,-2180.1056050986,64.4578424976,-45.9648703345,12.4043505124,-5.7267758267,-5916.5032986734,-1114.3223041151,-81.2341583964,-91.4506739723,0.0662069838,0.4394360193,-0.6391317922,-7185.4351456251,-82.9134953542,-2.4710685317,-0.2066548165,4126.3756409461,-12.6505900398,-33.9906354121,9366.8663152655,-475.5203064966,1220.7029468992,3025.5169830573,1020.4134816787,-765.6192164057,-0.3352470845,1024.7762924137,30.8618495351,34.258153546,0.8118273022,27.6677497125,-3246.3460404627,15.4545940273,9.0795768614,-97712.8997940403,129.4061488273,58.5716323289,-0.977571995,0.8488554772,1.0980966604,0.9120702398,21.00533956,494.2779460138,-0.4723598598,0.417588042,635.070321438,-253.7198680154,-235.4244731593,-87.2441670644,-14599.8299260407,-0.6421705557,4.9690791041,-46.974146015,197.3251741598,-1372.7184198277,220.9532732317,-71365.1908648263,-153.2795355999,6.9231166702,-1.56693169,2612.4209085455,344.460128939,118.0972643243,6.6273108565,1668.6318672872,39.8718304544,0.350329493,0.5393390508,0.2567550969,1.9098886888,-5979.5145103936,30583.8661618201,3564.9552821141,-17162.564150897,963.5342700297,-0.8774381031,-703.5933843455,167.1857718897,10820.3127058861,-404.9769525467,0.6317859315,-0.5763499495,-20059.5534461332,0.5877529403,-8245.1813253409,-0.8692925738,10.4049719247,-0.1572039901,3.7793270926,-444.0664935369,411.3471013297,4.2484383746,-0.9591846184,-888.6183085839,-7485.8477835622,5855.0230763777,-7.9291203935,2732.2507656556,-68865.8686096853,42.2734777611,237.8256828598,19604.8953462926,1430.7923429996,131.7581902485,116.2713157209,-43.2676831806,121.8851783253,-27.1812390749,-142821.379795601,1349.8021285164,76.6405508389,-17847.0353766779,-0.3309644216,-1.5867058526,-0.6155568625,0.7209170006,-86.2613474244,-113.8439440909,0.2847001822,21.6651301488,-49.0885292523,4839.5211032106,0.3364683577,1.3619296088,-0.799461761,-442.2827197949,-561.4051633496,-79267.4642895415,-0.1289996689,0.8110523208,-45.6838689666,5.9832509109,0.2790261018,-0.9734956157,-14670.3498119051,-218.6102729203,1151.751429496,0.3175335688,-0.5564325601,-86.1944991018,420.8448962979,390.4747785212,17.1555925324,37234.4907922972,2.5558561508,-1.6858516218,7.3758872565,-4553.3662576012,-76992.267187911,0.3605682339,3400.950760579,913.2503843074,87.7561383887,215.2022959887,11.3816259833,-378.855301965,-13337.1833337505,-1381.18541741,-2797.918659054,-401.2360586861,-0.0711670554,14.1756908131,0.7454040869,-505.8551134854,3022.4535940593,-11.1568845008,0.8255263644,3626.5265844447,-18.918723633,-858.0966781135,7899.2931666926,-936.1751411605,-473.6931696145,147.8809249369,-5149.2055522135,-29.4080291428,-0.3196516222,2081.8760028518,1235.9614276626,502.9063336158,-0.7080432381,275.1323532802,426.8857889261,82.7094046664,127.030184869,-126437.0163216467,7.5701892501,336.4653680081,0.9685954091,0.1605719069,1.1753622911,0.7452192787,72.3146424916,-25.7246162427,0.4361604611,0.6246648615,273.4448414446,141.5854220284,-622.0016698418,-524.2706352624,-14309.7904314014,-0.4773319791,5.1873070169,-123.4761538131,112.6248016619,-53.3966484754,192.6031212422,-64993.8298177227,-360.1716978848,14.7796750669,-0.0514060542,79.5203312321,643.9989990655,1.7228708135,3.7550486224,844.2950547255,125.8252177278,-0.1026029158,-0.0490367127,0.097429259,4.5339240617,-1214.3891982344,30052.2899974339,3004.1639149277,-14274.8599896363,-3455.7100046615,-0.3963768416,-129.7456361883,525.5406706816,10237.8654076859,-341.0216315168,-0.7037841785,0.3690543377,-345.5770759402,0.5035947376,3646.6720958256,0.0065581875,-46.8259006633,-0.055494783,37.7801590014,410.0472833315,1913.2247158865,-4.7561000648,-0.2940040309,-1841.1149555683,-7838.8424147145,2650.0157728844,2432.9170705512,-64.850571609,-55328.3244048871,23.3439228956,76.1422398501,-28131.3719331879,2081.0040905719,48.3004640919,2314.763549978,-48.8237855889,713.0749376321,21.7397497569,-101967.7295851098,54.0076101592,915.4844179035,-23255.304055978,-0.7067455959,0.3187671942,0.2132995633,0.854627067,-84.8572717019,-135.0535117815,0.0891995492,20.6772284147,-55.4820446975,5672.7678658052,-0.9623011723,-1.2540990289,0.6814253437,-947.3965439531,-149.0550568331,-78838.491442369,0.1680361665,0.819893182,-978.5484486624,0.8132477907,0.2233622532,0.7328677709,-13695.5953304905,-223.9700635929,948.4781827537,0.9294008908,0.2816218674,-32.1388580908,342.7651855295,148.7963414019,649.2179241291,648.7877974041,1.8873267514,-0.8609602273,-6.3915572851,-11993.9396861073,-75743.5770272904,-0.2277192085,3504.0827969795,-201.4262679711,49.958525474,14.6525547602,0.9525020778,318.6293748282,-8455.65432396,-1115.9141767468,-1952.816504613,-153.7417131141,-0.3628497628,-0.3078488833,-0.8212442878,25121.8608050472,253.4424046868,-11.7608713622,-1.2424424025,3619.0118022197,-24.0103749368,-43.4593531338,8086.662494526,-5571.3907991968,810.7927456365,-145.9405021251,374.3237157237,-1052.101203131,-0.8879468048,1.4361829481,69.3784308391,1398.1890075169,-2.5415464481,45.5260342222,-321.940749214,83.3785613542,38.8919897848,-90874.4320661792,-8.7990781865,255.4676688026,0.6038418928,-0.0580841744,-1.1131492248,-0.8393554257,-13.3686678016,-29.8347300752,-0.5122825304,0.4186627018,257.9652083782,0.819189062,28.8014094099,145.6762220358,13064.0629166603,-0.6761322182,-15.1806185408,47.3837131462,-76.4910158352,7.9372363144,-792.5411561811,73586.5721996487,18.1007404707,-14.1334968067,0.8120700934,-242.1449157293,-648.807764171,-104.1683982802,-0.1409549874,15.1161942455,-89.970137057,0.3630750946,0.9462670351,-0.3566410156,-4.8080584771,4795.5983453582,-30882.2766127339,-113.1819669066,13327.0157033545,1899.4426579225,-0.9577455593,56.6871662153,-5.1008776641,-10914.0177548487,343.5921851002,-0.9436926945,0.971448543,23290.6579935095,-0.0814141947,9919.3056628781,-0.1360056067,46.5170099973,-0.9157026943,-359.4243319011,4.7610551589,-2235.6692025372,4.8694759512,0.286065235,9393.7369441548,5373.8307458487,-3237.627872758,-99.5870662416,-76.0781341987,63662.4450222056,-5.7059556063,-405.2599404053,-17799.8910778029,-637.2249326214,-24.8882812249,-1.9240875557,48.5453942241,-6.4698509946,31.9914619124,143985.1318851327,-31.2385710328,-66.5079893686,11387.7755135448,0.6766824496,3.52798358,-0.317543325,0.6490368849,49.1683299529,137.5839796054,0.4252377508,-52.9625843723,7.2816647855,-7518.9851991377,-0.0421863654,0.5843266995,-0.2915378528,33.0312948496,223.3349388424,79309.8028798611,0.2611548792,0.0782567007,3960.5281393096,0.2362969313,-1.0832731418,0.4849407506,9737.4609029662,2776.5202687881,-2875.9953344115,-0.5681219856,0.7943967577,2390.4729419481,-56.5483408224,-236.5124111953,-6.8701408743,-25777.2855626862,-1.0958920725,-0.5934699674,-0.0854874044,6551.8565469092,78386.8584371966,-0.4074278218,-32.2712909593,-186.2783254361,-42.9252053866,-445.5610018211,-6.552453411,-21.0535215986,8481.1372465297,1430.1676774855,48.749975798,1915.125601785,0.2612569214,0.155501832,-0.7385706672,2647.1667320176,-4462.1168083789,16.3744420236,0.0373860129,-5376.555408263,54.487761265,18.1473536858,-9375.989991442,223.3144145904,-252.3319317407,-416.3885566627,2276.8053588382,-3573.7225838412,0.4695438629,-0.5626678133,-224.3603582829,-1.6797389829,-0.3771320141,-30.0405177611,105.7831062234,-45.0259567001,-16.0725579455,122525.0871012183,-145.9582958216,-258.1763076903,-0.4071219904,0.4637413525,-0.7051121041,0.0745639313,95.0648749091,-8.0039273914,0.4506702449,-0.3983832584,-52.0291167675,76.9801319754,-1152.788521005,-96.2064948502,-13135.8130264723,-0.0378331405,254.1061940955,-46.6088053543,71.3270413664,-24.3794733154,402.7439119782,-70275.7383884376,-23.4995367553,7.6556201889,-0.6122115597,495.1875845254,662.3370718358,126.3235138373,10.1697179655,17.1112653982,1780.2022120677,0.1838538924,0.8151159615,-0.9218430497,3.4887468702,-712.8951367338,30740.1955391247,3214.8601485845,-17372.7839901051,942.5699635008,0.4806321663,-52.0504183107,188.2356713399,10913.3465558173,-67.0577351137,-15.4363421142,-0.1783637471,-18589.952244642,-0.8053241077,-12236.3828568213,-0.321423177,-46.0097949457,-0.4948282915,80.3276499733,-2.8752731158,1272.0243730643,2.5907629418,-0.5580046692,-5532.9717777071,-6404.6105680136,3258.7122391533,8.5754505161,2630.9591786759,-69425.6587470476,14.8893802647,2242.0111269378,16455.4426479427,1250.1552043685,82.1801361774,12.9065701724,-80.3235267732,100.0906252685,-12.8350171982,-142031.9032665993,165.9993981647,43.3614227849,-7733.2978019764,0.8862317444,-2.998765213,0.1605992241,0.5242094719,-106.25807168,-664.7821022477,0.5828514968,1793.6155882445,-37.5985023615,6184.6689569432,-0.6933392322,0.5652763605,0.16294831,-161.1346571481,-3152.1296750865,-78827.9400703359,0.2221905449,0.2467868651,-54.6215333441,104.308164827,0.9516795896,0.3429219203,-11343.2709244834,-185.1240129029,124.074276174,0.1766635529,0.3599033961,-65.7140158257,331.2965463525,234.945329815,12.0021851994,14329.4253131179,137.344024198,-1.3337943383,-0.4416860313,-10714.3399039625,-79317.8513210521,-0.081240131,564.4006253799,-169.9626439497,65.2759437937,1.1981806167,37.585889289,1003.6228748825,-9924.2076588347,-1280.3649016836,-225.0780139334,-3367.882341868,-0.675171103,0.1697307191,0.0863257863,-2214.0191792105,1075.5752507295,-7.837964652,0.364773845,4914.4611841676,-12.614001401,-9.8479925022,8805.9883039289,-293.5156992527,503.7034432291,366.1635800172,-625.5586231343,2221.8565574538,-0.6186233281,6.30844747,2132.1975648709,39.7234366461,-1.3941558204,37.3202350481,-909.7164829427,45.377545218,72.741708459,-126923.112964625,-9.5304588915,282.8983138692,0.5969925648,0.2793687585,-0.3717847013,-0.3942963676,-76.6691828264,959.2419782827,-0.8240208641,0.3648890514,-1997.3018410374,44.5548639084,258.8772152203,211.2298672141,13526.0666681381,-0.369232552,-33.8497997439,29.6234639687,-47.0939981342,5083.3620641141,-212.1040019012,70602.2241430876,152.3705845762,-6.7993306304,-0.7413055545,-221.5566143762,-667.7581439308,60.0022466019,-5.5996710298,-1246.1376162638,-74.4663803262,0.8208753128,0.6860712305,-0.6908017201,-3.593960389,8793.3280041833,-30431.8431277175,-2377.9241969649,14218.89644441,-239.3790044082,0.6840102013,849.660752424,-183.5011981632,-10717.936222437,346.0449737569,1.894585249,0.4850944823,21489.7765649201,-0.4598605037,15482.047595516,0.3224800072,45.7608473767,0.7891328727,-60.0096803831,206.9426562217,-1493.3050293109,-12.9551088918,-0.955570251,8230.7325469097,10375.7434052113,-5660.6115910717,54.5999184907,4106.691024967,68156.9475911984,-31.4293457467,-72.5382196482,-17265.8834258873,-1756.6033382632,-26.4589197784,-13.3742494214,49.920661011,-75.0737995369,7.4414510415,143611.2390306678,-25.8175374748,-42.3950902259,22592.9435694426,0.4917772886,1.578078511,0.1904189774,-0.7428072543,236.1279575414,188.2101098558,0.6287819395,-19.2008596548,32.7682491129,-7471.6025466847,0.3848314939,-0.7334889327,-1.1165091807,218.7213524002,628.888461279,78994.5001577499,-0.4590604681,-0.0001951974,331.4281283697,-0.4376831614,0.0740591618,0.0634270855,15911.6988124638,1976.4349426768,-533.0155085925,0.6430992625,0.9793794589,87.2227203014,-339.6155298856,-81.5429484458,-105.563995701,-19485.3833639511,5.0671624262,1.2974744644,0.6216738783,8382.392561635,76611.9866254446,0.7433487146,-7037.6692928491,890.1823365764,-48.523200603,-621.6509057474,-34.3576890397,140.068815427,9222.0780523934,1380.6817570412,6949.7371649127,757.2734538373,0.403740352,-1.1240290715,-0.8610698344,2190.2467091912,-1586.9636297631,4.8331390822,-0.2594394121,-308.8682400662,58.2090703295,2867.8259772887,-8138.5625644721,2752.2011918283,1102.7174991039,-1346.3541275673,6423.9193971981,27.724948071,-0.7109924594,-5.7300812174,-78.3520747265,-15.6243840161,1.2359177643,-40.0106370594,-557.6447632757,-5.0365149937,-48.4739248633,125485.2520507163,-45.3184990146,-322.2539330273,0.285242118,0.9249027627,0.4785841615,0.3937688141,75.8668252384,37.0534547268,0.0250288778,-0.564847371,6.6249759542,23.6957963043,698.1814321009,33.8482760446,14698.4972433249,-0.9179582585,3.2045956619,25.9143288855,-22.5977697924,-31.79824379,-767.1813421888,25989.3519325037,1.971176086,-14.9465648589,0.6581342774,-919.4708836489,-266.1920682203,-147.6440519122,-0.8345141047,-2.1428053072,-21.5599933676,0.9041558882,0.1906139394,0.7304930465,-11.5557069536,3218.5122135752,-28934.9464055674,-328.4778824366,9800.057478948,2258.4624170143,-0.6820735553,84.6776904211,-57.7734069609,-11589.091061559,228.5909407539,0.2203639625,0.4849564995,8991.0194555811,-0.9944267818,-18890.5086547636,0.5773400391,-5.7807463286,-0.6658431996,-42.3600128827,188.9595634191,-2570.1860415401,-29.2064536885,0.9456932189,4069.238830801,5126.0106813749,-1862.0570837752,2.0759289096,-3150.6013867175,18492.8065688878,-28.2078315111,-53.2515480835,5750.4765880484,-3697.9138387584,-659.7512185775,-407.0302061167,241.9824926674,-59.4428406021,122.9323970698,82977.3039609651,-213.3888699537,-98.8203494068,12632.0160643009,-0.7192277135,2.4064120132,-0.6697460384,-0.3281077077,71.7754097844,249.3520323731,-0.1276466483,-24.6068001245,171.7693188969,-2221.7637165107,0.5072412889,-1.3961075453,-0.0556402757,309.6497595595,961.6116698746,71175.4740518167,0.8542801461,0.1719379922,362.8697422545,-679.0944742043,0.2186686729,-0.9846249664,9007.2737130142,220.8851427702,-6.1794694858,-0.5166480647,0.5068292214,177.9627062937,-3737.2054533482,-26.5374569097,-232.1976674944,-11038.3242255054,11.4964551471,0.4744341133,-0.9191883725,2120.987665127,50009.4310710443,0.0757496477,-526.6012964231,655.6393035534,-10.6495749046,-1194.8219658395,-3.4306256513,41.7020503527,7984.5010308611,1116.144324726,11.8063838828,17.8239250702,0.6965222383,-23.4400166305,-0.7606775668,3030.6038280222,-673.5755319556,10.8027874362,-0.9491076672,-5298.7339452127,16.392217798,24.1012905033,-8136.0090603895,436.0555388045,-1640.2097530612,-288.1881609629,140.8212776853,-647.5900281283,0.9031592515,4.0404829193,-268.643376593,-119.023442798,1.1140624102,-684.5340511299,-573.6159180315,-98.5369737198,-1281.589284067,66932.3945693405,-47.1666586734,-259.1091232745,-0.1982868147,-0.9841607472,0.2489935418,-0.6192792502,22.649365319,-0.2446408833,0.6575220649,-0.0643100054,-228.2951081313,0.9787936684,-83.9772138882,-276.0234171198,-13930.0113876081,-0.1162224804,1240.989623335,-56.6129834904,635.3183831212,-785.7000531561,1188.1505622144,-73097.2867631556,-15.616250617,8.0400865012,-4.2912614217,267.1014497152,324.6739565586,135.9795580397,5.5023999742,255.1515794704,191.8701853826,0.8220449472,0.3627992727,-0.2954194664,5.711777724,-3839.5388603331,29823.7121338702,1170.0274471635,-14674.1890321954,-1634.0654597916,-0.488872043,-243.5972680976,232.7255272557,10653.9528931119,-58.1761120411,-1.0888862761,-0.9822898809,-17894.6423058925,-0.9429872509,-14905.3791768427,-0.0452948754,-1.5387391636,-1.3657269337,249.5935483417,133.0871839675,624.9586195754,5.0585049192,-0.8113273554,-4123.6043583394,-99.2118876297,4167.871430626,286.435674797,-1846.0378534922,-66449.0149830973,35.7624460078,4063.4219197552,16945.0493121872,5066.9389694161,1549.7911030886,0.950764706,-46.0483566742,22.2238247504,-6.4136720586,-142956.7623620409,30.5282702038,34.4367272191,-21793.2193855094,-0.6352353035,-1.3882095408,-0.1293599694,0.441505679,-229.8208772032,-113.5027580595,-2.7423849069,7.2545703612,-419.7214035947,4895.8774245542,-0.0670606028,0.5962233269,-1.4881659632,-389.3145434909,-1399.2710269173,-79049.9477532644,-0.4820691697,0.4205604194,-45.4387275674,497.874166853,0.1935123707,-0.7553853693,-14226.4194154416,-470.4059789997,-510.7937063617,0.1421184915,-0.7793745737,-29.0939568602,841.1230030017,28.0207010442,36.2166827764,19815.403289264,7.0822892175,-1.8202218032,5.1691117806,-8979.0624902408,-76337.7859608525,0.2800069562,711.0698086634,-916.0735328132,67.4175678162,21.5882948405,2.1012971311,360.7619823839,-10732.1140992032,-1020.8343409422,-77.2176048592,-487.8150230386,0.567903517,0.1141709455,-0.8620727376,348.0876154448,2865.5886976121,-9.1118850068,0.6676183477,3397.0854820041,-46.6686804204,-13.3432781897,7773.5955730323,-10.0449178608,2188.7428476692,3485.2705628388,-952.2541541576,1575.924018853,-0.920689263,2.6216039663,387.5201727427,304.8371151259,-0.3905203306,69.043247341,-911.1607829021,12.3172451163,31.0553527164,-123902.2044941295,36.39466958,185.0471918595,0.1048545501,0.1342683225,-0.5496679506,-0.735932095,-116.964911381,-20.4018671078,0.3521734897,0.4920122746,148.2147958747,-31.7811506376,-2760.4307355835,-123.0782987423,-13948.8828035766,0.0003615969,4.681881637,-7.4463786183,310.5279906572,-420.275598694,265.8348232943,-72213.5087780386,-243.5333980769,9.020464082,-1.0596923441,717.9616084428,992.4062830442,72.0504037939,2.6026041047,-46.9547051512,1202.2339756141,-0.130629829,0.6645449421,0.855823598,3.991853108,-7968.2565696543,29745.4437845171,428.19765112,-14625.2728970265,2059.7592814822,0.4646178661,-1267.2935084496,21.7239911118,12716.4684880629,-397.3982660412,0.4380775918,-0.1696832531,-18579.8704487917,0.2559975749,-9101.1728397764,-0.5855282197,-59.8428146442,-0.8137594732,7.7975882622,-3.6726145491,760.5132642145,-30.4465107281,-0.9956961409,-5577.6656650298,-12411.6769919946,6225.2803299938,9.5986227617,4822.4057439304,-69299.2720249605,449.234907834,272.1574470329,18819.0349244242,5922.4147639001,114.2780313962,13.9581696814,-45.5012743758,143.4561927218,-24.3757949928,-142988.4517744869,1268.9713560196,16.4764925759,-16510.2863401936,-0.956440368,-1.666847259,-0.7459770731,0.3916741569,-235.9644037334,-269.3476752291,0.1273239488,119.5516218829,-251.9233354299,4989.9644660822,-0.9336036361,1.3590966838,0.3170499715,-455.4799727523,-505.6841723389,-79576.7385301816,0.3073470235,-0.6382532607,-982.3468844433,4.6140328469,-0.1613340117,-0.1656832031,-16402.1301349744,-305.5808033034,27.800587335,0.1696664027,-0.0227024887,-183.945658609,347.97337678,82.0341076282,66.7874115072,33642.4312480376,-369.3379611901,-2.4631540002,0.2299780117,-10442.6536468452,-78083.7651440487,0.1778704127,4910.611522222,-313.7168577283,45.6766687465,50.4335353604,12.5607351098,-780.1685953858,-10006.7134090571,-1479.80947256,-5209.9112537514,-3185.6101415806,-0.8586790766,0.1958671865,0.8966034329,-1887.6624134925,2764.6912905301,-4.876221797,-1.5678167603,4238.3095127511,-21.5275266276,-863.4248123995,7440.9170914113,-4372.0236752627,-295.105661135,468.2918716773,-1524.6112158201,313.7140703196,0.5602930684,2859.3056247696,262.5285841162,45.5582164599,-8.5224310117,222.9903075865,636.6251247579,149.3590846874,37.3673438208,-126587.9377630186,122.7429276648,436.2219710666,0.6453894546,0.3865366252,-0.1503988891,-0.8147727933,-25.6953625327,21.1824807574,-0.1052250288,0.7297730026,585.335929844,9.1797135331,1099.6571598776,87.8975705566,13802.2968534787,-0.4534481511,-7.7879655305,30.2579976677,-209.2049698271,740.0866062149,-617.7452315851,35681.8693939273,6.1879498794,-16.7412649385,0.878927879,-1888.4214945724,-54.3087137762,-67.4207581226,-5.8904673796,-12.7791064627,-198.7278086704,-1.0040730281,-0.0479275011,-0.6321980518
   -4.3761420597,4151.2765818273,-31895.2121007831,-252.5739275467,7257.718533868,454.7641136676,-0.7834244944,992.9597162763,-21.3566219628,-12133.7689879886,338.6379993329,-0.8891894351,0.5501832173,3513.3851719834,-0.365811759,-10450.5773446675,0.7492884319,31.4187397371,-0.2638461677,-97.6899506221,-1903.2101332198,-443.3649219212,-3.716813751,-0.0204123367,3904.1059183242,3629.2744733596,-549.3646628428,-11.6325119405,-1422.6802313192,22162.2527647889,-30.4727853238,-268.3872835432,4931.5394388654,-2361.6251184901,-35.9286530167,-0.7191856949,30.9284017284,-52.0098200047,13.734313422,86433.1377384364,-69.7222749134,-56.9410692327,10926.2119168285,-0.3990132773,2.121148508,0.7979310824,0.4085982249,223.8053606184,182.8683358402,0.8268745935,-20.9236253224,14.5129615731,-4817.239944453,0.3154044584,0.5110141558,0.0348653492,125.9332742149,473.0559121269,64574.653025803,-0.1181967981,0.9653474487,122.0451420518,-2.0645260719,0.7211582397,0.4119589213,9450.1318584295,1235.1830054627,-68.3341193837,0.7781321409,-0.5449790336,87.0249648778,-405.740168736,-234.9107272608,-38.2447606651,7514.9158567764,-895.7827426332,0.7539569994,-7.0216022349,4178.6777528199,56245.0446879157,0.1815307859,-1653.675245629,-935.6012159141,-58.9740806036,158.1158339752,-10.7767093419,99.8440340165,8399.4810055679,1114.6849683329,41.5152461087,-12.4435053616,-0.1709296804,-25.3450947973,-0.341778967,-2856.392462088,186.8476745452,3.883765387,0.8678287902,-4827.4567098104,14.4012904776,112.5952099106,-8606.6904528649,1137.7980521553,-334.8178249949,709.5062845654,753.6243709345,289.6157630096,0.8830847995,-93.0990386141,-52.4203723219,-18.3111243051,1.3048970417,-9.6860730967,401.6424619508,-37.0029410426,-5.9118139762,67962.0948881415,3.8342708194,-847.8615041115,-0.4189382912,0.5068470332,6.0257729703,0.7442864642,37.6835793825,14.8165795128,0.9777502965,0.1269526753,140.1438621663,315.6471643201,-86.8095360017,74.3315136379,15019.4953349797,-0.5375674088,-2.0569949197,133.3769191637,-2655.505775673,1394.9632611739,-65.132823498,20304.4581912858,20.1217298144,-43.9058017111,-25.3993375478,-373.8103527047,17.7159945941,-509.1324958069,-17.4161226134,-12.2646390714,-10.2852528407,0.0067007236,0.2380994449,0.7514675663,-35.7427272231,887.205424189,-30878.8392880761,-904.21439769,6552.1201992735,3289.8473546435,-0.0897502554,669.5931835712,-58.424618485,-11583.2465528884,41.9491805482,-0.6471387149,-0.2255033179,815.4654523675,-0.4235181233,-32598.5724308878,1.0029345727,-3.0494246002,-0.7740580798,-1516.6985067243,-487.7403623213,-1193.6659452046,19.7015248107,0.3889411972,3822.8913550605,4696.7234080607,2075.1212138223,-4.4757103311,-2682.316743725,7699.5539184376,-12.3042133349,-3114.3997819775,43225.6747055383,-2165.8448536607,-43.1291686926,-4.3210151138,781.2841510201,-640.4170245505,-13.9381811746,57320.0688459867,-28.8327587909,-5.4915917469,10850.9010989322,-0.4183680336,0.8468232522,-0.2980702542,-0.3062348371,32.926535644,117.1792476188,-4.4089083079,23.9261954543,24.4346827616,-4010.6927520339,-0.469074774,0.3507768077,-0.6793143382,1246.7936465959,676.2738276072,64834.1794399145,0.1691744675,-0.6017150515,235.2148392987,-42.3521145764,0.2378109987,0.512809158,11280.914594283,12.1888470139,-4.4795580027,0.6760486846,0.9462783283,53.4227761242,-3771.2530998975,-6.1382745074,-18.7563777412,26209.8537852672,-12.8928002045,-3.1484252085,362.8083836933,5854.2346681246,48286.4501540096,0.9196375275,-49.51709787,742.577550445,-82.5006471823,-705.4555685076,-9.5047925597,15.0768991866,6542.7126956408,1020.3361307543,68.2233834305,-529.415032175,0.0357500184,0.5580298137,0.3640133028,-36923.5256134171,-3149.7617307793,4.7406190206,0.0922529309,-3707.8287146913,105.3595823199,248.6531693459,-8747.2328989508,72.6924203076,-214.3804550968,-1463.866791045,981.0773341782,-2361.4704238657,-0.6837045407,29.8587729967,-14.0233428133,-5.3455736274,0.1625837398,-36.9586031411,536.1958914246,-83.2049973418,-721.2072146762,44112.468625224,-37.0353067922,822.4557815191,0.797632144,0.182568599,0.1085032204,0.5811664519,218.4181372118,31.4886960673,0.3460212602,-0.331398837,-2380.1399736526,-3.9739521511,167.8507640324,148.8595845823,13814.9910818287,0.0614574863,-100.2788027673,47.4599735031,-545.8627250921,6.7714452438,-503.3401593001,75850.1769123984,110.358230968,-20.2537865936,-0.6282748061,-114.6321558055,-634.6214504614,-140.3048045879,-6.1965903735,-1620.465829709,-18.0282791466,0.5157869286,-0.2469157906,0.1029132784,-3.3935662206,5857.6083735519,-27702.9290822162,-2758.9604034272,13455.1794388581,7092.7724452563,-0.2472998962,319.858394775,-398.7483734661,-11002.6708731705,228.698924036,0.3926502422,-0.2068012469,23668.467149442,-0.8984710084,11688.7448723497,-0.0432320578,19.9591572579,-0.615495417,-90.4825503429,-407.2955280603,-550.7456899886,-17.5854819386,-0.7078134384,6004.4772989397,-109.1032747189,-5796.8185919309,-4.7517099869,1402.6690431646,76570.0587999584,-14.4554668211,-145.8727922385,-19669.2845998082,-4012.8198197767,-803.0902166539,0.6432653903,-1.4152829196,-18.174190917,26.9613137442,138587.1582324313,-2441.9810683761,-66.2007517691,16073.744715186,-0.8366430407,1.9084444159,0.1078807008,0.0352233618,121.8187578484,98.5111597552,0.7223131483,-17.8214734256,2201.4018034571,-6971.5870883322,-1.0239156762,0.3250350659,-0.5526154017,97.6605864325,727.5517160896,75769.2289826005,0.9792509822,0.5765069708,18.5162292553,-11.3615612718,-0.6993226241,0.021221001,14647.5747883405,1711.1139074273,348.6744598248,0.2855644503,0.7132215965,184.200474954,-369.9274835768,-121.5702946614,-155.107782143,-34760.5993131074,-113.4727924915,1.2906316123,-9.0214689359,9488.6662155268,76647.1377634673,0.0565354424,-6110.6312961899,-35.1495168426,-31.745556104,41.1494119129,-10.7073491025,-7.7068668817,8313.0702736936,1115.6955037037,688.2033197036,4287.4928041313,0.3742997017,-0.1922513821,-0.7456332003,-4536.643660619,-5181.7742515232,2.086510818,-0.9703940646,-4975.1051903904,96.8062394247,205.6246137905,-6565.09128632,586.1963151958,-1182.4931097593,952.4763775687,3047.5073474986,-1593.9978092546,0.34720817,-9.321804655,-73.8318392223,-8.0899590812,0.4832309358,-13.54920134,497.6325218128,-27.3461336816,-560.7640575285,122621.3065071068,-37.9314146548,-115.3144427695,0.9321688238,-0.0572817489,-0.5449380243,-0.9698231502,3.4133330613,-199.7091989789,0.3288647264,0.6724778563,-21.6204629014,-43.1900007534,-215.9292565009,-87.9463037784,-1426.7879874142,-0.4558227825,-13.4559249316,-14.9932865659,115.6871389253,-1.2083786274,228.7901072679,-62943.1224244197,-372.1033931631,1.4921379216,-0.3300704087,187.3864117355,-55.7788210681,-23.5675570978,2.1175408318,-74.5601939943,2.3234761514,0.8920732928,0.6664148362,-0.6352231454,3.6410275403,-1545.9568490398,763.1569256727,-253.3368184892,2793.2657638159,-2641.865814663,-0.8089466563,-105.8073159711,103.3302834929,9793.6665535113,-72.2439957182,-0.5420682874,0.4003241541,1148.8574865218,0.3024068459,-5910.2106741174,-0.2288979905,-50.6027132961,-1.004849287,12.808347564,-1181.3427667782,57.4221219929,-4.6610219666,0.0795806054,-83.0979972796,-1127.6422737606,3338.9696366869,0.5280391733,-180.0909048222,-42492.058979438,11.9972617104,16.19450285,-12161.6141904444,-2938.0981002591,23.7128051778,-0.3024906678,8.0858827513,20.4946013151,-12.855510714,-64391.5199493759,-2.2381551135,13.9839101065,-4620.2898180408,0.1476466278,0.3458075026,-0.3312144532,0.6028179358,-252.6852787057,-118.1042535396,-0.9639374623,1.6364407583,-19.8223998075,3633.6233239959,-0.2612454764,-1.0010344773,0.3647831707,-117.4024756276,-123.1813895002,-26622.3582579056,-0.8059527703,0.2641917672,-4.3273804027,-0.7771440793,-0.7400147689,0.692647808,-3239.701328927,-2448.5377428899,-0.5132628407,-0.6976091137,-0.2716489551,-140.9061043244,131.983089147,236.1809429538,6.8966377245,-13727.5002913431,2.2240241719,-0.0336253175,-5.5567643167,-7478.2056282338,-48126.8557228917,0.0707459858,662.6352498719,2420.4084530959,2.8070938007,-1.2432956465,16.4850914956,332.1908373373,-3563.0626751081,-457.3384994068,-8.3038258872,-155.496625324,0.4942695161,3.2609245411,-0.1125536177,19911.6105488874,290.6201995581,-0.6008232957,0.3472357955,-4280.7296528135,-11.1464327641,-94.5696046568,1783.0195339944,-58.8939001009,-270.4507642408,-1342.318934177,-4768.9485552691,-507.0030777243,-0.8466428538,0.212523354,30.5475789002,-11.902251455,-1.1700545318,-9.8927830405,903.5017447597,-39.9997053457,2.5417746956,-54761.4949262016,-20.8045434863,-51.6785869729,0.1978009933,-0.0082621892,2.6899086135,-0.0479023574,-31.0377968228,-12.4831710469,-0.6966221914,-0.0024947951,-757.4278783276,-58.2146930456,30.6906715201,48.8867782058,12391.01254683,0.3122461862,-20.7966524189,34.4839004033,-66.1063207976,3558.7641765052,-163.7270235684,71011.3028149677,259.7817624161,-7.6013048923,0.0164846872,-186.754688315,-269.9307905859,46.4560006537,-7.6178825593,-1896.5767262067,-10.9965291512,0.30780739,0.850545906,0.2246197642,0.3963708958,3855.7381984527,-30818.8508792439,-5885.0449221409,15223.5949789024,-2282.1034946487,-0.3694833951,455.8227463565,-850.7653039064,-11741.699452242,67.7342176369,-0.5772765174,0.3439877146,23375.4765285549,0.3153875836,8845.4469218982,-0.213954993,116.5741568407,-0.2424059635,-336.365932499,-177.096564183,866.2267412431,-26.2230012485,-0.7128947019,8162.3627093941,1213.0195615621,-2027.0353129132,-12.3802849312,2646.5586642653,67210.4743769058,-26.5944362041,-98.7448236208,-17062.1445725914,-1529.6310659781,-1414.2089241689,-7.3785218843,89.1676533863,-62.4521525412,-154.8567874895,141464.2506982161,-45.6290323727,-855.5713622662,15059.9931073281,0.2841950094,0.6604843719,-0.4369534622,0.0247500699,160.2019314959,215.3179618158,0.7816169762,-68.9768176794,-36.8834865919,-5333.6066798709,0.4267110548,-0.3425058169,-0.2109758058,250.2618516299,904.1707467903,76797.9141969372,-0.2204342243,-0.4108675621,9.4291295937,-1.5449898534,-0.4552623336,-0.8881409365,8784.6527137578,645.8933971415,-428.6669454867,-0.0729384681,-0.1437597145,90.1405685242,-562.2783469087,-61.8132744447,-5.4670968478,-30504.8203822431,2.6778279563,0.642085207,-3.4551485815,6282.1155491874,82629.755438799,-0.5397902134,-346.3208428281,3.6551648201,-141.6493372514,-533.3249391018,-3.3723195714,138.0949333668,8165.0008099947,1380.3553249493,127.7784622807,346.2215329082,-0.4511514378,-0.0634041089,0.4765128296,1310.7245396457,-722.6151383891,8.3477426994,-0.9609776663,-2530.3204639099,27.0986415375,316.9398205845,-9188.7163776662,4.3677994727,-1057.9974788828,899.3483394918,1558.8652957553,-1029.0224981966,0.4897278036,-1424.1816311227,-13.3729096952,-2078.7127590059,0.8696138924,-28.9364880673,711.8094629382,-57.8283682271,-332.4238187953,120727.2140920095,-17.8777963122,-337.0767863372,-0.5958741099,-0.6679610563,0.1525754521,-0.8422437333,88.0926318619,-24.5571876279,-0.7291096874,-0.4962522406,-664.3465820189,-77.9676006992,1201.4391505442,95.1159558305,13286.9636283382,-0.3597989436,-16.4967891251,57.5536074238,-172.316499945,2608.7840565759,-212.828420082,71207.930439054,162.4227979767,-5.6581139568,-0.2971858415,-340.5599161933,-261.599382278,67.3276285201,-6.2562778267,-124.0305332457,-91.1913189417,-0.6105993496,0.1786120972,0.7697149033,-76.8635783514,3670.4531620789,-30552.2709868664,-1072.8303261075,14239.16346911,3047.0700018647,0.3324489839,996.4623298965,-182.4257469654,-11683.846143977,398.3394861975,1.1819376026,0.1642694435,20509.2490496284,0.0619232669,9623.0310193592,0.8519233927,47.2794938316,0.5133609068,-40.5207823418,1015.0820193498,-1619.67731776,-5.2385213128,0.2511142652,9100.8113943568,11353.9844601127,-4229.8649599814,7.5426286345,734.4527919971,72171.599083688,-31.7915360926,-72.4757813775,-15700.3764270236,-4377.1436994829,-94.8598705915,-4.9744978584,46.8617940434,-72.2969806209,-1.6453684908,142977.8854578281,-27.6936236827,-53.5179614101,20500.8039648153,-0.666329124,1.3168110947,0.7464488865,0.8495736453,233.9847536764,186.7561280048,0.7348371298,-21.4238861421,176.5062807861,-5644.7819565403,-0.1659112441,2.4051575542,-0.6830909156,209.0699947018,615.8660319849,80102.9823073499,-0.0489946152,0.0059056917,872.1393811972,-1.662453066,0.1099064364,-0.9951427105,16716.1493412739,1068.2152713664,-1512.2146097396,-0.7336626455,0.845869001,86.8523016335,-183.3948258327,-236.2900503357,-12.57437802,-30701.18714948,2.2909368494,34.5336382066,66.081759288,9317.9331315068,78334.7811516117,0.8266306096,-3137.7822777056,380.9868701813,-52.9891288511,-407.3115823479,-10.6639057597,21.7724796167,9441.4832988613,1381.2295457757,2022.5220655634,1580.0033671133,0.5340495693,-0.0559495689,-1.0021740742,1464.6418842711,-642.2913177558,10.1463251798,-0.976315908,115.0553321253,27.8052840698,863.7742166191,-7898.7886012366,2834.6801992541,-1237.6200347998,-356.7810790869,3284.7246157565,-499.6221387153,-0.4383002886,-121.2449379861,-115.8174948608,-9.815319811,-0.0983700236,-47.647383081,-1662.3275041615,-44.3982232813,18.4640294787,125962.1251544729,-35.8562158479,-312.622505166,0.2936821393,-0.5306565075,0.1503317307,-0.7608694119,77.8313644475,18.6300763678,0.9597873427,0.1554113747,-46.1304799454,-3.1615990082,-400.559381107,-160.8392172755,-12158.6219732128,0.9350741621,7.8554919035,-19.0603724722,49.1111036083,-30.3601654897,196.7609600886,-71278.2158571226,-636.1061264591,8.3806433021,-0.5595733559,141.9466580198,455.4102667132,833.3813464638,7.179283615,623.7692084459,16.7764218719,-1.0788054168,0.4393054419,-0.6558606798,5.8119901384,-5507.704438186,29913.6537715225,157.1962481842,-19251.4789008037,-2875.3411135392,-0.8710094491,-994.4278813096,165.5530134143,11132.401219874,-339.1200097405,0.3623134865,-0.1686698649,-18152.7432314672,-0.7965881903,-11487.2366758558,0.9756442958,-30.9611012384,-0.6550762758,6.3089393749,760.458277804,1224.1528185856,16.4232212237,-0.5417923419,-7005.4161782102,-7720.1736854602,3150.3931097644,4.1967835257,1808.2836716872,-70591.6025084985,55.3187182285,225.3684976503,16830.337419333,3379.3267170826,171.6506625315,0.7370003089,-89.9423429994,222.3315384051,-41.1924540073,-143118.6769677203,1559.5494597931,15.7787811783,-7654.9730500494,-0.8787521112,-0.6627089622,0.6821841574,0.2061562085,-165.4613153605,-187.2883986559,-0.2015799888,14.8057823984,-43.0103557022,5719.5287752174,0.216884382,0.5966321236,-0.6626971571,-2607.4231990585,-1648.7584617017,-78622.5510612101,-0.0223938505,-0.3405441048,-317.364858669,6.1889187603,0.6841894967,0.9691181576,-10364.8136529909,-5855.3091820474,2231.815493549,-0.0220894769,0.8484704819,-66.0039060249,475.1168641228,28.0018908721,21.3643376935,29824.9972167983,220.5137794151,-1.1720687654,13.9468325328,-7336.2609151318,-76874.8583538108,-0.9279630501,5674.8637559278,-289.0074033999,104.9191341612,532.6443180848,11.8394573245,354.4456624745,-9740.7893437825,-1019.9472480735,-73.8103178891,-57.0270949783,-0.0169260763,15.1421268914,-0.4851343177,-4479.0925447563,285.8195728149,-6.0579913069,0.2883905278,5417.8346378625,-15.3041956969,-1365.5955077142,8326.6954114351,-2323.5385550431,759.0414200511,1722.9968175381,-3340.9534756274,776.262041459,-0.624191538,1.0552583028,84.5321976798,57.7992774719,4.6750159557,28.6609444861,224.4330373761,56.0126887451,46.1352490037,-125423.0105453807,122.101817299,340.0313606445,-1.0080763944,-0.5683827303,2.1541997595,-0.4007681074,-21.0670573211,-9.2033922571,0.7050103598,-0.4237669272,507.4151992892,-3.7463579161,-27.5441172464,-74.4139567111,-1661.0268359241,-0.1802000013,5.0137408817,-32.9145884803,145.5914901552,-226.189973352,101.7696595993,-49858.6812559127,-523.3540185046,-97.9835757436,-0.629440128,366.3081054546,501.6387044954,59.8394972957,-5.6555672334,2015.0601928509,84.4535833748,0.2038179463,-0.929803801,0.0152428108,11.7379192704,550.6885987202,16402.4948899277,1648.0216059511,-8131.5610097565,-19608.7965262621,-0.0653302173,30.4044380718,-6.2767551044,12332.7023455356,-41.9945522873,-0.0587827337,0.4598082504,-24554.4220770568,0.6197765564,-4064.5177944224,-0.4849654888,-17.92506376,-0.6041312008,464.9108973207,180.7025940724,567.1524204792,-5.0497353643,-0.4674900962,-4211.8866035973,-5876.9739206186,-12227.2875295842,6.4849972353,426.8654451199,-49964.3358271432,25.1550799819,246.052566604,14721.6545926602,1514.534397197,3516.056055343,1.1551554387,-46.7946639212,71.7941604969,-22.2670032579,-116317.8631190105,43.7039348819,2978.4968369984,-7643.119818005,-0.3675723116,0.2256864595,-0.4853399287,-0.3112895868,-14.8452281448,-135.3223871141,-0.1121315742,-9.8811469619,-4.5317344859,-325.1275240088,-0.6634963937,-0.1829648176,1.1293726994,-1297.5600857359,-92.5736277507,-59532.1135450591,0.1555373828,-0.7324149754,-223.105362166,0.6731947059,-0.9314680057,-0.3498923972,-4736.3212174387,-854.1205244286,822.8484526903,-0.2758579506,-0.6892043157,-27.930606693,318.2226917393,176.6081988241,39.2668920884,24354.469866992,-128.2015969282,-2.6770706123,1.6108206854,9550.2696535264,-57289.1873270501,-0.8083917214,535.4961616699,2.3479677516,206.4888810105,-5.6255627384,-1.0224715932,-30.7781563573,-8401.7440831619,102.1514775853,-5492.4267954358,-1367.3217495292,0.2286827033,-0.1894707048,-0.6147535822,1527.603084509,116.5340418592,-5.7342019264,-0.8543952987,1563.7511806736,-23.1834613025,-77.36199349,8797.840830421,-3.4394781921,514.327788888,-1135.9375436823,-2455.3488929518,649.1214299086,-0.2429835009,4.9860821999,90.6688621894,163.6262453198,-2.0242338898,47.3214406112,-836.2186856672,38.0018987304,125.3417726717,-122942.1463238973,130.9731071372,260.1378221046,-0.5596456692,-0.9594109283,-0.3809951681,0.0239331816,-48.4978645407,22.5103567192,-0.5904517654,-0.0316034169,1071.7392966649,13.4667513114,4.2475602807,285.3233432579,7619.2420910753,-0.7609716302,0.4024063203,-3.9975010875,8.8221514059,-304.4153213189,-151.9444785469,34102.1386445772,-121.790646826,-3.8428197812,-0.4843899804,-516.2848324802,-193.5693745664,-56.4640038082,0.001945272,-32.6855372449,-17.6805140454,0.489955818,0.0761580674,0.690531723,-4.5638390205,1170.3169497325,-26434.0690216774,29.17959919,-1980.3262180231,1610.2475412306,-0.2724696897,384.7635773243,-51.0696395689,-12989.6247286032,-31.7957309692,-0.4676862012,-0.7858675233,29678.2254099917,0.9515795775,26134.3084257959,0.8182134773,-0.8556745929,-0.3009166377,988.0640429466,18.3810797414,-858.969043857,-23.7044724369,0.3265191721,15.9923030006,4225.1938260043,10063.5184781024,1.6675022696,2159.3350364104,36755.8855099315,-18.7160423779,-96.7064771357,-26893.5285974109,-1409.8984713854,-5.3051120217,-0.4758255864,13.7040138536,-151.2171709137,-2.7718893129,69479.1057994359,-100.8305083564,-60.9760857616,6614.3670768692,0.1263890226,-0.2014418172,-0.6060817078,0.227757859,13.1379646935,108.2282298773,-0.0964169578,997.0708202188,195.5642066584,-3340.6900415877,0.6160802031,0.7205649391,-0.5132915493,162.4544334242,5.2244791762,41518.294849027,0.5874994933,0.9177800855,-57.6493970084,-56.8299445983,-0.6941184394,0.7783055732,7972.1850729551,68.7483217144,-0.1341081849,-0.4878300451,-0.2778411458,-1.9324067075,-7.7987852223,-28.3740914813,-537.9065428173,2298.4242560662,-176.7518868802,-2.3092881344,-17.2463886767,286.5394635457,34284.7451346142,-0.2045079671,-114.400797383,-1453.6939054911,-312.8779961987,-1230.9501145834,-1.0498214951,-248.5353761333,8459.852614883,257.2557428596,-980.1349479518,1387.9507075286,0.1420132239,0.1689672952,0.1253694489,8769.4189010578,-965.9152547396,-3.4395567669,-0.4180444771,-2884.3860745521,146.6068004773,104.0500406511,1460.7294798693,21.1014366852,-1344.1872591825,-351.6281584765,-3373.8668519342,207.9625166561,0.2407434371,0.3540298995,-614.4307183435,-0.1125804082,-1.3927406835,-8.5180654532,207.5722671266,4.7087407164,-16.841962014,70479.5638034711,-199.8604961372,-8.861050575,0.9020499207,0.213271546,-0.770960033,-0.650824737,-2.7311327165,-2.5326566303,0.1632500729,0.1687060955,-636.0262668996,-77.6321022639,26.0598194641,24.9628073179,13690.6723543954,0.0384999584,-164.777795752,32.1468202407,-950.1945445291,335.9699672635,-2349.669616211,79557.5723173134,11.8791594728,-65.0669393817,-881.9525339033,-126.5404814672,-100.8587129853,-2425.4418634654,-1.0068906711,-40.6999633276,-71.1950930827,0.4224435378,0.6880561426,-0.9244487808,-6.489879803,249.4093462969,-30568.8005385093,-1001.537216295,9814.3269103317,1045.725076666,-0.4400534758,93.1078165572,-11.7237328975,-10758.8279080521,20.9675135167,0.8739125847,0.62125122,3077.4148591863,0.9733132985,14251.5687671936,0.041902554,6.0919270272,4.3100126046,-1190.8007200884,25.0637944466,-661.225341154,-29.5542486551,-1.3496462651,3371.251403694,8060.5259167274,-2592.1320268264,-11.9694625346,-376.1582593718,76851.1512258222,25.5520167337,-3208.346940978,12626.6831246213,-3273.1005517667,2.6231244488,-2.1119148169,-2.2408782823,-389.9999590999,146.6242610487,96287.4354280704,-3095.9264740365,-6.8926454253,10972.6111178554,0.5215575053,1.9862418907,0.4830459667,-0.3958003119,9.3127390797,108.922626142,-16.5501248822,-27.2790960062,-5.1143045919,-8099.1065403704,-0.3350016729,0.8209371723,-0.4490674964,375.0243988624,600.9255480888,60270.8187856108,-0.0234889034,-0.7641494133,87.0530333129,-2.5339167586,-0.8234290998,-0.2464221863,10809.7350422965,171.3147078234,-363.6779779791,-0.2596066716,0.6550328417,31.4606987329,-505.4119540918,-10.6445310955,-72.1791682398,-16349.596647773,-6.4462467031,-0.569204276,-11.3407952225,14706.0352145444,72261.6198612184,-0.6554945148,-1894.5170803498,-558.7001954325,-289.5773333363,178.8385456259,1.2558356756,-0.947070006,9734.4870865366,1115.720237029,-9.1821745759,1015.4766545313,-0.2916980263,0.9554706458,-0.5084812746,-21734.432842979,-3117.5247276962,1.2158408958,-1.5750232074,565.4818522328,4.3921434336,10.3525630796,1480.5667156636,25.1130933042,-1383.8018984299,683.8670046391,573.4008672988,-1128.9294659585,-0.8865584013,-108.0646391705,-95.0842386185,-147.3827249851,0.3277390797,-44.6276434258,-164.5922140167,2.3262164396,60.8822128829,81094.5313209187,-44.1594777102,65.5547890654,0.0122019951,-0.9470948896,0.9367200828,-0.6041080865,1.2381037975,-20.0067068988,0.1730295331,0.4189744618,156.8839796632,0.451888475,1200.2591152361,58.6430945159,15154.533339777,-0.5860463985,-5.9432557124,30.2101831849,-119.6700527047,1449.5226208647,-119.5180508916,39131.3221513896,29.3645745896,-17.0529761435,-18.7364064254,-341.9192933986,-716.1501403785,-51.7329770389,-7.2954178321,-10.2149650942,-95.4690284491,0.0516630262,0.7477373622,-0.1476400746,-4.1724360852,5263.4269389386,-28968.8397487197,-1178.1497116468,2856.6264074952,7804.2460051103,0.050321597,996.1523187646,-182.4326119098,-10292.1683308336,399.6705899478,0.3848925122,-0.0138168976,-16892.0682567292,0.7214621904,-26734.1402754005,-0.4662798004,45.6040253402,-0.3900494402,-33.4991536654,1007.6586457026,-1268.7077486956,-5.4579527576,-0.5960703048,6835.4053578322,7606.0569086251,-2885.0510291424,-3.2883212471,85.3005680999,29051.3647220215,-31.0816034152,-70.6372888156,41876.111541633,-598.9423969375,-62.3391756878,-5.7512623302,49.9611558391,-39.033495694,7.517467604,77378.9207212645,-27.3525188239,-48.8927187112,12954.3488524939,-0.9348270326,2.0268744471,-0.8304740864,-0.6700318426,233.095458181,186.5243748384,0.4335293859,-27.4177144104,-72.2155201693,-4508.2549303059,-0.1529295786,0.8071681005,0.335403079,181.7231926016,513.398041631,77255.7927172507,0.9659769211,-0.3179989904,53.1384243121,0.541112005,0.6091869648,0.7623938822,9799.7868490176,1015.8004276923,-49.2397841836,0.7274064638,-0.2433594535,86.2392676055,-363.1531077879,-236.3006487698,-37.8399197623,3250.8231382492,-9.6200617474,-2.0007944023,-65.9165894572,8349.8022505333,62791.0213224697,-0.3502074045,-590.9656274753,-505.6681344528,-45.4884294774,-344.4055537095,-12.026199552,25.5481973405,9461.5537440136,1380.9571477299,1916.275031346,180.1159731486,0.260497661,0.2973061652,-0.7354749428,-39486.3376956914,-469.64869147,10.76500852,-0.4670133169,-3448.6765018126,28.5057822948,490.5158644369,-7899.5334881082,2932.2686183536,-1378.0660618532,-37.4487796341,105.9901815836,295.6849334222,0.7013277124,0.6696729092,-116.539999328,-9.6850550551,1.4348977717,-48.9608199403,440.4128196511,-81.541973535,-38.8693191219,64322.2878068597,-36.6381712391,-286.743352479,0.3898243219,0.7138697756,0.1064735144,0.8790784752,222.8440820731,38.2526663431,0.5811966953,-0.5364867275,524.0472748686,287.4133202489,462.9139899645,99.8997632218,-4423.5964161066,-0.9977096649,12.7763631565,20.1486728376,1047.3693229884,-2803.1663067959,-573.473287409,-42103.0782144159,-431.7535890112,-23.3991232229,-1.1898643435,-276.8356351589,-621.9812466989,-469.2578435324,7.2141862355,-429.5820989318,0.4407529663,-0.0563355172,-0.3159586045,-0.7141202076,-6.0101425024,-1823.8704293275,-13271.8423939245,-304.7909369189,3256.777649476,4381.3076930296,0.3830991833,1094.5808889653,166.8487433482,-10414.3024410136,-104.429439661,-0.4144466597,0.8837614774,14807.7289535574,-0.6894856431,-35120.420326174,-0.8366896964,36.9959426065,0.7015388829,57.5296174266,-654.0799389947,444.991518201,-4.7945295505,-0.6575638691,7219.0442904575,355.8072436132,16665.1272063319,-6.2534104089,2014.9233303912,-51285.2769950142,-24.781486868,-267.5384625573,29654.2829393138,8.1662898052,-40.1405476357,-25.6392597739,47.1100299866,-306.7675439861,3.9481992059,-11053.2905404024,159.1583264658,-22.5475368917,-11876.6639563543,0.59951178,-0.8860250464,0.7916057866,-0.3577204091,-35.3038402385,141.2891725256,-0.5682913248,10.0084553701,3.7077212764,10203.2359662607,0.8126345264,-0.0079628476,-1.3239702203,132.9720581936,-75.1469962052,49587.0962916303,0.1659563414,0.432775251,807.0411134371,43.0246961706,0.9919714614,0.6542144763,-11376.5826410915,-6.9722704545,-896.3111715926,-0.7090377815,0.0833949686,-14.3712244347,-235.850650775,-9.7027455876,-3016.2096873014,30247.5690680543,-2.2022535151,-1.1233098917,-0.3828219157,-11907.9090723106,-6278.7562148976,0.6392162385,5025.2203830378,843.0037257962,576.3079138941,-68.7951313036,33.4322787462,-474.8263328295,5594.8754656853,-6184.2212041687,-1586.2845341321,179.4187647747,-0.5032037041,-0.5264276813,-0.4519612702,-12612.5357208344,-1125.4758049673,10.1953015,-0.613545776,-5545.9479615055,17.1054843044,-844.7520130298,-7824.8234302659,-53.3637040677,-1787.7912669957,-913.0171167817,-2917.1904805538,740.0153398939,-0.2047573231,3133.1784691402,-248.0220901054,-2.02799923,0.1176384836,-48.120477051,492.686431141,-81.4733097286,-3.5709315299,3491.7801424972,-808.0561556029,-123.6570606046,0.2156134038,0.1794914015,0.2961488733,-0.5932966796,32.833381538,100.5470924834,-0.9647607228,-0.1782932167,150.6519149661,-2.4550858738,313.9053007262,487.0399527904,16751.3691666019,0.5648933809,-6.3627360118,57.5213433421,-178.2345392996,1350.9583201491,-48.4958874637,25700.3008278846,464.7787777499,-4.5145129005,-0.193574517,-303.5933511174,-10.9308809881,-20.1132427783,-6.5560629437,92.7526705946,-22.8541756931,-0.1074546915,0.3617847406,0.026543037,-10.9321879192,3459.1950111875,-28916.5226318276,-5685.6024575503,6603.0713238129,14581.0807001684,-0.721791074,625.7112072087,-510.7823136342,-11781.8365901718,205.9954834118,-0.8006405321,0.2020502986,-5931.6031192399,-0.6852226199,-37313.5818475602,-0.5424746034,28.4733891426,0.9272235021,-56.0234219034,-2162.3335534016,-517.7726634919,-4.4604475307,-0.2860366137,1715.7899542388,2422.5558671749,1546.7347023441,-0.7498970095,1434.1914644362,20486.6381593358,-3.517117511,-591.2012924195,47383.9811546348,-3430.4655707527,-174.1904679413,-98.7196827345,45.1800777347,-435.4181130673,113.664688433,64706.2774731573,-84.6433182416,-57.0825636574,16376.6389043884,0.7968316597,1.5671997077,-0.7714769959,-0.8652712454,185.923715252,203.8517279232,0.7252681931,-21.0015547961,2.0254985664,-3620.4583893675,0.4618238983,-0.531100261,0.751447063,165.9759876619,428.5064487876,72952.7494270115,0.0018297815,-0.865192535,42.5708185033,4.3136423799,-0.5431018468,0.9218257551,13086.9488090787,199.4581941339,30.3262570273,-0.9333278947,0.5152400649,56.8786101093,-62.2345847477,-27.6183392037,-15.1930101285,13759.1500260785,59.5308259848,28.794282349,-67.4844206815,13051.9888518513,55412.3133317051,-0.1776664056,-5360.5917901288,285.2510601542,-61.0794526595,-3.9106370322,-95.7384446498,-54.5333594491,9660.738333642,1021.0720809785,864.4960903237,3891.1274941548,-0.1664132656,1.2391751475,-0.1671080781,-35700.0476422191,-2193.4002183125,16.145978479,-0.5132675997,-4983.9508252128,24.3131547181,481.5402455723,-8095.8006966193,1772.3391506729,-1803.6047912351,-100.3846460471,1506.5229110819,-1034.4109967052,0.6961157419,108.3384486263,-56.9853038248,-0.5239584717,1.6006530771,-44.7266051885,341.9206423115,-45.66548727,-2.9440808518,52604.2572699717,-35.439930699,105.0341288825,0.6836138079,-0.7305175693,122.2208363146,-0.8203601413,13.2121696387,25.1094093803,-0.4776368203,-0.4176576645,240.7477541841,-0.3251634472,-204.0334129648,-138.2923657509,-13807.5050467367,-0.5917969158,2.9162010328,-314.541212849,986.6378080751,406.8403819984,268.7786931213,-73221.7780709792,-461.2816309864,0.558335501,-1.1160249913,214.8582274679,652.6379243139,1708.1282085986,6.7094158464,1444.5529617525,3.7241232232,0.1296275251,0.7796223305,0.0021263799,4.2501831124,-4872.4885048932,30077.2508274202,35.9216596263,-16477.9391350897,-7.504714589,-0.6498156766,-995.8592577352,66.0060844995,11784.8653833614,-473.5284506553,0.4024654741,0.5911183092,-19502.1063087389,0.6054477518,-7607.8416374327,0.9805024255,-17.0603148028,0.8388138646,232.6664455849,1.2817642265,157.02888456,13.7905675672,0.371195091,-2643.5406423975,-7586.8811020062,4934.0879546682,9.5503406528,443.8739373852,-71727.0855185474,16.5397166321,52.109383161,18510.7057225972,5459.1523843492,103.1053157916,1.7927243576,-18.7148285956,14.4288188745,-11.4034994441,-143035.6187614159,791.5555433568,16.8521438044,-16213.6933745237,0.8731284549,-0.4305064521,0.4996841554,-0.7835833423,-110.4842298264,-135.0258406868,0.4831388446,10.5125812244,12.0553688311,5762.0865622682,0.5690702545,1.082652639,-0.3106519784,-37.0537133937,-1531.8407496833,-78682.1440693221,-0.1117017488,-0.9056244722,-139.0979271149,5.7199376831,-0.7766644913,-0.4333474911,-12686.8336798769,-1669.7702871532,1219.4379159405,0.5050456633,0.0559580561,-311.4058085055,94.8424255601,176.0167092221,2.8096853574,36447.8497644674,-9.6395000452,-0.3669867974,17.1776641928,-8874.6113640145,-78518.4208724301,-0.4996265764,2768.3769295982,1409.3225715579,66.3844842106,-39.9142525223
   5.1628750874,17.1676207521,-7710.350598216,-1020.0553043231,-892.8645364846,-2447.0899083023,-0.3035930028,0.0098371174,0.8773424747,-2876.3517732313,3267.2516236775,-21.5569910741,0.8777313869,3659.3172555521,-898.7120585258,-865.3058331227,8487.8041914862,-566.0325940333,4615.4022240165,1077.3018700754,-1582.0813756448,1111.327702838,0.6828232012,2272.2620643887,33.5629029911,-0.6380824965,0.1065805893,92.9481212571,1247.4056856069,16.5038455237,4.3686747325,-126003.2435753722,3.0555664463,130.4811336231,0.5553873386,0.4993141365,-0.5150026066,-0.383866859,-45.9735957596,664.5754352858,0.0510363762,0.1912776399,138.6502868372,-1690.0838071514,-1758.9273614373,-85.0069912533,-13455.2445674965,0.8707114309,19.7554344276,-226.7791972747,879.4421200196,-4852.9304022989,434.9497833556,-71510.7059216773,-185.9760259435,72.1415613538,-7.2036815078,323.8018852459,626.8782861274,-126.445269622,5.5989428701,639.9942477691,34.8535427842,0.8948629351,0.5178839235,-0.3278004878,4.3489796911,-6232.9432164603,30031.5272941769,5121.1630167988,-18480.3929413048,-137.7498815483,-0.2381105033,-847.2357975623,74.7998881535,9442.4891001198,-349.8613930832,0.6062086912,0.2593877523,-18108.5698904554,0.6515390931,-14956.5152724892,0.8265929428,-39.6403714957,-0.3945794126,115.9303645126,0.4495454374,633.396375184,35.5672036621,0.1726728789,-1539.3235022002,-1721.933963004,2311.1514250091,88.9910814367,-515.9985027638,-71137.7048369389,1421.076860613,74.2351029629,14176.4364562994,3376.8252942397,77.105675324,4.7224846654,-54.1002817951,213.7089538898,12.9986474727,-142423.9231102914,25.8873238389,13.3239815044,-21635.0038668487,0.6179204175,-1.268571565,0.6757773341,-0.231597249,-165.0504054508,-71.5152040625,-19.7350299804,22.9232391627,-10.7852984276,6308.7367333084,0.9245560738,0.7078242769,-0.213988526,-1039.4188313953,-1687.5510466541,-77798.9065116788,-0.8918810717,0.0965048802,-45.4677242806,15.9872486745,-0.9560446711,-0.9913490357,-11104.4299339074,-579.2283748961,414.5985370052,0.007667086,0.4298932745,-87.0492176261,323.6245576927,81.0240669611,130.3393007813,19058.8260417991,1.1215083866,-1.6342141102,-12.3398354678,-14832.0599269464,-76935.6847531841,0.9461130539,6409.6642773844,-532.449754613,48.6610600067,388.6247660561,11.3720159769,-9.8219101248,-10091.977305051,-1019.1475438012,-48.9567111458,-162.9753491718,0.8962947415,-0.0995233695,0.9380577778,-2081.2003715834,4054.6991537671,-11.0857300666,-0.8072822415,3678.4000147318,-29.3310403727,-875.2649319447,7709.2358074137,-792.3455275354,-1770.5404795906,395.4251815806,-1330.3325671671,-227.797981357,-0.9135605562,3267.690699842,87.9216208572,6.9802518604,-0.9781593897,47.1097276837,-171.4122150744,83.2705725851,156.955235287,-125606.7075828166,17.7196102438,328.5443475035,0.2827445723,0.4794236875,0.6712896776,-0.7826294077,-77.0027423592,1140.0739777012,-0.7045243047,-0.9856247052,-93.4608857656,-2.0667906541,-1221.153538492,-2402.2840999851,-12074.3428925691,0.1613953483,0.5099866875,-6.3886768692,135.4994843894,-12.9725982194,111.4853283087,-30544.4506265066,-18.5473868756,2.9040423022,0.6085110817,1522.974619103,1563.0908231807,33.3051483189,0.1567866718,1.6550908556,69.0782610893,-0.0688439385,-0.8239623535,0.1358958284,0.8317726139,-3667.3625590315,26144.9454125815,5456.1640615948,-2695.4834657339,-9685.629076316,-0.0488748183,-6.5600950206,1.1604539634,8148.1350341569,-41.3325208297,-0.2859777873,-0.1963163311,-5310.7741608144,-0.7293814283,29323.4998914999,-0.7235231326,-24.3716069635,-0.4589572185,10.1011190443,0.2910126251,2112.5059934392,11.6281740809,0.1709587794,-164.3046323672,-5713.1541174101,-3106.3249263432,2.009580501,-1090.0579871951,-23993.3400056527,13.3156904581,64.7784501743,-38650.0486926948,-737.0685236906,725.9690267433,13.3027252661,-89.2024011261,34.3207062653,-47.3568429511,-77530.6235418461,52.7257273428,14.5767140046,-14396.261367455,-0.0933963703,-79.3843199732,0.4486423874,-0.1712819901,49.2908855973,-123.7513088143,-0.8106768904,-9.6463158129,16.6640943384,82.5387523177,-0.4762906545,-0.9692432094,2.2361805693,-83.6608916847,-146.1809848087,-71672.5467493547,0.3024438564,0.2245971159,-2.1623561667,0.3115819914,0.8854586008,0.4746642022,-10281.0242852617,-334.997311623,-30.2017292026,-0.4503070046,0.0775816709,-33.5366921253,1290.5106653294,24.3099402905,864.2805954901,-7962.8649072408,10.5719601369,-0.4798858395,-41.7159975839,-7129.7315679242,-52914.5785497499,0.1457746122,75.9211020656,-1103.196085963,35.6561414368,1749.6325501753,-0.8053125289,14.062868889,-9558.1605048987,-114.5062015684,-313.8186969572,-332.6646152195,0.6965883901,-1.6801191819,-0.1133827163,30716.1959045344,1108.4858727953,-6.3012958438,-0.542603313,3121.9217083604,-8.2545929554,-40.0426562971,8500.7375255613,9.2822352231,-374.4653250967,-255.160988058,-1937.9287672513,95.3528072629,0.7965247493,-27.9392523582,75.3157837523,94.4263049319,-31.2617296185,147.0603001865,-573.379820368,82.3475853545,131.7791775312,-66467.5268087704,4.2686520971,403.6994776092,-0.9734963563,0.9413348584,-0.6368534022,0.5213009525,-31.3860804073,65.2548261741,-0.6990261029,-0.6944125129,55.7777284944,435.668431086,457.6704252223,63.695253482,13059.8592454598,-0.7607926752,-790.8240503933,28.4328620084,-14.5844882064,-407.3478098384,-656.4026310048,75459.5897795238,15.5305108602,-71.3373199583,3.4456467291,-159.9480442727,-657.4245851284,454.5664486342,0.2021536987,-2052.4008176786,-13.6581767422,0.4537491438,0.7640519697,0.4385733158,-1.2966360655,2308.2120893127,-30071.6468293436,-364.3248905362,14833.0710786409,136.9226226065,0.9779526142,2522.8100401636,-315.2227656714,-10166.7988651366,294.2206005381,1.0728253626,0.7452438667,17929.3588525546,0.9407077805,11865.1895114461,-0.00967547,-6.9377316086,-0.5875911673,-11.6429203272,-62.67327476,-594.961322412,-7.6190986547,-0.0280668006,1826.7180669373,8152.7566432584,-2754.8117136152,-9.5825386005,1393.1354319452,72010.153099539,-30.1410051173,-3244.0432526391,-18805.5851359298,-2511.0209659843,-79.1983622809,-32.3411763558,16.4124091166,-161.5486423875,58.4048054163,143142.8650490678,-25.548447259,-719.7362502269,9970.6196327491,0.140139457,0.3230692303,0.1732893941,-0.890086035,72.8056191444,196.1387010033,0.0926516284,-30.6951035284,-3.9181388039,-5393.0359101298,0.7964836935,-0.1736534506,4.3937886534,98.9477056614,1469.5242629472,77914.2119791192,0.9309208282,0.8700464664,4041.8846761664,-13.8983304567,0.0725214254,0.8034012172,12034.156903093,205.334593485,741.4255098483,0.4352781897,-0.8505377085,53.1415217439,-1431.2358515809,-235.1713765452,-182.7371034045,-32589.3932282704,102.4177966468,4.4757321085,-8.5001451762,10235.1825135085,77362.4504198033,0.6758442082,-8415.6907411619,1330.3492990093,-25.9472087326,-462.9454508681,-2.4357687154,21.5544499007,7183.1357240133,1020.1944645759,28.4844943948,23.1920604266,0.246122806,0.2330946874,-1.0781494589,335.7055638439,-3175.1539957472,6.5824285123,0.2915489244,-1181.9452760978,26.0101709733,16.8718497908,-8488.8689710294,396.2402965397,1354.5496530023,-1920.5255024848,3100.3630581716,-1.3732960848,-0.588636584,-22.6380305207,-1414.9902915421,-43.815044425,5.274961369,-56.0146210547,916.5075564895,-152.0547341209,-147.7750048449,124302.716037433,-146.1306786049,-977.0974984261,-0.1316288842,-0.7618591123,-0.627752821,0.4797545241,14.8753351588,8.1485004073,0.1681503707,-0.4350471952,-77.8308927153,4.5885227451,-86.4189201936,-75.0416638185,-13947.7044265257,0.2000364014,6.2566836387,-57.9673956825,36.7559776577,-72.9157299045,156.25289398,-71785.0498173827,-61.835664548,309.4882252242,-0.8541725817,212.3227213345,640.2530057613,42.6624481244,7.4311547208,10.2693028509,494.998837944,-2.6559389593,0.3410273671,-0.8267775509,9.0896629131,-2096.9222826092,29332.1251549953,2827.4154540124,-12918.5705454326,-3804.3868429532,-0.4248826324,-850.7455029248,720.5361327383,11299.5756131471,-79.2246277495,-0.5041592214,-0.5728691009,-21723.8747603975,-0.2907218038,-8969.0868643214,-0.9614697389,-46.6865001507,-0.2916618344,-7.9076191031,111.120015813,872.7978723229,4.9663480128,0.1063551663,-6428.8198906779,-2754.2279642052,4510.9836355193,369.9434857307,-2663.8865449407,-68176.86285309,219.8791503142,1145.2550453363,17791.2803229733,4358.040596064,33.0837917554,11.3470773441,-45.528921766,72.8731265202,-617.490402104,-142881.6976512885,19.6684868382,44.6451488655,-12577.5774332265,-0.7464065412,-1.5333289445,-0.5232074258,-0.0284218152,-241.1419733693,-117.6092038079,-0.3892599146,45.9904119413,-11.643525567,6120.5774581314,-0.8473205376,-0.5585657548,-0.1874758165,-180.5407959323,-505.5654358262,-79679.4530765901,0.1287432128,0.8767430666,-9.0240353024,4.9204965588,0.5303109652,0.1723615771,-11525.1442218244,-1517.244233622,-86.2144184977,-0.4794640386,-0.7149479843,-37.5021099833,134.4604876647,234.9197770772,62.5388856713,30981.8611270082,-0.8137357323,-75.5526568616,11.9969218088,-8475.0152407957,-77885.4967646515,0.2287976178,1444.3563947599,-25.7080417478,27.3442444262,-297.8862708953,8.0792214496,-22.9325193271,-11253.4887914617,-1380.4301003753,-51.7876316771,-23.8233002957,-0.7529962373,0.8907040542,-0.0731142608,-4870.0364322364,1407.1789068807,-7.9466130046,-0.1363490409,3412.8162536293,-20.9072868435,-113.103421674,7949.1996033967,-6.3780526825,2942.9394824569,1049.8939206874,-627.8472530424,4435.0409606013,-0.2341370587,1140.0075742084,2322.5579681764,451.091039316,-0.9744098646,49.2276718912,-27.5378858298,83.4836792171,81.0274631343,-125516.5967987276,36.2472670845,3503.8513919081,0.482778589,0.3204610943,1.4935353712,0.447876996,-76.8317340254,-23.2038993438,-0.7704108239,0.4934504737,13.6868352966,-6.1935379694,-112.5215127635,-382.2441509765,-14658.6711698825,-0.5015736495,-9.8499747418,-245.3918924325,14.468774506,-49.2965422428,1498.1630686617,-32401.5688178991,-150.2682127518,11.7943854954,0.7463845543,324.6553799313,1061.3973369971,816.7387375493,1.8886007703,-41.2544952945,28.1029426112,-0.4773469786,-0.9327882983,-0.7901931501,4.1428659954,-207.7478809677,29285.0772436676,405.2741598297,-8571.44765085,-10104.0374486058,-0.9474702219,-9.1582491134,-0.0939442916,11195.588572081,-43.3663237743,-0.0085788781,0.9607851913,-4207.0275563733,-1.013830023,28243.6713705888,-0.3174251245,-36.7856385469,0.4995994703,998.8141903413,138.7229695602,1575.1914258873,87.5150710691,-0.8472649962,-1531.7732636744,-5782.9217026003,1683.169489876,20.9821505205,-435.6459796238,-20745.4466968052,209.1931409512,239.2352751943,-46756.7563399694,2074.9508159895,60.9681185324,57.2603699025,-20.6660335908,-8.768145934,-13.7116456526,-68100.9943317301,36.6835234244,6.3737818933,-12754.760753904,-0.784011143,-0.9019995527,-0.0843562113,0.3294094289,-81.1152475793,-59.6564111714,-0.087568524,272.7636141135,-12.9435709086,5408.4157539319,-0.9430410361,0.9313790269,0.0087471026,37.2265969221,-355.162531042,-70241.7689599873,-0.9512678197,0.179088445,-1954.0983342938,269.2781060706,-0.3353603486,0.6827918724,-11567.4554144264,-155.4878352164,-0.7833643147,0.8819189187,0.6962047166,-1387.4870891726,73.1636631094,26.2465066796,2351.6674854573,-14192.3131207068,2.6390507413,-0.552548694,-0.5150669381,-9977.4307893326,-55447.0771191364,-0.3998051358,68.7255512971,-1188.0853054291,-70.0950809007,83.3011890876,138.4998325767,-31.3131748474,-8623.081213197,-1020.0206804528,-1709.6885461115,-296.3752565401,-0.8887729008,0.6654898194,-0.8181361724,30513.9390216449,826.202887429,-7.0565783724,-0.8472307921,3811.6000573643,-20.4313304779,-11.1157690471,8083.6421590632,-61.1363257822,-322.2580342962,-124.8022874605,-1880.2883610154,-307.6104044185,-0.9829663784,-5.4320454187,563.5656162836,4.7796874918,-0.5780271677,246.1478491457,-45.5956408041,45.9786156423,102.1569040244,-55762.4542268333,-73.600015682,258.4493111567,0.2976223051,-0.5299119678,-0.9966172926,-0.3919086806,-30.8110547955,-35.9665465447,-0.1239277091,0.5758487772,141.589521029,-93.5456234436,25.1992025352,27.3197754333,3981.0014698794,0.6400832613,-0.5921794131,41.5512945756,-1.9864266216,-2050.430331938,37.5129979194,-10715.0846613478,-314.8588812227,0.2514438893,0.0975962996,-226.5008611465,-67.7371185563,-26.4207196586,6.68097387,1617.7784106831,-2.425807268,-0.2483900297,0.2633379954,-0.7831209744,-4.4179634418,-8637.0333349587,-26162.5913321312,-120.4280149154,-6087.6610226323,11542.2005010015,-0.1529188101,251.3114120989,182.2053684307,-11911.3184357053,-49.6873737648,0.4563101271,-0.6694396599,13972.1931324392,0.741221056,12164.528765538,0.948307266,42.4254643161,0.6566614251,-1.6915532864,200.1842262253,-2128.3493402079,-45.1948510973,0.0912014254,69.1345668571,2719.6235370104,976.5985100259,-4.6089214111,-1359.7718884402,-12035.6933532183,551.469867208,15.3731559685,21233.2575171097,-1350.0382946209,11.9483643659,-1.5499952012,-11.6075996746,-13.0744258387,7.4930768262,-37953.4445044191,-14.1014192985,-51.8197048795,-11677.0450647509,-0.8026636364,0.4540970113,0.9456547415,-0.4754575126,67.1208495512,99.7807636912,0.723517903,68.0241881502,-562.6166057632,6564.1905516139,-0.1381325759,-0.529839166,-0.4733610377,135.7062023751,-270.0296616198,4565.6328000346,-0.4725332324,-0.922021617,-183.4517607582,7.3099424834,-0.5670509494,-0.0554329365,-2158.8581871616,-3153.0967804943,1071.6348037807,0.1670495551,-0.7749118099,-594.9525414063,-1.472236176,-235.4280432938,-0.9039310126,27103.1243965305,-4.7837246543,-17.2354411013,0.2141691462,-14198.1788072111,-4890.8227955755,-0.2493034081,4763.4961061316,869.4315047307,30.6661428025,-1104.195489881,4.4486125399,4.571770456,6903.9494720416,-4573.5554454604,-3.9632362453,-661.3436145275,0.8512471985,0.0384679775,-0.8439275988,-23782.947272634,5426.5030876738,-6.3748248098,-0.4852574897,-3449.6918214256,46.2043505293,-1156.4664345512,10305.9516694187,-482.0054284196,-480.6922124338,1217.8439226006,-1222.1895633918,3678.6216128001,0.5047845664,0.7371227521,-363.0339667298,-0.8170196673,4.0433659847,-31.6571984915,177.211001378,6.5641612808,-42.2388306966,-24507.365065822,-54.3658416743,340.4809305109,-0.8684983277,-0.457413629,1.3872428241,-0.4074897656,2.1870716717,108.5233000524,-0.9261167043,0.4040566186,-789.9354327011,-135.9543607702,2481.7152923393,414.9561670674,14451.5054943144,0.2340175683,-13.2691477,68.0254057942,-346.9172970039,207.0655371707,-397.5319586168,70763.9846750218,13.9217792728,-165.0066907223,0.761290105,-32.8721418833,-786.9439144731,-508.2848528188,-1.3822598039,-101.7233693727,-648.6485646417,-0.1230868416,-0.2663334543,-0.1410920725,-4.1039128642,2305.186736511,-29943.9895944641,-2636.1842192113,16767.5904398725,-939.5223841596,-0.7478553143,301.9161208445,-37.4219453729,-10654.2587175876,128.458285291,0.8216900366,0.4151899117,20734.9982496061,-0.0278553823,6281.7815026038,-0.3510639806,47.5927976307,-0.9712591381,-4.1159422443,-19.2447582164,-171.1183064486,-7.9671839224,-0.3187219597,1192.96346412,101.2051927213,-6082.8150489385,-8.4072266859,484.1168094548,66859.8440461703,-1181.3544279534,-341.6794416913,-18214.6186335486,-5476.2785840623,-41.0215019078,-103.8748341,49.6499839577,-29.9612640692,-21.5065406906,143120.3841758754,-586.0548522274,-31.3273375832,22599.2080807297,-0.6898460941,0.6753404603,-0.0542377794,-1.0913782589,132.4329348134,222.332887291,-0.8654235228,-858.3281114462,1.2821479053,-4262.716080289,-0.0028175737,-0.0849630782,-0.5442188595,1099.4553731498,187.277058388,78496.2811244512,-0.2939451866,0.7667485472,5573.7452889431,-40.7961136036,0.487034022,-0.3746157629,12882.7714286278,1092.4149897514,-14.2006453342,-0.0982567378,-0.2942219465,61.1559645344,-104.4298451881,-32.0784269256,-70.3665765381,-35632.7996593785,0.40291992,14.7233481848,52.3710128619,4606.6201799295,78281.3515581066,0.7567711567,-5013.8884958782,-744.4427070891,-105.6888154029,-69.6332328228,0.1458450287,811.9386393387,8590.8029433779,1020.9357935337,278.3990831355,4398.4771596575,-0.4853429478,-0.9060873065,0.8642366092,7611.7332466467,-3084.7705560873,10.0614368954,0.0210449732,-3367.5118210528,25.8379712931,164.7104945757,-7784.7393086847,127.0952507858,-1339.4261075589,-1821.5884711803,4275.1153172411,150.3528222896,0.8128567833,-206.277976376,-622.6609031252,-1370.1147610867,-0.5368065279,-54.07463446,-690.4459138198,-19.0141729977,-429.9804252944,124878.435474079,-146.4100255274,-163.5429809453,-0.1335845417,-0.5388745001,-0.7099064922,0.5760036365,1.6195112272,-473.6489047538,-0.8260236621,0.6493609858,-28.9976928854,145.813629079,-33.3228629823,-14.7211632564,-14298.8669450253,0.2831873006,-0.0856220297,-609.2603469478,170.4874776863,-62.6591120762,72.5938982272,-71315.6464079073,-166.8591858757,2.1822822889,-4.141496354,257.6892755357,275.5234164699,488.6674963795,-0.0657803476,651.5505092801,3.5594871655,-0.0148465498,0.8217198345,-0.6623149174,217.9660985667,-5672.3308472441,30039.2054279984,-20.2939290254,-16778.2125687085,698.8274442427,0.4035724151,-151.8498447221,66.7739156001,10816.348573113,-98.0744125918,-0.0741453673,0.5656768558,-19142.9400980191,0.7446248416,-7194.5912125401,-0.034271154,22.8321364747,0.8921136954,165.6975671595,-413.2262137176,139.2067465055,236.0921410746,0.387637772,-1476.5528019578,-4241.9770340336,3824.8478756434,-0.6676593424,810.2389608719,-71662.3557188078,22.4622262675,106.4669974137,18699.836875453,2359.4879994181,42.2136570892,1.0330696051,-378.7262643863,167.6824449817,-22.5947689832,-144130.5273785884,1086.0820196307,81.4379996447,-11746.5874159332,0.3084079025,0.1058897991,-0.9809164566,1.2597339624,-132.3822233762,-182.3712722098,0.3609866566,35.6303491523,-351.8063783284,5613.0211775734,-0.0186973557,0.6723265761,1.0357140883,-896.5148338399,-269.7082020114,-79367.9700776981,0.6107753647,-0.0642560151,-73.5031012592,2.1618997834,-0.1589999081,0.2217081684,-10733.1172035955,-806.4236073161,872.8553866632,-0.3073305672,-0.5045099086,-20.0125218877,6.2581483507,115.6640320014,64.2299485085,36278.6297198346,95.4431073841,-2.0833292801,439.7266610243,-6948.8056099324,-77592.9339149646,-0.0518447741,470.6542557377,-1316.1694431834,414.0076217787,611.5425590257,1.0783334725,-15.2265669269,-6376.4326932074,-1430.8225954294,-203.7025711089,-1744.5471110128,0.4605535746,0.2376039757,0.4804587723,-1763.7790862466,655.1675907044,-2.0610355397,-0.2332644872,3097.8731134731,-27.2500136563,-71.0609508845,7898.1527174221,-2454.1615237709,1387.6424535601,-1290.8388788301,-296.0793163904,-192.2087206055,-0.6529579303,315.2151678923,233.7945028193,241.0910333636,-1.386084229,3.9333716224,-409.9402383807,7.2599583784,811.958832386,-123702.5067184045,133.6221214077,84.8479940546,-0.9135039129,-0.9225930576,0.4422471867,0.1646286706,-385.2441367355,150.6943220901,-0.0927378365,0.7958707033,1167.6765912395,3.7761585474,4.899697565,45.6311113798,-15016.0953867969,-0.0484153397,-7.9611348587,18.975725128,7.5378946826,247.2313934828,1493.8052314254,13619.0173024427,6.1956109369,12.8899906885,0.5267684538,-1392.3904768946,-196.1963668453,22.2172627294,-0.8985493854,31.8249889213,-1.6298817676,0.0247117092,-0.7190460303,-0.4974588368,-6.6055413602,-691.1767635609,-151.756892168,220.8603617127,-3086.036899813,12682.3536327758,0.2885385433,-204.8150904333,1.2951118174,-7528.3576320485,20.0737172797,0.9065940139,-0.3440702172,12903.3451744839,0.7190625388,-27769.8604212527,-1.0124917731,1.9119694317,0.8502899391,-539.0707212747,-123.5319989623,870.6913872084,-12.2027087594,0.4196753726,-69.2419267422,-2576.1914536917,11435.8559047603,78.6119125665,354.2393308196,6350.1317858817,-25.3380092254,-128.4428758634,-16854.0967073832,4299.5070241301,-241.2657153808,-15.7117407702,89.2716456221,-476.6247709556,-379.4466768973,70356.8829427247,-1892.5116868793,-63.4520490741,-4030.8365180111,-0.5513575504,-1.0096453061,0.4118234834,0.3319165715,-27.0123555979,54.3138087555,-0.4405831049,-2.2847953848,-13.1320660985,11642.042645129,-0.941404624,-0.5438899645,-1.1225123965,-70.2171807043,697.6871420697,54574.2566917073,-0.1752714083,0.693298412,-5.4207246172,4.4835383461,-0.1115489451,-0.9312042822,-8483.0296116769,15.3254224774,57.9624945048,0.0762755793,0.0017296227,27.1887877456,-33.9391122643,-4.8133348686,-103.8303644476,-16732.3431588799,6.8300663367,2.9624222732,-7.1703389015,-14556.4473215684,17773.8148584199,-0.2227704996,-3751.5319410135,-20.7416495912,-68.299397573,-10.5399750842,3.1174920086,285.8324895248,3100.4279600964,-8360.3674821555,2997.5397583454,165.7316573804,-0.7580309282,-1.3655965236,-0.425556874,15929.0397250048,-3333.3900961147,-14.1479012712,0.2896546529,-4977.6439771839,7.0190093927,-24.8630229672,-12609.2701546606,-1063.5120586079,837.9459598367,-295.2703261445,2220.5000503922,-2678.3846783444,-0.2332032819,-10.1637557171,21.6192012273,-1099.7135820817,-10.6969810832,-73.2288432596,763.4690998706,-45.4303917116,-1643.485761019,76850.9641468733,16.30194393,299.0558071022,0.8138949352,-0.0358230844,0.0363270392,-0.2506318495,31.3707611664,1001.0527350767,0.4363038363,-0.4989977148,174.8297209059,-28.3483282478,-1239.1526326608,-10.3921850315,-2246.9369111054,-0.4627352259,3.7879105523,-111.804893381,156.5271910721,-280.5156821142,48.3021862496,-83289.2206142403,-72.6825937123,19.0697663662,-0.9471761823,-10.743527708,-119.380691229,22.245434004,6.4653507216,48.0518882228,-17.4285360251,-0.2093808956,0.6216325624,0.8010023666,11.0618015348,-5394.8840418122,20880.9031429784,-32.9815041777,-769.8355527398,3169.6429627217,0.8987609371,-961.0432218905,113.4510023792,7140.5746292696,-54.3027113053,-0.868999399,-0.2585473481,5549.055425857,-0.0090687181,-36905.5582811153,0.7688455371,-44.3155800463,0.0087268253,-8.4612677188,-408.5495114922,679.6117954476,19.293070971,0.2071453901,-1377.7613748278,-4881.4549523833,9173.6108103583,2.6948026715,2152.9284232179,-68535.8128119798,13.7982109982,-45.7262250714,16491.1843840844,-905.3668722326,31.4040227635,-1.9532721908,2.0196138347,-12.5749712831,-29.2908810064,-73168.8092248105,335.1870058757,7.3010120333,-12349.3300037114,0.3183103476,-3.5131149081,0.7770335361,0.1658409069,-231.596837796,-80.9773819153,0.3853684788,1.7894057132,-72.9663730706,5252.9659647458,0.6364531222,-0.3738770518,0.6435671696,-55.9227009094,-182.6516054656,-8402.989600165,-0.5959230919,-0.0725477283,-53.2798061626,212.9338136564,0.9424717801,-0.5397694175,-2370.4931080542,-174.3145419896,-745.3237258821,0.9040755793,-0.7085746714,-112.3320532287,-27.116993966,159.525681647,-16.4562623112,8403.6884652543,-1.655355143,-1.5222155179,3.253920011,-5039.0606141155,-47357.2954481702,0.0542120575,2167.4597542353,1765.4997490026,280.3642476334,0.677505165,2.7425109149,29.4570375628,-3856.3403293625,-624.5378499038,-2519.3647481265,4395.8216677496,0.8583465726,42.1463077741,0.5669817977,-6063.8673348696,1038.5054598778,4.8669777835,0.3145548582,-4064.2401559945,-5.7753576086,-865.3708427098,-9723.2216612839,-1231.908437336,109.0648724706,2081.0547013072,-2604.3584885629,325.5059639421,-0.544796814,2681.8184999968,88.4122380905,-6.1179092944,-0.3923853571,-33.9954529022,100.0389202532,-45.1595405227,-624.5572835066,-55627.5385439722,-8.9697295046,-100.1369470168,-0.9824923869,0.6548182439,15.2889400949,0.0866504109,-12.3538683243,82.3341823363,0.9086062697,0.5240766524,-1606.037893778,936.1810946428,50.4154811663,1233.0108497912,13862.4401604971,0.2367900662,-40.9470577445,27.3126679855,-25.9332565666,66.6228781848,-327.8821503543,71251.432349824,76.5266809127,-8.8920605921,-0.6862465533,-545.4303744071,-632.9011354726,-136.4893356428,-45.3233553028,-1402.3694488714,-421.096130792,-0.8196433242,0.3330630045,0.7438461161,-5.286389246,558.4449518273,-29828.9321547693,-1030.5399024034,16368.552246185,8157.974670761,0.7132426336,43.7634146621,-103.1096512862,-10704.6541970858,234.5108279003,-0.4745168037,0.0631671404,20233.5403264767,0.5056379862,5283.137046803,0.5960506687,92.029041117,9.0030504721,-462.1085052382,-593.5493052102,505.1186974489,1.8246228341,0.282629179,6433.3593891803,3607.7946157583,-5191.0411626073,-247.5523579559,-53.3257044461,65821.4710083896,-24.8394513822,-1156.0075301442,-21359.4656063902,-5468.8941684881,-1162.7391940754,-87.3646140778,7.6535428516,-51.2258523222,9.6456770643,143496.8486368176,-28.8214039817,-95.6586785907,18080.2736826789,0.9317479689,2.2667754542,0.6873481172,-0.2855236582,31.7982603604,63.8271347159,-0.9196401796,-31.9046555485,8.2783271192,-6387.121346191,-0.6419806526,-0.5500162222,1.2563030549,216.5132266584,502.6734538757,77491.9380431541,-0.0346008646,0.164880231,4623.6521852835,-84.5323217705,-0.9295809189,0.2083581139,13268.8484035054,856.1991889869,-986.6369091151,0.1972310995,0.2156120149,73.2390738853,-270.0449750797,-81.4191253103,-81.325875372,-37610.3025151365,33.9191234483,65.5721224044,-9.5305977458,9761.6954496599,77133.4444147485,0.5586177029,-2166.844195245,-80.5363277386,-95.719242538,-33.0950421961,-2.8315243973,31.2862574883,10037.043072004,1020.2787088655,20.3855150045,792.0857898964,0.9354305628,-0.8497620469,0.2785159263,-5484.5296472216,-1791.7767860525,10.254859972,0.7527057489,-1877.8079982512,59.4560438458,104.721971255,-9068.5070169556,857.9161168052,-876.0064972499,-2302.1805986617,3184.692157445,-620.6867978411,-0.8644270018,-15.6320618238,-1520.4005215726,-279.5384837555,-488.5665684531,-14.6476833639,-65.1971199921,-39.1147796749,-614.7685601813,125930.2711878662,-426.7447358557,-1372.3699534225,0.7153380028,0.8638067748,-2.1838426679,0.9858721158,2.5347342065,12.501037568,0.9694129111,0.6481966017,1254.984160722,-12.998408219,188.537528555,39.9765965965,13581.1111115972,0.1567278955,-5.6521900028,12.6445167482,-53.3897215626,78.3301370536,-104.4648329986,69019.9670909738,12.6249101278,-16.4269960447,-0.2061730751,-37.1891622906,-530.5165006415,-1548.740639508,-6.2715245718,-55.7640351802,-242.2844552077,0.3444902524,0.6167327992,0.2859646824,-3.4120015645,2379.5822986981,-29947.4802732937,-1121.7348919425,13549.0008082018,-8.9424039711,0.9925174033,218.2612742223,-0.116767361,-10920.1152643347,256.9078804772,-0.5041115116,-0.370883307,30234.9684259207,0.207746385,8567.6599558433,0.8824587354,5.6199972129,-0.5460348228,-98.8105234717,-73.5162020855,-1009.1947969736,-22.1259140706,0.6847229964,157.4869634038,7888.2711678279,-3972.7007299229,-1027.8641323068,33.4125723755,71707.1709041462,-4.6103434612,-149.1076361706,-19147.7059201175,-2985.0556206999,-66.943401818,-3.3371475028,46.1676174584,0.7964662646,58.1840170307,143138.2159165044,-311.4844035784,-75.0533860893,10225.2867881778,0.5469997694,1.8070385944,0.9917458778,0.1096737922,133.0440901637,580.2347873128,-0.1008897118,-572.1623736648,182.4388229989,-6477.5419911733,0.6906709987,0.8452183634,0.2654038416,686.1987526813,469.9926924848,79077.9382993509,-0.6755054666,-0.1215934562,5999.389815756,-6.6537692742,0.2824590106,0.6964809096,15192.890972778,4009.5597732928,-1257.9144751028,0.2782801661,-0.5921013058,52.8333478555,-1959.5116029631,-43.4003342589,-344.2938906353,-35042.8523094281,1.5528383144,47.315534345,-0.3176496122,6426.7495645679,76528.310867355,-0.0368614756,-5085.8258655126,-1227.4605596478,-30.7103355443,-23.7519794172,-2.319410708,-55.6050120764,9751.4659447048,794.9715403023,67.0919518042,1501.020999149,0.4584396846,-0.3608024042,0.3898416333,6974.7451127441,-2888.8940036036,11.8141942165,-0.7988269342,-4939.5466256134,55.9846834249,591.1231897485,-7834.9678714317,5688.6011597238,-3015.0800655679,-225.0869077491,3074.2780751523,-281.2596927809,0.1882039532,-124.9111120036,-47.1504276173,-19.7755204161,0.5899330169,-240.2261278275,-31.5414300295,-44.7821787672,-312.7556627637,124832.3676868725,13.0113282936,-252.6314420042,-0.080860353,-0.1480159469,-0.19386929,0.7306513444,37.0800402316,-749.9258019459,0.8182321082,0.4615723083,1540.6292107592,-60.4675014002,-145.0920658352,-68.1387571289,-14654.2278152423,0.9540623744,5.2653536532,-53.5207691387,145.4271674088,-5279.9485152719,425.518783334,-72124.5199739554,-298.3924382489,6.1014259767,-4.4013190505,1013.6440110361,758.7516859588,618.6816968041,56.1287433008,2280.8348927826,28.0006162249,-0.6882223573,0.4844529614,-0.2955966334,4.4950364833,-5611.3223975899,29967.8752123221,5127.7013691821,-16544.8658157975,-198.7562332827,-0.4341361259,-708.2963403349,343.3414287922,10869.6059459935,-90.5549061455,-3.4463499665,-0.3460270725,-17503.6326591705,-0.875702244,-2498.9945196552,-0.715657671,2.8723206715,0.5397457108,890.3508289552,0.665786568,-1159.1182142817,90.0120441645,0.1553860016,-5351.1108424304,-10027.6588571407,3196.1875991656,46.8552596747,3154.9227636676,-69610.6796775962,5.3351355783,400.4609275005,15275.534488414,2532.3963632282,107.1478650261,0.1038078035,-48.8332338142,436.5079126453,-12.3021027153,-144173.7547464738,1295.0787223813,255.5157092546,-21612.4739590804,-0.4162793354,-7.17797158,-0.3000162946,-0.1558797148,-51.2075449319,-138.1456469573,-1.7773860502,-924.5280290865,215.7502567404,7676.0251264348,0.4869013664,-0.1222435367,0.0951551828,-730.022513652,-1232.6701438433,-79367.6475748779,-0.8485520948,0.5976233463,-3769.0771328178,44.7658181668,0.0174466933,-0.3008652251,-17241.3663820132,-418.3466142138,659.831993509,0.4493365463,-0.0233971001,-48.2050967544,393.5203246518,210.9225281404,88.5723852795,33658.0712539433,907.5319552271,-2.1966962696,-0.7354738853,-8504.0512179839,-77851.6474696968,0.3834580947,9537.6450990575,251.645631075,94.003207629,3.8240608553,11.5142691041,-286.4746603896,-6488.7416854901,-1019.4057928472,-2084.3313186755,-2694.8509066677,0.9702912368,0.165973677,0.3558467486,-1623.9280502758,4676.3548588695,-10.526266116,1.0058108727,3463.6748864591,-60.3316317262,-95.441843701,8195.5260376377,-2914.6096633006,187.6241555863,-393.1490321633,-4274.2149529771,2660.9532182354,-0.4723760482,2.6416473977,85.6570173871,2407.0812234598,-1.3097919691,535.0095610913,112.7428380095,127.4274398445,147.3366704752,-126488.2577608591,44.4658750884,249.8401875777,-0.2995940502,0.1781262398,0.8161083043,-0.1489939993,-37.5288431554,-19.2414821534,-0.2360965788,0.3448324073,-1811.4190627914,-9.9007220465,183.923733727,114.6160497687,19016.5689587996,0.9897420201,-62.2659138795,9.6277645517,-198.1142341344,-856.4190335616,-233.5939559963,20439.0029094387,166.0138608494,-3.71632499,-0.1726946927,-121.5659242328,22.7694777493,-36.3109015307,-6.990101805,-191.3202543676,-1542.0275690155,-0.1931513609,-0.0707919049,-0.8278498442,-8.1012636522,2537.9516921879,-30087.1847802479,-1979.8688998694,5570.1240163741,3080.8936211624,-0.4076657867,995.4446138662,-57.4746494206,-11630.5852544258,297.6351040572,-7.3033252052,0.5628971507,1685.1249962803,0.548424614,-27484.1224067039,0.1776044179,29.8209223982,-0.8294148723
